svm_type c_svc
kernel_type rbf
gamma 0.001953125
nr_class 6
total_sv 68
rho 1.4065976829138418 -0.09408625055790637 -0.42970331205377832 -1.2317634914195916 -0.56609927629642409 -1.114000642735127 -3.085166581365681 -3.3301620235872829 -4.0434878564527441 -0.32424290389562033 -0.7238751678380817 -0.36705673437693354 0.026803466277663883 -0.098560805933756615 0.3016087984957958
label 0 1 2 3 4 5
nr_sv 10 12 11 12 11 12
SV
0.84422666900864252 0.8906420793623 1.2463306994630732 1.422893578867467 2.52998398631587 1:0.577982 2:-0.577982 16:-1 17:-1 18:-1 19:-1 20:0.266056 21:-0.33945 22:-0.885722 23:-1 24:-1 30:-1 31:-1 32:-1 33:-1 34:-1 35:-1 36:-1 37:-0.926606 38:0.247706 39:-0.237827 40:-0.951582 41:-1 45:-1 46:-1 47:-1 48:-1 49:-1 50:0.559634 51:-0.225563 52:-1 53:-1 60:-1 61:-1 62:-1 63:-0.908256 64:-0.59633 65:-0.912844 66:-0.90903 67:-0.832702 68:0.110605 69:1 70:0.0550502 75:-1 76:-1 77:-1 78:-1 79:-0.981652 80:-0.486238 81:-0.899977 82:-0.922526 83:-0.752293 84:-0.438532 85:-0.220394 86:0.0405071 87:1 88:1 89:-1 90:-1 91:-1 92:-1 93:-1 94:-1 95:-0.541284 96:-0.858598 97:-0.908742 98:-0.922526 99:-0.943855 100:0.0751522 101:-0.160616 102:0.363267 103:1 104:1 105:-1 106:-1 107:-1 108:-1 109:-1 110:-0.19266 111:1 112:-0.730886 113:-1 114:-1 115:-1 116:-1 117:-1 118:-1 119:-1 120:-1 121:-1 122:-1 123:-0.551908 124:-0.865325 125:-0.941618 126:-0.938478 127:-0.96257 128:0.122936 129:1 130:1 131:-1 132:-1 133:-1 135:-1 136:-1 137:-1 138:-1 139:-0.961225 140:-0.253489 141:-0.96695 142:-0.891806 143:-0.938032 144:-0.389707 145:-0.237097 146:-0.0544746 147:1 148:1 150:-1 151:-1 152:-1 153:-1 154:-1 155:-0.565924 156:-0.845391 157:-0.87549 158:-0.749597 159:-0.852245 160:0.148459 161:-0.123582 162:0.572865 163:1 164:1 165:-1 166:-1 167:1 168:-1 169:-1 170:-1 171:-1 172:-1 184:-1 185:-1 186:-0.46789 187:-0.21101 188:-0.3211 189:-1 190:-1 191:-1 192:-1 193:-1 198:-1 199:-1 200:-1 201:-1 202:-1 203:-0.25688 204:-0.823066 205:-0.756047 206:0.21101 207:-1 208:-1 209:-1 210:-1 212:-1 213:-1 214:-1 215:-1 216:-1 217:-1 218:-1 219:-0.382497 220:-0.959726 221:-0.581238 222:0.19266 223:-0.931298 224:-1 225:-1 226:-1 227:0.854679 228:-0.753693 229:-1 230:-1 231:-1 242:-1 243:-1 244:-1 245:-1 246:-0.21101 247:0.155964 248:-0.934269 249:-1 250:-1 251:-1 252:-1 253:-1 254:-1 255:-1 256:-1 257:-1 258:-1 259:-1 260:-1 261:-1 262:-1 263:-0.523313 264:-0.716642 265:-0.798166 266:0.229358 267:-1 268:-1 269:-1 270:-1 272:-1 273:-1 274:-1 275:-1 276:-1 277:-1 278:-1 279:-0.222882 280:-0.893579 281:-0.744787 282:0.33945 283:-1 284:-1 285:-1 
2.8557901359759108 1.9933151533359539 0.63882140504541551 0.69841040779645291 0.30439255316376546 1:0.080746 2:-0.080746 16:-1 17:-1 18:-1 19:-1 20:-0.701864 21:0.57764 22:-0.806577 23:-1 24:-1 30:-1 31:-1 32:-1 33:-1 34:-1 35:-1 36:-1 37:-0.68944 38:0.0559 39:-0.311992 40:-0.901654 41:-1 45:-1 46:-1 47:-1 48:-1 49:-0.962732 50:0.018634 51:0.136003 52:0.337466 53:-0.0610147 60:-1 61:-1 62:-1 63:-0.95031 64:-0.614906 65:-0.783644 66:-0.661272 67:-0.682863 68:0.11821 69:-0.12955 70:1 75:-1 76:-1 77:-1 78:-0.985884 79:-0.677018 80:-0.875776 81:-0.751704 82:-0.42305 83:0.118017 84:-0.125714 85:-0.501517 86:-0.666314 87:-0.0735578 88:0.579697 89:1 90:-1 91:-1 92:-1 93:-1 94:-0.907903 95:-0.62733 96:-0.876915 97:-0.382178 98:-0.475498 99:-0.0116739 100:-0.676493 101:-0.538275 102:-0.435972 103:-0.00704138 104:0.624826 105:0.0351667 106:-1 107:-1 108:-1 109:-0.813664 110:-0.192546 111:0.506912 112:-0.331951 113:-0.739138 114:-1 115:-1 116:-1 117:-1 118:-1 119:-1 120:-1 121:-1 122:-1 123:-0.785115 124:-0.596212 125:-0.841898 126:-0.847278 127:-0.0877037 128:-0.419811 129:0.249878 130:-0.806571 131:-1 132:-1 133:-1 135:-1 136:-1 137:-1 138:-0.953605 139:-0.619361 140:-0.764144 141:-0.776237 142:-0.829087 143:-0.244815 144:-0.394004 145:-0.240438 146:-0.13393 147:-0.390678 148:-0.548668 150:-1 151:-1 152:-1 153:-0.977038 154:-0.945461 155:-0.52724 156:-0.816822 157:-0.848269 158:-0.364264 159:-0.399805 160:-0.222476 161:-0.0358027 162:0.120907 163:-0.492237 164:0.354044 165:-1 166:-1 167:0.983096 168:-0.971233 169:-1 170:-1 171:-1 172:-1 184:-1 185:-1 186:-0.95031 187:-0.341614 188:0.279504 189:-0.956196 190:-1 191:-1 192:-1 193:-1 198:-1 199:-1 200:-1 201:-1 202:-1 203:-1 204:-1 205:-0.974591 206:-0.714286 207:0.223493 208:0.821495 209:-0.973776 210:-1 212:-1 213:-1 214:-1 215:-1 216:-1 217:-1 218:-1 219:-1 220:-1 221:-0.880629 222:-0.652174 223:1 224:0.245689 225:-0.978927 226:-1 227:0.983603 228:-0.972208 229:-1 230:-1 231:-1 242:-1 243:-1 244:-1 245:-1 246:-0.975156 247:-0.31677 248:0.542712 249:-1 250:-1 251:-1 252:-1 253:-1 254:-1 255:-1 256:-1 257:-1 258:-1 259:-1 260:-1 261:-1 262:-1 263:-1 264:-1 265:-1 266:-0.763976 267:0.26458 268:1 269:1 270:-1 272:-1 273:-1 274:-1 275:-1 276:-1 277:-1 278:-1 279:-1 280:-1 281:-0.956803 282:-0.664596 283:0.643743 284:0.603762 285:-1 
6.0997906936810775 8.5943863810565535 5.3821758359589476 7.3322704784493427 2.8483246728148917 1:1 2:-1 16:-1 17:-1 18:-1 19:1 20:-1 21:-1 22:-1 23:-1 24:-1 30:-1 31:-1 32:-1 33:-1 34:-1 35:-1 36:0.916636 37:-0.384616 38:-1 39:-1 40:-1 41:-1 45:-1 46:-1 47:-1 48:-0.952356 49:0.96923 50:-1 51:-1 52:-1 53:-1 60:-1 61:-1 62:-1 63:-0.579488 64:-0.979488 65:-0.28547 66:0.830554 67:-0.326698 68:-1 69:-1 70:-1 75:-1 76:-1 77:-1 78:-1 79:-0.579488 80:-0.88718 81:-0.0495334 82:-0.350428 83:-0.123075 84:-0.435074 85:-0.394753 86:-1 87:-1 88:-1 89:-1 90:-1 91:-1 92:-1 93:-1 94:-0.452521 95:-0.866666 96:-0.4693 97:-0.183841 98:-0.718517 99:-0.466464 100:-0.332244 101:-0.501484 102:-1 103:-1 104:-1 105:-1 106:-1 107:-1 108:-1 109:1 110:-1 111:-1 112:-1 113:-1 114:-1 115:-1 116:-1 117:-1 118:-1 119:-1 120:-1 121:-1 122:-1 123:-0.572111 124:-0.709633 125:-0.369075 126:-0.484164 127:-0.497846 128:-1 129:-1 130:-1 131:-1 132:-1 133:-1 135:-1 136:-1 137:-0.919593 138:-0.948927 139:-0.425641 140:-0.54099 141:-0.316435 142:-0.556497 143:-0.0993721 144:-0.727092 145:-0.849491 146:-1 147:-1 148:-1 150:-1 151:-0.6795 152:-0.647169 153:-0.962084 154:-0.279549 155:-0.651868 156:-0.28701 157:-0.707693 158:-0.30015 159:-0.394329 160:-0.714683 161:-0.877525 162:-1 163:-1 164:-1 165:-1 166:-1 167:1 168:-1 169:-1 170:-1 171:-1 172:-1 184:-1 185:-0.408322 186:-0.589744 187:0.179488 188:-0.907692 189:-1 190:-1 191:-1 192:-1 193:-1 198:-1 199:-1 200:-1 201:-0.945624 202:-0.924474 203:-0.505495 204:-0.0329668 205:-0.181818 206:-1 207:-1 208:-1 209:-1 210:-1 212:-1 213:-1 214:-1 215:-1 216:-0.967251 217:-0.971632 218:-0.88216 219:-0.0302436 220:0.19311 221:-0.765923 222:-1 223:-1 224:-1 225:-1 226:-1 227:1 228:-1 229:-1 230:-1 231:-1 242:-1 243:-1 244:-1 245:-1 246:-0.466666 247:0.466666 248:-1 249:-1 250:-1 251:-1 252:-1 253:-1 254:-1 255:-1 256:-1 257:-1 258:-1 259:-1 260:-1 261:-1 262:-1 263:-1 264:-0.508992 265:0.682052 266:-1 267:-1 268:-1 269:-1 270:-1 272:-1 273:-1 274:-1 275:-1 276:-1 277:-1 278:-1 279:0.780997 280:0.606154 281:-0.940559 282:-1 283:-1 284:-1 285:-1 
32 9.0086102846820886 20.136141172459077 16.711614202628301 27.726310944430143 1:-0.831776 2:0.831776 16:-1 17:-1 18:-1 19:-1 20:-1 21:0.981308 22:-0.970896 23:-1 24:-1 30:-1 31:-1 32:-1 33:-1 34:-1 35:-1 36:-1 37:-1 38:0.074766 39:0.0675773 40:-1 41:-1 45:-1 46:-1 47:-1 48:-1 49:-1 50:0.897196 51:-0.819207 52:-1 53:-1 60:-1 61:-1 62:-1 63:-0.7757 64:-0.158878 65:-0.334113 66:-0.791497 67:-0.744367 68:-0.724411 69:-0.563417 70:-1 75:-1 76:-1 77:-1 78:-1 79:-0.214954 80:-0.906542 81:-0.269773 82:-0.506751 83:-0.41121 84:-0.771216 85:-0.735274 86:-0.497917 87:-1 88:-1 89:-1 90:-1 91:-1 92:-1 93:-1 94:-0.293264 95:-0.663552 96:-0.742777 97:-0.0238999 98:-0.763239 99:-0.599623 100:-0.756613 101:-0.545744 102:-0.652814 103:-1 104:-1 105:-1 106:-1 107:-1 108:-1 109:-1 110:0.990654 111:-0.983569 112:-1 113:-1 114:-1 115:-1 116:-1 117:-1 118:-1 119:-1 120:-1 121:-1 122:-1 123:-0.476964 124:-0.392432 125:-0.682809 126:-0.759757 127:-0.637757 128:-0.698967 129:-0.882456 130:-1 131:-1 132:-1 133:-1 135:-1 136:-1 137:-1 138:-0.720769 139:-0.54576 140:-0.594417 141:-0.343458 142:-0.522399 143:-0.431847 144:-0.772043 145:-0.702847 146:-0.858356 147:-1 148:-1 150:-1 151:-1 152:-1 153:-1 154:-0.19307 155:-0.79813 156:-0.173125 157:-0.50534 158:-0.457945 159:-0.724052 160:-0.675021 161:-0.581503 162:-1 163:-1 164:-1 165:-1 166:-1 167:1 168:-1 169:-1 170:-1 171:-1 172:-1 184:-1 185:-1 186:0.074766 187:-0.074766 188:-1 189:-1 190:-1 191:-1 192:-1 193:-1 198:-1 199:-1 200:-1 201:-1 202:-1 203:-1 204:-0.178904 205:0.261681 206:-1 207:-1 208:-1 209:-1 210:-1 212:-1 213:-1 214:-1 215:-1 216:-1 217:-1 218:-1 219:-0.985022 220:1 221:-0.797932 222:-1 223:-1 224:-1 225:-1 226:-1 227:1 228:-1 229:-1 230:-1 231:-1 242:-1 243:-1 244:-1 245:-1 246:-0.11215 247:0.11215 248:-1 249:-1 250:-1 251:-1 252:-1 253:-1 254:-1 255:-1 256:-1 257:-1 258:-1 259:-1 260:-1 261:-1 262:-1 263:-1 264:-0.769077 265:0.850468 266:-1 267:-1 268:-1 269:-1 270:-1 272:-1 273:-1 274:-1 275:-1 276:-1 277:-1 278:-1 279:-0.663552 280:0.355141 281:0.0507647 282:-1 283:-1 284:-1 285:-1 
18.764331036167125 15.00372828631561 14.030389303388379 16.420229807524116 17.93385831693325 1:1 2:-1 16:-1 17:-1 18:-0.724868 19:-0.714286 20:0.587302 21:-1 22:-1 23:-1 24:-1 30:-1 31:-1 32:-1 33:-1 34:-1 35:-1 36:-0.648448 37:0.555556 38:-0.809524 39:-1 40:-1 41:-1 45:-1 46:-1 47:-1 48:-1 49:0.280424 50:-0.31217 51:-0.944171 52:-1 53:-1 60:-1 61:-1 62:-0.492064 63:0.015874 64:-0.566138 65:-0.916226 66:-0.895074 67:-0.575475 68:-0.852191 69:-1 70:-1 75:-1 76:-1 77:-0.800595 78:-0.4228 79:-0.15344 80:-0.89418 81:-0.865402 82:-0.821282 83:-0.333333 84:-0.740952 85:-0.800172 86:-1 87:-1 88:-1 89:-1 90:-1 91:-1 92:-1 93:-0.726328 94:-0.293926 95:-0.216932 96:-0.836901 97:-0.763169 98:-0.642563 99:-0.740952 100:-0.793314 101:-0.848722 102:-1 103:-1 104:-1 105:-1 106:-1 107:-1 108:-1 109:-0.20635 110:0.20635 111:-1 112:-1 113:-1 114:-1 115:-1 116:-1 117:-1 118:-1 119:-1 120:-1 121:-1 122:-1 123:-0.849253 124:-0.312067 125:-0.539843 126:-0.621538 127:-0.546667 128:-0.676191 129:-1 130:-1 131:-1 132:-1 133:-1 135:-1 136:-0.779542 137:-0.336297 138:-0.762877 139:-0.77638 140:-0.669929 141:-0.885633 142:-0.272031 143:-0.392433 144:-0.342995 145:-0.508256 146:-0.80754 147:-1 148:-1 150:-1 151:-1 152:-1 153:-0.863075 154:-0.612853 155:-0.782313 156:-0.598751 157:-0.43991 158:-0.494553 159:-0.573935 160:-0.668832 161:0.0108934 162:-0.522578 163:-1 164:-1 165:-1 166:-1 167:0.971199 168:-0.950989 169:-1 170:-1 171:-1 172:-1 184:-1 185:-0.291077 186:0.216932 187:-0.597884 188:-1 189:-1 190:-1 191:-1 192:-1 193:-1 198:-1 199:-1 200:-1 201:-0.831686 202:1 203:0.408161 204:-0.546486 205:-1 206:-1 207:-1 208:-1 209:-1 210:-1 212:-1 213:-1 214:-1 215:-1 216:-1 217:0.404931 218:0.175278 219:-0.626917 220:-0.628382 221:-1 222:-1 223:-1 224:-1 225:-1 226:-1 227:0.986032 228:-0.976325 229:-1 230:-1 231:-1 242:-1 243:-1 244:-1 245:-0.978836 246:0.587302 247:-0.597884 248:-1 249:-1 250:-1 251:-1 252:-1 253:-1 254:-1 255:-1 256:-1 257:-1 258:-1 259:-1 260:-1 261:-0.957265 262:-0.579542 263:-0.384716 264:0.43808 265:-0.703704 266:-0.936508 267:-1 268:-1 269:-1 270:-1 272:-1 273:-1 274:-1 275:-1 276:-1 277:-0.811536 278:-0.643304 279:0.142857 280:0.0894172 281:-0.6443 282:-0.957672 283:-1 284:-1 285:-1 
3.2447639390037311 4.2041434815426095 3.2304403425408763 2.8761021922708339 3.0361062794365217 1:0.813472 2:-0.813472 16:-1 17:-1 18:-0.73057 19:-0.170984 20:-0.212436 21:-0.740932 22:-1 23:-1 24:-1 30:-1 31:-1 32:1 33:0.308383 34:-1 35:-1 36:-0.3545 37:-0.471502 38:-0.388602 39:-1 40:-1 41:-1 45:-1 46:-1 47:-0.935603 48:-0.61491 49:-0.61658 50:-0.025906 51:-0.362158 52:-1 53:-1 60:-1 61:-1 62:-1 63:-0.865284 64:-0.067358 65:-0.606219 66:-0.820187 67:-0.565376 68:-0.517514 69:-0.838641 70:-0.761652 75:-1 76:-1 77:-1 78:-0.799811 79:-0.606218 80:-0.595854 81:-0.661065 82:-0.496833 83:-0.393777 84:-0.30238 85:-0.633089 86:-0.938141 87:-0.762208 88:-0.623479 89:-1 90:-1 91:-1 92:-1 93:-1 94:-0.400749 95:-0.61658 96:-0.691972 97:-0.510383 98:-0.628094 99:-0.460931 100:-0.426524 101:-0.703717 102:-0.957229 103:-0.698797 104:-0.548178 105:0.295333 106:-1 107:-1 108:-1 109:-0.88601 110:0.088082 111:-0.76316 112:-0.848014 113:-1 114:1 115:1 116:1 117:1 118:1 119:1 120:1 121:-1 122:-1 123:-0.778566 124:-0.489311 125:-0.956038 126:-0.988419 127:-0.873161 128:-0.132152 129:-0.348347 130:0.129524 131:1 132:1 133:1 135:-1 136:-1 137:-1 138:-0.638786 139:-0.901457 140:-0.536235 141:-0.757338 142:-0.613005 143:-0.160036 144:-0.0349151 145:-0.44241 146:-0.905765 147:-1 148:-1 150:-1 151:-1 152:-1 153:-0.961688 154:-0.575381 155:-0.754848 156:-0.104987 157:-0.831237 158:-0.11612 159:-0.193346 160:-0.387423 161:-0.505026 162:-1 163:-1 164:-1 165:-1 166:-0.946028 167:0.506437 168:-0.23207 169:-1 170:-1 171:-1 172:-1 184:-1 185:-0.556463 186:-0.917098 187:-0.15026 188:-0.274612 189:-0.634582 190:-1 191:-1 192:-1 193:-1 198:-1 199:-1 200:-1 201:-1 202:-1 203:-0.680235 204:-0.844559 205:-0.936411 206:-0.533678 207:0.515002 208:-0.764586 209:-0.868739 210:-1 212:-1 213:-1 214:-1 215:-1 216:-1 217:-1 218:-1 219:-0.501795 220:-0.76118 221:-0.838181 222:-0.295336 223:-0.0300041 224:-0.699193 225:-1 226:-0.681944 227:0.398136 228:-0.95363 229:-0.85254 230:0.789297 231:1 242:-1 243:-1 244:-1 245:-0.896372 246:-0.803108 247:-0.160622 248:-0.121425 249:0.467619 250:1 251:-1 252:-1 253:-1 254:-1 255:-1 256:-1 257:-1 258:-1 259:-1 260:-1 261:-1 262:-0.974268 263:-0.987181 264:-0.887979 265:-0.751296 266:0.326424 267:-0.757889 268:-0.599587 269:-1 270:-1 272:-1 273:-1 274:-1 275:-1 276:-1 277:-1 278:-0.986029 279:-0.912223 280:-0.759584 281:0.165097 282:-0.471502 283:-0.771464 284:-0.722332 285:-1 
17.120525434838651 0 0 9.5708157536602148 1.4155945319609327 1:1 2:-1 16:-1 17:-1 18:-1 19:0.068966 20:-0.068966 21:-1 22:-1 23:-1 24:-1 30:-1 31:-1 32:-1 33:-1 34:-1 35:-1 36:-0.904535 37:0.103448 38:-0.172414 39:-1 40:-1 41:-1 45:-1 46:-1 47:-1 48:-1 49:0.965518 50:-0.965518 51:-1 52:-1 53:-1 60:-1 61:-1 62:-1 63:-1 64:-0.344828 65:-0.672415 66:-0.871783 67:0.00608512 68:-0.170484 69:-1 70:-1 75:-1 76:-1 77:-1 78:-1 79:-0.655172 80:-0.517242 81:-0.906014 82:-0.599615 83:0.0862111 84:-0.208622 85:-0.267443 86:-0.639787 87:-1 88:-1 89:-1 90:-1 91:-1 92:-1 93:-1 94:-1 95:-0.431034 96:-0.677317 97:-0.785629 98:-0.417624 99:-0.261376 100:-0.27036 101:-0.260566 102:-0.786501 103:-1 104:-1 105:-1 106:-1 107:-1 108:-1 109:-0.189656 110:0.189656 111:-1 112:-1 113:-1 114:-1 115:-1 116:-1 117:-1 118:-1 119:-1 120:-1 121:-1 122:-1 123:-0.894737 124:-0.403414 125:-0.817137 126:-0.92292 127:0.19586 128:-0.194737 129:-1 130:-1 131:-1 132:-1 133:-1 135:-1 136:-1 137:-1 138:-1 139:-0.890697 140:-0.0647134 141:-0.782603 142:-0.796671 143:-0.0683139 144:-0.502998 145:-0.451807 146:-0.216058 147:-1 148:-1 150:-1 151:-1 152:-1 153:-1 154:-1 155:-0.521181 156:-0.0920018 157:-0.953203 158:-0.470589 159:-0.352085 160:-0.280567 161:-0.227942 162:-0.0665602 163:-1 164:-1 165:-1 166:-1 167:1 168:-1 169:-1 170:-1 171:-1 172:-1 184:-1 185:-1 186:-0.017242 187:0.017242 188:-1 189:-1 190:-1 191:-1 192:-1 193:-1 198:-1 199:-1 200:-1 201:-1 202:-1 203:-0.833746 204:-0.150245 205:0.14616 206:-1 207:-1 208:-1 209:-1 210:-1 212:-1 213:-1 214:-1 215:-1 216:-1 217:-0.904624 218:-0.713866 219:-0.972369 220:-0.337755 221:0.346155 222:-1 223:-1 224:-1 225:-1 226:-1 227:1 228:-1 229:-1 230:-1 231:-1 242:-1 243:-1 244:-1 245:-1 246:0.482758 247:-0.482758 248:-1 249:-1 250:-1 251:-1 252:-1 253:-1 254:-1 255:-1 256:-1 257:-1 258:-1 259:-1 260:-1 261:-1 262:-1 263:-0.466762 264:-0.387603 265:0.051724 266:-0.87931 267:-1 268:-1 269:-1 270:-1 272:-1 273:-1 274:-1 275:-1 276:-1 277:-1 278:-1 279:-0.0872217 280:-0.424999 281:0.0991382 282:-0.775862 283:-1 284:-1 285:-1 
0 0.57421710386451263 3.6639966393506955 2.8720182166133741 0 1:-0.081762 2:0.081762 16:-1 17:-1 18:-1 19:-1 20:-0.106918 21:0.106918 22:-1 23:-1 24:-1 30:-1 31:-1 32:-1 33:-1 34:-1 35:-1 36:-1 37:-0.081762 38:-0.044026 39:-0.854862 40:-1 41:-1 45:-1 46:-1 47:-1 48:-1 49:-1 50:0.949686 51:-0.911517 52:-1 53:-1 60:-1 61:-1 62:-1 63:-1 64:-0.73585 65:-0.721175 66:-0.750556 67:0.238625 68:0.210364 69:-1 70:-1 75:-1 76:-1 77:-1 78:-0.842768 79:-0.924528 80:-0.836478 81:-0.657155 82:-0.575122 83:0.188676 84:-0.422639 85:0.247039 86:-0.361783 87:-0.783515 88:-1 89:-1 90:-1 91:-1 92:-1 93:-0.728909 94:-0.888093 95:-0.924528 96:-0.750735 97:-0.499526 98:-0.415792 99:-0.422639 100:-0.221999 101:-0.0289689 102:-0.117358 103:-0.725786 104:-1 105:-1 106:-1 107:-1 108:-1 109:-1 110:0.09434 111:0.59221 112:-1 113:-1 114:-1 115:-1 116:-1 117:-1 118:-1 119:-1 120:-1 121:-1 122:-1 123:-1 124:-0.775784 125:-0.813227 126:-0.803182 127:-0.358489 128:0.620657 129:-0.525397 130:-1 131:-1 132:-1 133:-1 135:-1 136:-1 137:-1 138:-0.921703 139:-0.840512 140:-0.829414 141:-0.637477 142:-0.678595 143:-0.320279 144:-0.553732 145:-0.384709 146:0.448901 147:-0.108804 148:-1 150:-1 151:-1 152:-1 153:-0.883741 154:-0.944777 155:-0.818869 156:-0.629035 157:-0.761007 158:-0.270441 159:-0.561073 160:-0.212691 161:-0.399185 162:0.759259 163:0.199681 164:-1 165:-1 166:-1 167:1 168:-1 169:-1 170:-1 171:-1 172:-1 184:-1 185:-1 186:-1 187:-0.106918 188:0.106918 189:-1 190:-1 191:-1 192:-1 193:-1 198:-1 199:-1 200:-1 201:-1 202:-1 203:-1 204:-1 205:-0.742711 206:0.433962 207:-0.516061 208:-1 209:-1 210:-1 212:-1 213:-1 214:-1 215:-1 216:-1 217:-1 218:-1 219:-0.979843 220:-0.64109 221:0.254067 222:-0.622642 223:-0.552581 224:-1 225:-1 226:-1 227:0.91698 228:-0.859288 229:-1 230:-1 231:-1 242:-1 243:-1 244:-1 245:-1 246:-1 247:0.169812 248:-0.00865736 249:-1 250:-1 251:-1 252:-1 253:-1 254:-1 255:-1 256:-1 257:-1 258:-1 259:-1 260:-1 261:-1 262:-1 263:-1 264:-1 265:-0.8239 266:0.345912 267:-0.202319 268:-1 269:-1 270:-1 272:-1 273:-1 274:-1 275:-1 276:-1 277:-1 278:-1 279:-1 280:-0.854089 281:0.0789028 282:-0.471698 283:-0.253144 284:-1 285:-1 
0 0.23120644540175506 0.2446161827689799 2.1476742093226528 1.6991984188744451 1:1 2:-1 16:-1 17:-1 18:-1 19:-0.763546 20:0.763546 21:-1 22:-1 23:-1 24:-1 30:-1 31:-1 32:-1 33:-1 34:-1 35:-1 36:-0.918172 37:0.901478 38:-0.960592 39:-1 40:-1 41:-1 45:-1 46:-1 47:-1 48:-0.984745 49:0.990148 50:-1 51:-1 52:-1 53:-1 60:-1 61:-1 62:-1 63:-1 64:-0.68473 65:-0.75041 66:0.367654 67:0.778616 68:-1 69:-1 70:-1 75:-1 76:-1 77:-1 78:-0.854457 79:-0.724138 80:-0.931034 81:-0.83888 82:-0.729613 83:0.0640441 84:-0.306603 85:1 86:-1 87:-1 88:-1 89:-1 90:-1 91:-1 92:-0.939903 93:-0.957534 94:-0.488704 95:-0.950738 96:-0.858997 97:-0.730503 98:-0.77121 99:-0.397045 100:-0.0378398 101:1 102:-0.837337 103:-1 104:-1 105:-1 106:-1 107:-1 108:-1 109:0.73399 110:-0.73399 111:-1 112:-1 113:-1 114:-1 115:-1 116:-1 117:-1 118:-1 119:-1 120:-1 121:-1 122:0.557188 123:-1 124:-0.98967 125:-0.885058 126:-0.449436 127:0.949559 128:-0.841328 129:-1 130:-1 131:-1 132:-1 133:-1 135:-1 136:-1 137:-1 138:-1 139:-0.656473 140:-0.986639 141:-0.822534 142:-0.477153 143:-0.168135 144:-0.606767 145:1 146:-0.820811 147:-1 148:-1 150:-1 151:-1 152:-1 153:-1 154:-1 155:-0.655453 156:-0.896227 157:-0.786065 158:-0.260506 159:-0.365308 160:-0.177786 161:1 162:-0.555504 163:-1 164:-1 165:-1 166:-1 167:1 168:-1 169:-1 170:-1 171:-1 172:-1 184:-1 185:-1 186:-1 187:-0.832512 188:0.832512 189:-1 190:-1 191:-1 192:-1 193:-1 198:-1 199:-1 200:-1 201:-1 202:-1 203:-1 204:-1 205:0.854008 206:-0.812808 207:-1 208:-1 209:-1 210:-1 212:-1 213:-1 214:-1 215:-1 216:-1 217:-1 218:-1 219:-1 220:-0.978376 221:1 222:-0.68473 223:-1 224:-1 225:-1 226:-1 227:1 228:-1 229:-1 230:-1 231:-1 242:-1 243:-1 244:-1 245:-1 246:-1 247:-0.674876 248:1 249:-1 250:-1 251:-1 252:-1 253:-1 254:-1 255:-1 256:-1 257:-1 258:-1 259:-1 260:-1 261:-1 262:-1 263:-1 264:-1 265:0.527094 266:-0.527094 267:-1 268:-1 269:-1 270:-1 272:-1 273:-1 274:-1 275:-1 276:-1 277:-1 278:-1 279:-1 280:-1 281:0.575907 282:-0.359606 283:-1 284:-1 285:-1 
0 1.0526998508182763 0 0 1.1050697707690444 1:0.752578 2:-0.752578 16:-1 17:-1 18:-1 19:-0.969072 20:0.412372 21:-0.443298 22:-1 23:-1 24:-1 30:-1 31:-1 32:-1 33:-1 34:-1 35:-1 36:-0.957188 37:-0.752578 38:0.72165 39:-1 40:-1 41:-1 45:-1 46:-1 47:-1 48:-1 49:-1 50:0.731958 51:-0.528615 52:-1 53:-1 60:-1 61:-1 62:-1 63:-0.84536 64:-0.783506 65:-0.967355 66:-0.974443 67:-0.49242 68:1 69:-0.879602 70:-1 75:-1 76:-1 77:-1 78:-0.929709 79:-0.804124 80:-0.886598 81:-0.925068 82:-0.717069 83:-0.48969 84:-0.242888 85:-0.050946 86:1 87:-0.881718 88:-1 89:-1 90:-1 91:-1 92:-1 93:-1 94:-0.755422 95:-0.86598 96:-0.909203 97:-0.641091 98:-0.912942 99:-0.432161 100:-0.261682 101:0.444312 102:1 103:-0.775257 104:-1 105:-1 106:-1 107:-1 108:-0.877251 109:-0.804124 110:0.453608 111:-0.474391 112:-1 113:-1 114:-1 115:-1 116:-1 117:-1 118:-1 119:-1 120:-1 121:-1 122:-1 123:-0.92657 124:-0.675709 125:-0.989065 126:-0.907823 127:-0.200826 128:0.693543 129:-0.654243 130:-1 131:-1 132:-1 133:-1 135:-1 136:-1 137:-1 138:-1 139:-0.607859 140:-0.986018 141:-0.981429 142:-0.837896 143:-0.268821 144:-0.222768 145:-0.268784 146:1 147:-1 148:-1 150:-1 151:-1 152:-1 153:-1 154:-0.713352 155:-0.819735 156:-0.978281 157:-0.930045 158:-0.472404 159:-0.363536 160:-0.103796 161:0.384933 162:1 163:-0.929763 164:-1 165:-1 166:-1 167:0.929855 168:-0.88063 169:-1 170:-1 171:-1 172:-1 184:-1 185:-1 186:-1 187:0.412372 188:-0.42268 189:-0.963644 190:-1 191:-1 192:-1 193:-1 198:-1 199:-1 200:-1 201:-1 202:-1 203:-1 204:-1 205:-1 206:0.70103 207:-0.539908 208:-1 209:-1 210:-1 212:-1 213:-1 214:-1 215:-1 216:-1 217:-1 218:-1 219:-1 220:-1 221:-0.640882 222:0.57732 223:-0.768399 224:-1 225:-1 226:-1 227:0.945566 228:-0.907739 229:-1 230:-1 231:-1 242:-1 243:-1 244:-1 245:-1 246:-1 247:0.103092 248:0.0463915 249:-0.734544 250:-1 251:-1 252:-1 253:-1 254:-1 255:-1 256:-1 257:-1 258:-1 259:-1 260:-1 261:-1 262:-1 263:-1 264:-1 265:-1 266:0.70103 267:-0.50107 268:-1 269:-1 270:-1 272:-1 273:-1 274:-1 275:-1 276:-1 277:-1 278:-1 279:-1 280:-1 281:-0.677367 282:0.494846 283:-0.615243 284:-1 285:-1 
-3.2056474350909547 0.10865282904439079 0.7557009449184795 2.9879377270883407 6.7914844776121885 1:0.142858 2:-0.142858 16:-1 17:-1 18:-1 19:-1 20:-0.84762 21:0.84762 22:-1 23:-1 24:-1 30:-1 31:-1 32:-1 33:-1 34:-1 35:-1 36:-1 37:-1 38:-0.733334 39:1 40:-1 41:-1 45:-1 46:-1 47:-1 48:-1 49:-1 50:1 51:-1 52:-1 53:-1 60:-1 61:-1 62:-1 63:-1 64:1 65:-1 66:-1 67:-1 68:-1 69:-1 70:-1 75:-1 76:-1 77:-1 78:-1 79:-1 80:1 81:-1 82:-1 83:-1 84:-1 85:-1 86:-1 87:-1 88:-1 89:-1 90:-1 91:-1 92:-1 93:-1 94:-1 95:-0.04762 96:0.153344 97:-1 98:-1 99:-1 100:-1 101:-1 102:-1 103:-1 104:-1 105:-1 106:-1 107:-1 108:-1 109:-0.942858 110:0.942858 111:-1 112:-1 113:-1 114:-1 115:-1 116:-1 117:-1 118:-1 119:-1 120:-1 121:-1 122:-1 123:0.376105 124:-0.920111 125:-0.919192 126:-0.893558 127:-0.417143 128:-0.815939 129:-1 130:-1 131:-1 132:-1 133:-1 135:-1 136:-1 137:-1 138:-1 139:-0.255346 140:-0.0958916 141:-0.86276 142:-0.925122 143:-0.549683 144:-0.408697 145:-0.906825 146:-0.769049 147:-1 148:-1 150:-1 151:-1 152:-1 153:-1 154:-1 155:0.05796 156:-0.237628 157:-0.896599 158:-0.805045 159:-0.130826 160:-0.86753 161:-0.886272 162:-0.656258 163:-1 164:-1 165:-1 166:-1 167:1 168:-1 169:-1 170:-1 171:-1 172:-1 184:-1 185:-1 186:0.942858 187:-0.942858 188:-1 189:-1 190:-1 191:-1 192:-1 193:-1 198:-1 199:-1 200:-1 201:-1 202:-1 203:-1 204:1 205:-0.863636 206:-1 207:-1 208:-1 209:-1 210:-1 212:-1 213:-1 214:-1 215:-1 216:-1 217:-1 218:-1 219:-1 220:0.944029 221:-0.725443 222:-1 223:-1 224:-1 225:-1 226:-1 227:1 228:-1 229:-1 230:-1 231:-1 242:-1 243:-1 244:-1 245:0.29524 246:0.35238 247:-1 248:-1 249:-1 250:-1 251:-1 252:-1 253:-1 254:-1 255:-1 256:-1 257:-1 258:-1 259:-1 260:-1 261:1 262:-0.952698 263:-1 264:-1 265:-1 266:-1 267:-1 268:-1 269:-1 270:-1 272:-1 273:-1 274:-1 275:-1 276:1 277:-0.208451 278:-1 279:-1 280:-1 281:-1 282:-1 283:-1 284:-1 285:-1 
-5.3602278347388879 3.0038193801412545 5.8961654405245838 2.7827235326386197 4.9938971170284789 1:-0.91579 2:0.91579 16:-1 17:-1 18:-1 19:-0.978948 20:-1 21:0.052632 22:0.311199 23:-0.773963 24:-1 30:-1 31:-1 32:-1 33:-1 34:-1 35:-1 36:-1 37:-0.978948 38:-1 39:0.360324 40:1 41:-0.463146 45:-1 46:-1 47:-1 48:-1 49:-0.978948 50:-0.052632 51:0.740111 52:-0.7614 53:-1 60:-1 61:-1 62:-1 63:-0.957894 64:-0.473684 65:1 66:-0.582503 67:-1 68:-1 69:-1 70:-1 75:-1 76:-1 77:-0.404933 78:-0.497607 79:-0.747368 80:-0.852632 81:-0.961747 82:1 83:-1 84:-1 85:-1 86:-1 87:-1 88:-1 89:-1 90:-1 91:-1 92:-0.486318 93:-0.591651 94:-0.157168 95:-0.957894 96:-0.83776 97:-0.947649 98:1 99:-1 100:-1 101:-1 102:-1 103:-1 104:-1 105:-1 106:-1 107:-1 108:-1 109:-0.936842 110:0.873684 111:-0.888964 112:-1 113:-1 114:-1 115:-1 116:-1 117:-1 118:-1 119:-1 120:-1 121:-1 122:-1 123:-1 124:0.3907 125:-0.709729 126:-0.717647 127:-0.699369 128:-1 129:-1 130:-1 131:-1 132:-1 133:-1 135:-1 136:-1 137:-1 138:-1 139:-0.888778 140:-0.286229 141:0.28934 142:-0.627586 143:-0.217877 144:-0.673227 145:-0.794041 146:-1 147:-1 148:-1 150:-1 151:-1 152:-1 153:-1 154:-1 155:-0.891728 156:0.552201 157:-0.285714 158:-0.353558 159:-0.265374 160:-0.633969 161:-0.811455 162:-1 163:-1 164:-1 165:-1 166:-1 167:1 168:-1 169:-1 170:-1 171:-1 172:-1 184:-1 185:-1 186:-1 187:-0.894736 188:0.894736 189:-1 190:-1 191:-1 192:-1 193:-1 198:-1 199:-1 200:-1 201:-1 202:-1 203:-1 204:-1 205:-1 206:-1 207:-0.870407 208:1 209:1 210:-1 212:-1 213:-1 214:-1 215:-1 216:-1 217:-1 218:-1 219:-1 220:-1 221:-1 222:-1 223:-0.881762 224:1 225:1 226:-0.931983 227:0.94442 228:-1 229:-1 230:-1 231:-1 242:-1 243:-1 244:-1 245:-1 246:-1 247:-0.6 248:0.86031 249:-0.457886 250:-1 251:-1 252:-1 253:-1 254:-1 255:-1 256:-1 257:-1 258:-1 259:-1 260:-1 261:-1 262:-1 263:-1 264:-1 265:-1 266:-1 267:0.826929 268:0.943298 269:-1 270:-1 272:-1 273:-1 274:-1 275:-1 276:-1 277:-1 278:-1 279:-1 280:-1 281:-1 282:-1 283:1 284:1 285:-1 
-10.285023260154691 2.8535774747956433 3.2455033549891441 11.240641176299642 7.5440567441838731 1:1 2:-1 16:-1 17:-1 18:-1 19:0.473684 20:-0.473684 21:-1 22:-1 23:-1 24:-1 30:-1 31:-1 32:-1 33:-1 34:-1 35:-1 36:-1 37:1 38:-1 39:-1 40:-1 41:-1 45:-1 46:-1 47:-1 48:-1 49:1 50:-1 51:-1 52:-1 53:-1 60:-1 61:-1 62:-1 63:-1 64:0.68421 65:-0.499999 66:-1 67:-1 68:-1 69:-1 70:-1 75:-1 76:-1 77:-1 78:-1 79:0.157894 80:-0.263158 81:-0.936243 82:-0.851851 83:-1 84:-1 85:-1 86:-1 87:-1 88:-1 89:-1 90:-1 91:-1 92:-1 93:-1 94:-0.791895 95:0.368422 96:-0.575085 97:-0.912746 98:-0.851851 99:-1 100:-1 101:-1 102:-1 103:-1 104:-1 105:-1 106:-1 107:-1 108:-1 109:1 110:-1 111:-1 112:-1 113:-1 114:-1 115:-1 116:-1 117:-1 118:-1 119:-1 120:-1 121:-1 122:-1 123:-1 124:-1 125:-1 126:1 127:-0.570527 128:-1 129:-1 130:-1 131:-1 132:-1 133:-1 135:-1 136:-1 137:-1 138:-1 139:-1 140:-1 141:0.327261 142:1 143:-0.76299 144:-0.688789 145:-0.914182 146:-1 147:-1 148:-1 150:-1 151:-1 152:-1 153:-1 154:-1 155:-1 156:-0.556515 157:1 158:-0.640863 159:-0.717449 160:-0.633969 161:-1 162:-1 163:-1 164:-1 165:-1 166:-1 167:1 168:-1 169:-1 170:-1 171:-1 172:-1 184:-1 185:-1 186:-1 187:1 188:-1 189:-1 190:-1 191:-1 192:-1 193:-1 198:-1 199:-1 200:-1 201:-1 202:-1 203:-1 204:-0.887217 205:0.291866 206:-0.368422 207:-1 208:-1 209:-1 210:-1 212:-1 213:-1 214:-1 215:-1 216:-1 217:-1 218:-1 219:-1 220:-0.845975 221:0.18011 222:-0.122808 223:-1 224:-1 225:-1 226:-1 227:1 228:-1 229:-1 230:-1 231:-1 242:-1 243:-1 244:-1 245:-1 246:-1 247:1 248:-1 249:-1 250:-1 251:-1 252:-1 253:-1 254:-1 255:-1 256:-1 257:-1 258:-1 259:-1 260:-1 261:-1 262:-1 263:-1 264:-1 265:1 266:-1 267:-1 268:-1 269:-1 270:-1 272:-1 273:-1 274:-1 275:-1 276:-1 277:-1 278:-1 279:0.188856 280:-0.0333341 281:-0.511962 282:-0.649122 283:-1 284:-1 285:-1 
-4.70565681736631 2.0879832744947624 3.7104979071344273 0 2.1106073282750817 1:-1 2:1 16:-1 17:-1 18:-1 19:-1 20:-1 21:-0.960784 22:0.709701 23:1 24:1 30:-1 31:-1 32:-1 33:-1 34:-1 35:-1 36:-1 37:-1 38:-0.960784 39:0.312216 40:0.759259 41:1 45:-1 46:-1 47:-1 48:-1 49:-0.960784 50:-0.568628 51:1 52:1 53:-0.407148 60:-1 61:-1 62:-1 63:-1 64:0.09804 65:-0.254902 66:-0.513947 67:-0.570934 68:-1 69:-1 70:-1 75:-1 76:-1 77:-0.876837 78:-0.59893 79:-0.254902 80:-0.411764 81:-1 82:-1 83:-0.823528 84:-0.879999 85:-0.537164 86:-1 87:-1 88:-1 89:-1 90:-1 91:-1 92:-0.282345 93:-0.408384 94:-1 95:0.058824 96:-0.697787 97:-1 98:-1 99:-0.879999 100:-0.744679 101:-0.551508 102:-1 103:-1 104:-1 105:-1 106:-1 107:-1 108:-1 109:-0.960784 110:0.137254 111:0.378875 112:-0.808277 113:-1 114:-1 115:-1 116:-1 117:-1 118:-1 119:-1 120:-1 121:-1 122:-1 123:-1 124:-0.629925 125:-0.625668 126:-0.693195 127:1 128:-0.936842 129:-1 130:-1 131:-1 132:-1 133:-1 135:-1 136:-1 137:-1 138:-1 139:-0.875693 140:-0.734086 141:-0.293616 142:-0.92292 143:-0.60266 144:1 145:-0.424522 146:-1 147:-1 148:-1 150:-1 151:-1 152:-1 153:-1 154:-1 155:-0.838656 156:-0.421729 157:-0.627451 158:-0.866204 159:1 160:0.636361 161:-0.882929 162:-1 163:-1 164:-1 165:-1 166:-0.319174 167:0.466344 168:-1 169:-1 170:-1 171:-1 172:-1 184:-1 185:-0.854044 186:-0.411764 187:-0.294118 188:-0.37255 189:-1 190:-1 191:-1 192:-1 193:-1 198:-1 199:-1 200:-1 201:-1 202:-1 203:-0.924369 204:-0.747899 205:-0.237968 206:-0.019608 207:-1 208:-1 209:-1 210:-1 212:-1 213:-1 214:-1 215:-1 216:-1 217:-1 218:-0.949937 219:-0.685772 220:0.334137 221:-0.528949 222:-0.843138 223:-1 224:-1 225:-1 226:-0.746608 227:0.792942 228:-1 229:-1 230:-1 231:-1 242:-1 243:-1 244:-1 245:-0.921568 246:0.607844 247:-0.647058 248:-1 249:-1 250:-1 251:-1 252:-1 253:-1 254:-1 255:-1 256:-1 257:-1 258:-1 259:-1 260:-1 261:-1 262:-1 263:-1 264:-0.697196 265:0.647058 266:-0.843138 267:-1 268:-1 269:-1 270:-1 272:-1 273:-1 274:-1 275:-1 276:-1 277:-1 278:-1 279:-1 280:-0.60196 281:1 282:-1 283:-1 284:-1 285:-1 
-7.3867176847235783 7.6034868156842252 9.9635214148561229 11.412083059511737 22.480060000922787 1:1 2:-1 16:-1 17:-1 18:-1 19:-0.728 20:0.728 21:-1 22:-1 23:-1 24:-1 30:-1 31:-1 32:-1 33:-1 34:-1 35:-1 36:-1 37:1 38:-1 39:-1 40:-1 41:-1 45:-1 46:-1 47:-1 48:-1 49:1 50:-1 51:-1 52:-1 53:-1 60:-1 61:-1 62:-1 63:1 64:-1 65:-1 66:-1 67:-1 68:-1 69:-1 70:-1 75:-1 76:-1 77:-1 78:1 79:-0.76 80:-1 81:-1 82:-1 83:-1 84:-1 85:-1 86:-1 87:-1 88:-1 89:-1 90:-1 91:-1 92:-1 93:1 94:0.589516 95:-1 96:-1 97:-1 98:-1 99:-1 100:-1 101:-1 102:-1 103:-1 104:-1 105:-1 106:-1 107:-1 108:-1 109:0.904 110:-0.904 111:-1 112:-1 113:-1 114:-1 115:-1 116:-1 117:-1 118:-1 119:-1 120:-1 121:-1 122:-1 123:0.514105 124:-0.580583 125:-0.881212 126:-1 127:-1 128:-1 129:-1 130:-1 131:-1 132:-1 133:-1 135:-1 136:-1 137:-1 138:-0.362612 139:-0.577359 140:0.25852 141:-0.827077 142:-0.905655 143:-0.945962 144:-1 145:-1 146:-1 147:-1 148:-1 150:-1 151:-1 152:-1 153:-1 154:0.0536591 155:-0.0619426 156:-0.460721 157:-0.891429 158:-0.890823 159:-1 160:-1 161:-1 162:-1 163:-1 164:-1 165:-1 166:-1 167:1 168:-1 169:-1 170:-1 171:-1 172:-1 184:-1 185:-1 186:0.232 187:-0.232 188:-1 189:-1 190:-1 191:-1 192:-1 193:-1 198:-1 199:-1 200:-1 201:-1 202:-1 203:-1 204:0.868572 205:-0.738182 206:-1 207:-1 208:-1 209:-1 210:-1 212:-1 213:-1 214:-1 215:-1 216:-1 217:-1 218:-1 219:1 220:-0.174728 221:-1 222:-1 223:-1 224:-1 225:-1 226:-1 227:1 228:-1 229:-1 230:-1 231:-1 242:-1 243:-1 244:-1 245:-0.68 246:-0.472 247:0.312 248:-1 249:-1 250:-1 251:-1 252:-1 253:-1 254:-1 255:-1 256:-1 257:-1 258:-1 259:-1 260:-1 261:-1 262:-1 263:-1 264:-0.283443 265:0.536 266:-1 267:-1 268:-1 269:-1 270:-1 272:-1 273:-1 274:-1 275:-1 276:-1 277:-1 278:-0.935281 279:-0.322353 280:0.0440003 281:0.057091 282:-1 283:-1 284:-1 285:-1 
-19.39950005740144 2.4903991765552278 22.823405070567226 14.140929576724908 32 1:-0.706896 2:0.706896 16:-1 17:-1 18:-1 19:-1 20:-0.689656 21:0.689656 22:-1 23:-1 24:-1 30:-1 31:-1 32:-1 33:-1 34:-1 35:-1 36:-1 37:-0.672414 38:0.672414 39:-1 40:-1 41:-1 45:-1 46:-1 47:-1 48:-1 49:-0.689656 50:0.689656 51:-1 52:-1 53:-1 60:-1 61:-1 62:-1 63:0.137932 64:-0.137932 65:-1 66:-1 67:-1 68:-1 69:-1 70:-1 75:-1 76:-1 77:-1 78:-1 79:0.74138 80:-0.74138 81:-1 82:-1 83:-1 84:-1 85:-1 86:-1 87:-1 88:-1 89:-1 90:-1 91:-1 92:-1 93:-1 94:-0.360881 95:0.568966 96:-1 97:-1 98:-1 99:-1 100:-1 101:-1 102:-1 103:-1 104:-1 105:-1 106:-1 107:-1 108:-1 109:-1 110:1 111:-1 112:-1 113:-1 114:-1 115:-1 116:-1 117:-1 118:-1 119:-1 120:-1 121:-1 122:-1 123:-0.17544 124:-0.0418474 125:-0.835424 126:-0.865111 127:-1 128:-1 129:-1 130:-1 131:-1 132:-1 133:-1 135:-1 136:-1 137:-1 138:-0.549262 139:-0.12557 140:-0.532357 141:-0.565206 142:-0.830561 143:-0.708851 144:-0.885308 145:-1 146:-1 147:-1 148:-1 150:-1 151:-1 152:-1 153:-1 154:-0.293525 155:-0.255172 156:-0.128319 157:-0.74261 158:-0.705885 159:-0.814881 160:-0.880097 161:-1 162:-1 163:-1 164:-1 165:-1 166:-1 167:1 168:-1 169:-1 170:-1 171:-1 172:-1 184:-1 185:-1 186:0.206896 187:-0.206896 188:-1 189:-1 190:-1 191:-1 192:-1 193:-1 198:-1 199:-1 200:-1 201:-1 202:-1 203:-1 204:-1 205:0.780956 206:-0.74138 207:-1 208:-1 209:-1 210:-1 212:-1 213:-1 214:-1 215:-1 216:-1 217:-1 218:-1 219:-1 220:0.362335 221:-0.0887579 222:-1 223:-1 224:-1 225:-1 226:-1 227:1 228:-1 229:-1 230:-1 231:-1 242:-1 243:-1 244:-1 245:-1 246:-0.362068 247:0.362068 248:-1 249:-1 250:-1 251:-1 252:-1 253:-1 254:-1 255:-1 256:-1 257:-1 258:-1 259:-1 260:-1 261:-1 262:-1 263:-1 264:-1 265:0.775862 266:-0.775862 267:-1 268:-1 269:-1 270:-1 272:-1 273:-1 274:-1 275:-1 276:-1 277:-1 278:-1 279:-1 280:1.45e-06 281:0.518808 282:-1 283:-1 284:-1 285:-1 
-4.2302356527107703 10.27517410044387 14.147241373987601 5.3788819324292856 7.787929273575867 1:1 2:-1 16:-1 17:-1 18:-1 19:-0.12069 20:0.12069 21:-1 22:-1 23:-1 24:-1 30:-1 31:-1 32:-1 33:-1 34:-1 35:-1 36:-1 37:1 38:-1 39:-1 40:-1 41:-1 45:-1 46:-1 47:1 48:-0.893214 49:-0.103448 50:-0.931034 51:-1 52:-1 53:-1 60:-1 61:1 62:1 63:-0.75862 64:-0.62069 65:-0.945404 66:-1 67:-1 68:-1 69:-1 70:-1 75:-1 76:-1 77:-1 78:-0.92163 79:0.034482 80:-0.448276 81:-0.467409 82:-0.890805 83:-1 84:-1 85:-1 86:-1 87:-1 88:-1 89:-1 90:-1 91:-1 92:-1 93:-1 94:0.0481555 95:-0.672414 96:-0.0699138 97:-0.785629 98:-0.927205 99:-1 100:-1 101:-1 102:-1 103:-1 104:-1 105:-1 106:-1 107:-1 108:-1 109:-0.948276 110:0.137932 111:0.424638 112:-1 113:-1 114:-1 115:-1 116:-1 117:-1 118:-1 119:-1 120:-1 121:-1 122:-1 123:-1 124:-0.981921 125:-0.615988 126:0.0598377 127:-0.683449 128:-0.166968 129:-1 130:-1 131:-1 132:-1 133:-1 135:-1 136:-1 137:-1 138:-1 139:-0.836045 140:-0.953237 141:-0.503095 142:0.558859 143:0.164609 144:-0.847075 145:-0.451807 146:-0.686423 147:-1 148:-1 150:-1 151:-1 152:-1 153:-1 154:-0.798148 155:-0.964533 156:-0.745759 157:-0.157635 158:1 159:-0.537205 160:-0.820142 161:-0.382354 162:-0.68885 163:-1 164:-1 165:-1 166:0.706177 167:-0.337362 168:-1 169:-1 170:-1 171:-1 172:-1 184:-1 185:-0.871659 186:0.155172 187:-0.327586 188:-0.896552 189:-1 190:-1 191:-1 192:-1 193:-1 198:-1 199:-1 200:-1 201:-1 202:-1 203:-1 204:-0.870689 205:0.816222 206:-0.896552 207:-1 208:-1 209:-1 210:-1 212:-1 213:-1 214:-1 215:-1 216:-1 217:-1 218:-1 219:-1 220:-0.602654 221:0.946747 222:-0.982758 223:-1 224:-1 225:-1 226:0.559682 227:-0.29724 228:-0.961425 229:-1 230:-1 231:-1 242:-1 243:-1 244:-1 245:-1 246:-1 247:0.689656 248:-0.629413 249:-1 250:-1 251:-1 252:-1 253:-1 254:-1 255:-1 256:-1 257:-1 258:-1 259:-1 260:-1 261:-1 262:-1 263:-1 264:-0.254475 265:-0.896552 266:0.275862 267:-0.769815 268:-1 269:-1 270:-1 272:-1 273:-1 274:-1 275:-1 276:-1 277:-1 278:-1 279:-1 280:-0.35 281:-0.860109 282:0.310344 283:-0.795258 284:-1 285:-1 
-0 3.3135048965829847 1.2541207766760516 9.2606668007081439 10.030036602871933 1:-0.712 2:0.712 16:-1 17:-1 18:-1 19:-1 20:-1 21:1 22:-1 23:-1 24:-1 30:-1 31:-1 32:-1 33:-1 34:-1 35:-1 36:-1 37:-1 38:1 39:-1 40:-1 41:-1 45:-1 46:-1 47:-1 48:-1 49:-1 50:1 51:-1 52:-1 53:-1 60:-1 61:-1 62:-1 63:0.792 64:-0.792 65:-1 66:-1 67:-1 68:-1 69:-1 70:-1 75:-1 76:-1 77:-1 78:-1 79:1 80:-1 81:-1 82:-1 83:-1 84:-1 85:-1 86:-1 87:-1 88:-1 89:-1 90:-1 91:-1 92:-1 93:-1 94:-1 95:1 96:-1 97:-1 98:-1 99:-1 100:-1 101:-1 102:-1 103:-1 104:-1 105:-1 106:-1 107:-1 108:-1 109:-1 110:1 111:-1 112:-1 113:-1 114:-1 115:-1 116:-1 117:-1 118:-1 119:-1 120:-1 121:-1 122:-1 123:-0.706947 124:0.677669 125:-0.881212 126:-1 127:-1 128:-1 129:-1 130:-1 131:-1 132:-1 133:-1 135:-1 136:-1 137:-1 138:-1 139:-0.0701891 140:0.367013 141:-0.827077 142:-0.968552 143:-1 144:-1 145:-1 146:-1 147:-1 148:-1 150:-1 151:-1 152:-1 153:-1 154:-0.438049 155:-0.292343 156:0.718951 157:-0.848 158:-1 159:-1 160:-1 161:-1 162:-1 163:-1 164:-1 165:-1 166:-1 167:1 168:-1 169:-1 170:-1 171:-1 172:-1 184:-1 185:-1 186:-1 187:-1 188:1 189:-1 190:-1 191:-1 192:-1 193:-1 198:-1 199:-1 200:-1 201:-1 202:-1 203:-1 204:-1 205:-1 206:0.968 207:-0.950754 208:-1 209:-1 210:-1 212:-1 213:-1 214:-1 215:-1 216:-1 217:-1 218:-1 219:-1 220:-1 221:-1 222:1 223:-1 224:-1 225:-1 226:-1 227:1 228:-1 229:-1 230:-1 231:-1 242:-1 243:-1 244:-1 245:-1 246:-1 247:0.984 248:-0.980894 249:-1 250:-1 251:-1 252:-1 253:-1 254:-1 255:-1 256:-1 257:-1 258:-1 259:-1 260:-1 261:-1 262:-1 263:-1 264:-1 265:-1 266:0.792 267:-0.652883 268:-1 269:-1 270:-1 272:-1 273:-1 274:-1 275:-1 276:-1 277:-1 278:-1 279:-1 280:-1 281:-1 282:1 283:-1 284:-1 285:-1 
-21.396126221850171 8.6507105684546257 14.940245778352791 14.848612159378865 20.427490484859828 1:0.081968 2:-0.081968 16:-1 17:-1 18:-1 19:-1 20:0.360656 21:-0.360656 22:-1 23:-1 24:-1 30:-1 31:-1 32:-1 33:-1 34:-1 35:-1 36:-1 37:-1 38:0.819672 39:-0.791929 40:-1 41:-1 45:-1 46:-1 47:-1 48:-1 49:0.42623 50:-0.459016 51:-0.942342 52:-1 53:-1 60:-1 61:-1 62:-1 63:-0.032786 64:-0.311476 65:-0.454919 66:-1 67:-1 68:-1 69:-1 70:-1 75:-1 76:-1 77:-1 78:-1 79:-0.819672 80:0.09836 81:0.310676 82:-1 83:-1 84:-1 85:-1 86:-1 87:-1 88:-1 89:-1 90:-1 91:-1 92:-1 93:-1 94:-0.975692 95:-0.754098 96:0.209204 97:0.589874 98:-1 99:-1 100:-1 101:-1 102:-1 103:-1 104:-1 105:-1 106:-1 107:-1 108:-1 109:-0.819672 110:0.786886 111:-0.94236 112:-1 113:-1 114:-1 115:-1 116:-1 117:-1 118:-1 119:-1 120:-1 121:-1 122:-1 123:-1 124:0.0657332 125:-0.808743 126:-0.432016 127:-0.531804 128:-0.894391 129:-1 130:-1 131:-1 132:-1 133:-1 135:-1 136:-1 137:-1 138:-1 139:-0.61893 140:-0.110712 141:-0.881883 142:-0.548898 143:-0.0587695 144:-0.418387 145:-0.83962 146:-0.801229 147:-0.910653 148:-1 150:-1 151:-1 152:-1 153:-1 154:-1 155:-0.511007 156:0.20868 157:-0.911007 158:-0.272904 159:-0.0319233 160:-0.372951 161:-0.902124 162:-0.778118 163:-0.664961 164:-1 165:-1 166:-0.857694 167:0.888456 168:-1 169:-1 170:-1 171:-1 172:-1 184:-1 185:-1 186:0.754098 187:-0.754098 188:-1 189:-1 190:-1 191:-1 192:-1 193:-1 198:-1 199:-1 200:-1 201:-1 202:-1 203:-1 204:0.580797 205:-0.463488 206:-1 207:-1 208:-1 209:-1 210:-1 212:-1 213:-1 214:-1 215:-1 216:-1 217:-1 218:-1 219:-1 220:0.511224 221:-0.251722 222:-1 223:-1 224:-1 225:-1 226:-1 227:1 228:-1 229:-1 230:-1 231:-1 242:-1 243:-1 244:-1 245:-1 246:0.918032 247:-0.918032 248:-1 249:-1 250:-1 251:-1 252:-1 253:-1 254:-1 255:-1 256:-1 257:-1 258:-1 259:-1 260:-1 261:-1 262:-1 263:-0.837755 264:1 265:-0.42623 266:-1 267:-1 268:-1 269:-1 270:-1 272:-1 273:-1 274:-1 275:-1 276:-1 277:-1 278:-1 279:-0.618129 280:0.782787 281:-0.315946 282:-1 283:-1 284:-1 285:-1 
-0.081326172630839133 0.57945297206124946 17.084515691055717 1.469466550896612 4.3938789968280503 1:-1 2:1 16:-1 17:-1 18:-1 19:-1 20:-1 21:-0.247524 22:0.942455 23:-1 24:-1 30:-1 31:-1 32:-1 33:-1 34:-1 35:-1 36:-1 37:-1 38:-0.782178 39:0.622238 40:-0.00714876 41:-1 45:-1 46:-1 47:-1 48:-1 49:-1 50:0.544554 51:-0.199043 52:-1 53:-1 60:-1 61:-1 62:-1 63:-0.069306 64:-0.128712 65:-0.686468 66:-1 67:-1 68:-1 69:-1 70:-1 75:-1 76:-1 77:-1 78:-0.549955 79:0.029702 80:-0.524752 81:-0.820092 82:-1 83:-1 84:-1 85:-1 86:-1 87:-1 88:-1 89:-1 90:-1 91:-1 92:-1 93:-1 94:0.291909 95:-0.326732 96:-0.498591 97:-1 98:-1 99:-1 100:-1 101:-1 102:-1 103:-1 104:-1 105:-1 106:-1 107:-1 108:-1 109:-1 110:0.920792 111:-0.860747 112:-1 113:-1 114:-1 115:-1 116:-1 117:-1 118:-1 119:-1 120:-1 121:-1 122:-1 123:-1 124:0.432663 125:-0.684968 126:-0.690157 127:-0.878812 128:-1 129:-1 130:-1 131:-1 132:-1 133:-1 135:-1 136:-1 137:-1 138:-0.778137 139:-0.686157 140:0.0473355 141:-0.857324 142:-0.33834 143:-0.398093 144:-0.648729 145:-1 146:-1 147:-1 148:-1 150:-1 151:-1 152:-1 153:-1 154:-0.681236 155:-0.246392 156:-0.374289 157:-0.892503 158:0.283637 159:-0.521625 160:-0.586859 161:-1 162:-1 163:-1 164:-1 165:-1 166:-1 167:1 168:-1 169:-1 170:-1 171:-1 172:-1 184:-1 185:-1 186:-1 187:0.584158 188:-0.584158 189:-1 190:-1 191:-1 192:-1 193:-1 198:-1 199:-1 200:-1 201:-1 202:-1 203:-1 204:-1 205:-1 206:0.584158 207:-0.360051 208:-1 209:-1 210:-1 212:-1 213:-1 214:-1 215:-1 216:-1 217:-1 218:-1 219:-1 220:-1 221:-0.928642 222:0.940594 223:-1 224:-1 225:-1 226:-1 227:1 228:-1 229:-1 230:-1 231:-1 242:-1 243:-1 244:-1 245:-1 246:-1 247:0.465346 248:-0.36156 249:-1 250:-1 251:-1 252:-1 253:-1 254:-1 255:-1 256:-1 257:-1 258:-1 259:-1 260:-1 261:-1 262:-1 263:-1 264:-1 265:-1 266:0.960396 267:-0.933908 268:-1 269:-1 270:-1 272:-1 273:-1 274:-1 275:-1 276:-1 277:-1 278:-1 279:-1 280:-1 281:-0.885238 282:0.90099 283:-1 284:-1 285:-1 
-4.3061373417115218 5.4360214791055839 12.044200119858255 17.063271662631195 18.410171983316662 1:1 2:-1 16:-1 17:-1 18:-1 19:-1 20:1 21:-1 22:-1 23:-1 24:-1 30:-1 31:-1 32:-1 33:-1 34:-1 35:-1 36:-1 37:1 38:-1 39:-1 40:-1 41:-1 45:-1 46:-1 47:-1 48:-1 49:-0.266666 50:0.266666 51:-1 52:-1 53:-1 60:-1 61:-1 62:-1 63:-1 64:1 65:-1 66:-1 67:-1 68:-1 69:-1 70:-1 75:-1 76:-1 77:-1 78:-1 79:-1 80:1 81:-1 82:-1 83:-1 84:-1 85:-1 86:-1 87:-1 88:-1 89:-1 90:-1 91:-1 92:-1 93:-1 94:-1 95:-0.816666 96:1 97:-1 98:-1 99:-1 100:-1 101:-1 102:-1 103:-1 104:-1 105:-1 106:-1 107:-1 108:-1 109:0.85 110:-0.85 111:-1 112:-1 113:-1 114:-1 115:-1 116:-1 117:-1 118:-1 119:-1 120:-1 121:-1 122:-0.612609 123:0.373684 124:-0.790291 125:-0.787879 126:-0.813726 127:-1 128:-1 129:-1 130:-1 131:-1 132:-1 133:-1 135:-1 136:-1 137:-1 138:-1 139:0.514465 140:-0.593151 141:-0.849892 142:-0.901724 143:-0.718551 144:-0.88913 145:-1 146:-1 147:-1 148:-1 150:-1 151:-1 152:-1 153:-1 154:-0.268292 155:0.0457138 156:-0.438253 157:-0.932143 158:-0.886272 159:-0.865789 160:-0.710225 161:-1 162:-1 163:-1 164:-1 165:-1 166:-1 167:1 168:-1 169:-1 170:-1 171:-1 172:-1 184:-1 185:-1 186:1 187:-1 188:-1 189:-1 190:-1 191:-1 192:-1 193:-1 198:-1 199:-1 200:-1 201:-1 202:-1 203:0.0285718 204:0.571428 205:-1 206:-1 207:-1 208:-1 209:-1 210:-1 212:-1 213:-1 214:-1 215:-1 216:-1 217:-1 218:1 219:-0.305554 220:-1 221:-1 222:-1 223:-1 224:-1 225:-1 226:-1 227:1 228:-1 229:-1 230:-1 231:-1 242:-1 243:-1 244:-1 245:-1 246:1 247:-1 248:-1 249:-1 250:-1 251:-1 252:-1 253:-1 254:-1 255:-1 256:-1 257:-1 258:-1 259:-1 260:-1 261:-1 262:-0.0480549 263:1 264:-1 265:-1 266:-1 267:-1 268:-1 269:-1 270:-1 272:-1 273:-1 274:-1 275:-1 276:-1 277:-0.637205 278:1 279:-0.294116 280:-1 281:-1 282:-1 283:-1 284:-1 285:-1 
-0.572829430295968 4.4136529850454673 4.0729147152910699 6.357755021139095 27.193112985389536 1:-1 2:1 16:-1 17:-1 18:-1 19:-1 20:-1 21:1 22:-1 23:-1 24:-1 30:-1 31:-1 32:-1 33:-1 34:-1 35:-1 36:-1 37:-1 38:0.91195 39:-0.898404 40:-1 41:-1 45:-1 46:-1 47:-1 48:-1 49:-1 50:1 51:-1 52:-1 53:-1 60:-1 61:-1 62:-1 63:-0.786164 64:0.786164 65:-1 66:-1 67:-1 68:-1 69:-1 70:-1 75:-1 76:-1 77:-1 78:-0.957118 79:0.496856 80:-0.534592 81:-1 82:-1 83:-1 84:-1 85:-1 86:-1 87:-1 88:-1 89:-1 90:-1 91:-1 92:-1 93:-1 94:-0.123403 95:-0.00629 96:-0.543016 97:-1 98:-1 99:-1 100:-1 101:-1 102:-1 103:-1 104:-1 105:-1 106:-1 107:-1 108:-1 109:-1 110:1 111:-1 112:-1 113:-1 114:-1 115:-1 116:-1 117:-1 118:-1 119:-1 120:-1 121:-1 122:-1 123:0.215932 124:-0.512 125:-0.813227 126:-0.887533 127:-0.871696 128:-1 129:-1 130:-1 131:-1 132:-1 133:-1 135:-1 136:-1 137:-1 138:-0.890387 139:0.661327 140:-0.778237 141:-0.932027 142:-0.950552 143:-0.872552 144:-0.916324 145:-0.907706 146:-1 147:-1 148:-1 150:-1 151:-1 152:-1 153:-0.883741 154:0.859181 155:-0.547169 156:-0.841014 157:-0.965857 158:-0.957087 159:-0.898709 160:-0.868782 161:-0.887347 162:-1 163:-1 164:-1 165:-1 166:-1 167:1 168:-1 169:-1 170:-1 171:-1 172:-1 184:-1 185:-1 186:-1 187:0.773584 188:-0.773584 189:-1 190:-1 191:-1 192:-1 193:-1 198:-1 199:-1 200:-1 201:-1 202:-1 203:-1 204:-1 205:-1 206:1 207:-1 208:-1 209:-1 210:-1 212:-1 213:-1 214:-1 215:-1 216:-1 217:-1 218:-1 219:-1 220:-1 221:-0.395632 222:0.496856 223:-1 224:-1 225:-1 226:-1 227:1 228:-1 229:-1 230:-1 231:-1 242:-1 243:-1 244:-1 245:-1 246:-1 247:1 248:-1 249:-1 250:-1 251:-1 252:-1 253:-1 254:-1 255:-1 256:-1 257:-1 258:-1 259:-1 260:-1 261:-1 262:-1 263:-1 264:-1 265:-1 266:1 267:-1 268:-1 269:-1 270:-1 272:-1 273:-1 274:-1 275:-1 276:-1 277:-1 278:-1 279:-1 280:-1 281:0.530874 282:-0.320754 283:-1 284:-1 285:-1 
-5.5532948089048269 -7.1431480619234868 9.167885516451685 7.6713596938931881 7.6816754941923895 1:1 2:-1 16:-1 17:-0.71344 18:-0.396353 19:-0.502488 20:0.144278 21:-0.9602 22:-1 23:-1 24:-1 30:-1 31:-1 32:-1 33:-1 34:-1 35:-0.975125 36:-0.889812 37:-0.333334 38:0.18408 39:-0.931113 40:-1 41:-1 45:-1 46:-1 47:-1 48:-1 49:0.064676 50:-0.293532 51:-0.755017 52:-0.548923 53:-0.84958 60:-1 61:-1 62:-0.800992 63:-0.094528 64:-0.671642 65:0.0555544 66:-0.876671 67:-1 68:-1 69:-1 70:-1 75:-1 76:1 77:1 78:-0.773859 79:-0.9602 80:-0.522388 81:-0.45759 82:-0.915978 83:-1 84:-1 85:-1 86:-1 87:-1 88:-1 89:-1 90:-1 91:1 92:-0.332341 93:-0.742668 94:-0.734432 95:-0.293532 96:-0.33178 97:-0.430898 98:-0.978994 99:-1 100:-1 101:-1 102:-1 103:-1 104:-1 105:-1 106:-1 107:-1 108:-0.834134 109:-0.054726 110:-0.20398 111:-0.755094 112:-0.756767 113:-1 114:-1 115:-1 116:-1 117:-1 118:-1 119:-1 120:-1 121:-0.801 122:-0.491195 123:0.0428559 124:-0.165339 125:-0.947233 126:-1 127:-1 128:-1 129:-1 130:-1 131:-1 132:-1 133:-1 135:-1 136:-1 137:-0.960996 138:-0.132906 139:-0.653056 140:-0.0419136 141:-0.533997 142:-1 143:-1 144:-1 145:-1 146:-1 147:-1 148:-1 150:-1 151:-1 152:-1 153:-0.79768 154:-0.0826347 155:-0.764605 156:0.38341 157:-0.68941 158:-0.728416 159:-0.919876 160:-0.861605 161:-1 162:-1 163:-1 164:-1 165:-1 166:-0.326285 167:0.174025 168:-0.516102 169:-0.938879 170:-1 171:-1 172:-1 184:-1 185:-0.944451 186:-0.17413 187:-0.62189 188:-0.850746 189:1 190:-0.601984 191:-1 192:-1 193:-1 198:-1 199:-1 200:-1 201:-1 202:-1 203:-0.961621 204:0.0127939 205:-0.674356 206:-0.721394 207:-0.387493 208:-0.917804 209:-1 210:-1 212:-1 213:-1 214:-1 215:-1 216:-1 217:-1 218:-1 219:-0.968109 220:0.0264581 221:-0.557772 222:-0.412936 223:-0.83235 224:-1 225:-1 226:-0.40528 227:0.264478 228:-0.643815 229:-0.57521 230:-1 231:-1 242:-1 243:-1 244:-1 245:-0.880596 246:0.353234 247:-0.59204 248:-1 249:-0.103232 250:0.280237 251:1 252:-0.0547216 253:-1 254:-1 255:-1 256:-1 257:-1 258:-1 259:-1 260:-1 261:-1 262:-1 263:-0.864595 264:0.997606 265:-0.820896 266:-0.910448 267:-0.767525 268:-0.850481 269:0.335015 270:1 272:-1 273:-1 274:-1 275:-1 276:-1 277:-1 278:-0.879256 279:0.327482 280:0.255225 281:-0.919267 282:-0.880598 283:-0.679284 284:-0.903051 285:-1 
-1.794654996004615 -1.2219873658431792 0.49580660474183036 0.72102703163081372 1.3416197110695787 1:0.347368 2:-0.347368 16:0.114169 17:0.66736 18:-0.270175 19:-0.831578 20:-0.642106 21:-0.736842 22:-0.131332 23:-1 24:-1 30:-1 31:-1 32:-0.893078 33:-0.580304 34:-0.143534 35:-0.894735 36:-0.694012 37:-0.631578 38:-0.568422 39:-0.125507 40:-1 41:-1 45:-1 46:0.206972 47:-0.91278 48:-0.788116 49:-0.821052 50:-0.189474 51:0.388386 52:-0.880706 53:-1 60:-1 61:-1 62:-0.831576 63:-0.852632 64:-0.010526 65:-0.499999 66:-0.843439 67:-0.385759 68:-0.83663 69:-1 70:-1 75:-1 76:-1 77:-1 78:-0.976077 79:-0.063158 80:-0.557894 81:-0.808728 82:-0.822223 83:-0.810523 84:-0.194736 85:-0.751528 86:-1 87:-1 88:-1 89:-1 90:-1 91:-1 92:-1 93:-0.977315 94:-0.921959 95:0.094736 96:-0.872525 97:-0.555005 98:-0.91111 99:-0.838946 100:0.130792 101:-0.699034 102:-1 103:-1 104:-1 105:-1 106:-1 107:-0.576317 108:-0.749329 109:-0.410526 110:0.210526 111:-0.962989 112:-1 113:-1 114:-1 115:-1 116:-1 117:-1 118:-1 119:-1 120:-1 121:-1 122:-1 123:-0.164544 124:-0.690957 125:-0.832537 126:-0.917647 127:-0.484631 128:-0.440555 129:-0.823479 130:-0.836095 131:-1 132:-1 133:-1 135:-1 136:-1 137:-1 138:-0.908271 139:-0.0101297 140:-0.78587 141:-0.829354 142:-0.937933 143:-0.786693 144:-0.953319 145:-0.794041 146:0.052959 147:-0.0247321 148:-0.617556 150:-1 151:-1 152:-1 153:-1 154:-0.630294 155:-0.11218 156:-0.756082 157:-0.942856 158:-0.892263 159:-0.915238 160:-0.853586 161:-0.560063 162:0.329742 163:0.147375 164:-1 165:-0.561417 166:-0.725878 167:0.527293 168:-0.853739 169:-0.806021 170:-0.547386 171:1 172:1 184:-1 185:-1 186:-0.621052 187:-0.494736 188:-0.157894 189:-0.703049 190:-0.578944 191:1 192:1 193:1 198:-1 199:-1 200:-0.844319 201:-0.218671 202:-0.948327 203:-0.9594 204:-0.729323 205:-0.752392 206:-0.778948 207:0.231139 208:-0.847827 209:-0.91111 210:1 212:-1 213:-1 214:-1 215:-1 216:-0.69749 217:-0.708844 218:-0.986563 219:-0.865048 220:-0.815168 221:-0.772407 222:-0.757894 223:0.517381 224:-0.72222 225:-0.678571 226:-0.829958 227:0.597052 228:-0.835148 229:-0.10121 230:-0.221051 231:-1 242:1 243:-1 244:-1 245:-0.747368 246:-0.578948 247:-0.88421 248:0.244398 249:0.626316 250:-0.322826 251:0.410539 252:1 253:1 254:1 255:1 256:-1 257:-1 258:-1 259:-1 260:-0.932946 261:-0.978746 262:-0.738595 263:-0.882801 264:-0.756164 265:-0.663158 266:-0.6 267:0.212098 268:-0.864421 269:-0.435103 270:0.81353 272:-1 273:-1 274:-1 275:-1 276:-1 277:-0.895848 278:-0.886458 279:-0.55418 280:-0.404737 281:-0.62177 282:-0.831578 283:0.160713 284:-1 285:1 
-4.1270066738616586 -5.6279586524586716 0.099038486311049972 1.5037971976489144 2.8507113053848272 1:1 2:-1 16:-1 17:0.329234 18:1 19:-0.107692 20:-1 21:-1 22:-1 23:-1 24:-1 30:-1 31:-1 32:-1 33:-1 34:-0.499304 35:1 36:-0.42501 37:-0.276924 38:-1 39:-1 40:-1 41:-1 45:-1 46:-1 47:-1 48:-0.595038 49:0.215384 50:-0.584616 51:-0.81061 52:-1 53:-1 60:-1 61:-1 62:0.72308 63:-0.43077 64:-0.307692 65:-0.561537 66:-0.923725 67:-1 68:-1 69:-1 70:-1 75:-1 76:-1 77:-1 78:-0.93007 79:0.015384 80:-0.138462 81:-0.888181 82:-1 83:-1 84:-1 85:-1 86:-1 87:-1 88:-1 89:-1 90:-1 91:-1 92:-0.906157 93:-0.867375 94:-0.543767 95:-0.338462 96:-0.508821 97:0.262491 98:-1 99:-1 100:-1 101:-1 102:-1 103:-1 104:-1 105:-1 106:-1 107:0.238458 108:0.905084 109:-0.015384 110:-1 111:-1 112:-1 113:-1 114:-1 115:-1 116:-1 117:-1 118:-1 119:-1 120:-1 121:1 122:-0.642407 123:-0.232929 124:-0.822555 125:-0.34732 126:-0.793665 127:-1 128:-1 129:-1 130:-1 131:-1 132:-1 133:-1 135:-1 136:-1 137:-1 138:-0.463736 139:-0.39855 140:-0.916544 141:-0.750591 142:-0.0928392 143:-0.220606 144:-0.761204 145:-1 146:-1 147:-1 148:-1 150:-1 151:-1 152:-1 153:-0.800933 154:-0.414634 155:-0.461979 156:-0.935181 157:-0.665934 158:0.469688 159:-0.587045 160:-0.625526 161:-1 162:-1 163:-1 164:-1 165:-1 166:-0.706198 167:0.7069 168:-0.893117 169:-1 170:-1 171:-1 172:-1 184:-1 185:-0.742333 186:0.815384 187:-0.953846 188:-1 189:-1 190:-1 191:-1 192:-1 193:-1 198:-1 199:-1 200:-1 201:-1 202:-1 203:0.839558 204:-0.48901 205:-0.417833 206:-1 207:-1 208:-1 209:-1 210:-1 212:-1 213:-1 214:-1 215:-1 216:-1 217:1 218:-0.862521 219:-0.679487 220:-0.577909 221:-0.297769 222:-1 223:-1 224:-1 225:-1 226:-0.75148 227:0.715693 228:-0.862322 229:-1 230:-1 231:-1 242:-1 243:-1 244:-1 245:-0.13846 246:-0.784616 247:0.353846 248:-1 249:-1 250:-1 251:-1 252:-1 253:-1 254:-1 255:-1 256:-1 257:-1 258:-1 259:-1 260:-1 261:-0.953402 262:-0.808972 263:-0.961934 264:-0.406036 265:-0.276924 266:-0.4 267:-0.76893 268:-1 269:-1 270:-1 272:-1 273:-1 274:-1 275:-1 276:-1 277:-0.93911 278:-0.87554 279:-0.837102 280:-0.13 281:-0.500698 282:-0.338462 283:-0.817308 284:-1 285:-1 
-0 -0 6.2944227133150692 1.4792722073206734 0.58699971773674309 1:1 2:-1 16:-1 17:1 18:0.0833344 19:0.222222 20:-1 21:-1 22:-1 23:-1 24:-1 30:-1 31:-1 32:-1 33:-0.907712 34:-0.773988 35:0.52778 36:0.864874 37:-1 38:-1 39:-1 40:-1 41:-1 45:-1 46:-1 47:-0.424603 48:1 49:-0.569444 50:-1 51:-1 52:-1 53:-1 60:-1 61:-1 62:0.555552 63:-0.180556 64:-0.569444 65:-0.494214 66:-0.896715 67:-1 68:-1 69:-1 70:-1 75:-1 76:-1 77:-0.956383 78:-0.621211 79:0.083334 80:-0.569444 81:-0.747631 82:-1 83:-1 84:-1 85:-1 86:-1 87:-1 88:-1 89:-1 90:-1 91:-1 92:-0.745837 93:-0.820401 94:-0.0938689 95:-0.125 96:-0.571866 97:-1 98:-1 99:-1 100:-1 101:-1 102:-1 103:-1 104:-1 105:-1 106:-1 107:-0.520829 108:0.819088 109:0.152778 110:-1 111:-1 112:-1 113:-1 114:-1 115:-1 116:-1 117:-1 118:-1 119:-1 120:-1 121:-1 122:-1 123:-0.265108 124:-0.228155 125:-0.440235 126:-0.984478 127:-1 128:-1 129:-1 130:-1 131:-1 132:-1 133:-1 135:-1 136:-1 137:-1 138:-1 139:-0.442348 140:0.280821 141:-0.224447 142:-0.808909 143:-1 144:-1 145:-1 146:-1 147:-1 148:-1 150:-1 151:-1 152:-1 153:-1 154:-0.979676 155:-0.0571433 156:0.550663 157:-0.698413 158:-0.620911 159:-1 160:-1 161:-1 162:-1 163:-1 164:-1 165:-1 166:-1 167:0.395189 168:-0.195907 169:-0.40278 170:-1 171:-1 172:-1 184:-1 185:-1 186:-0.819444 187:-0.333334 188:-0.347222 189:-0.118421 190:1 191:-1 192:-1 193:-1 198:-1 199:-0.848796 200:-0.178365 201:-0.852724 202:-0.863635 203:-0.839285 204:-0.866071 205:-0.403409 206:-0.472222 207:-0.871755 208:-0.885265 209:-0.824073 210:0.420938 212:-1 213:-1 214:-1 215:-0.890546 216:-0.334751 217:-0.807921 218:-0.964539 219:-0.755163 220:-0.862821 221:-0.149161 222:-0.597222 223:-0.869994 224:-0.816745 225:-0.764387 226:-0.73077 227:0.761666 228:-0.968929 229:-1 230:-1 231:-1 242:-1 243:-1 244:-0.833336 245:0.25 246:-0.180556 247:-0.541666 248:-0.93366 249:-1 250:-1 251:-1 252:-1 253:-1 254:-1 255:-1 256:-1 257:-1 258:-1 259:-1 260:-1 261:-1 262:-0.965512 263:-0.398624 264:-0.206401 265:-0.041666 266:-0.972222 267:-1 268:-1 269:-1 270:-1 272:-1 273:-1 274:-1 275:-1 276:-1 277:-0.80761 278:-0.513108 279:-0.0882339 280:-0.254862 281:-0.323863 282:-0.986112 283:-1 284:-1 285:-1 
-7.5677209302286768 -16.123536296321237 17.211473635773046 13.985989481342212 17.037584545515244 1:0.977528 2:-0.977528 16:0.0406319 17:-0.191009 18:-0.659174 19:-0.764044 20:0.05618 21:-0.64045 22:-1 23:-1 24:-1 30:-1 31:1 32:-0.885866 33:-0.253348 34:0.00562223 35:-0.80337 36:-0.688934 37:-0.41573 38:-0.325842 39:-0.792566 40:-1 41:-1 45:-1 46:-1 47:-0.557783 48:-0.391084 49:-0.561798 50:-0.101124 51:-0.901201 52:-1 53:-1 60:-1 61:-1 62:-0.280896 63:-0.011236 64:-0.337078 65:-0.786516 66:-0.944295 67:-0.979511 68:-1 69:-1 70:-1 75:-1 76:-1 77:-1 78:-0.655261 79:0.033708 80:-0.606742 81:-0.612084 82:-0.905118 83:-0.949438 84:-1 85:-1 86:-1 87:-1 88:-1 89:-1 90:-1 91:-1 92:-1 93:-0.830491 94:0.0495938 95:-0.202248 96:-0.727862 97:-0.636769 98:-0.952559 99:-1 100:-1 101:-1 102:-1 103:-1 104:-1 105:-1 106:-1 107:-0.289323 108:-0.545133 109:-0.382022 110:-0.247192 111:-0.446902 112:-1 113:-1 114:-1 115:-1 116:-1 117:-1 118:-1 119:-1 120:-1 121:-1 122:-0.947768 123:-0.394047 124:-0.705466 125:-0.416071 126:-0.510245 127:-0.747864 128:-1 129:-1 130:-1 131:-1 132:-1 133:-1 135:-1 136:-1 137:-1 138:-0.930062 139:-0.465762 140:-0.588581 141:-0.109478 142:-0.492059 143:-0.127202 144:-0.725939 145:-1 146:-1 147:-1 148:-1 150:-1 151:-1 152:-1 153:-1 154:-0.375171 155:-0.664848 156:0.0414444 157:-0.695023 158:-0.0799753 159:-0.517443 160:-0.726506 161:-1 162:-1 163:-1 164:-1 165:-1 166:-0.51233 167:0.20491 168:-0.661737 169:-0.378811 170:0.20786 171:-1 172:-1 184:-1 185:-0.958181 186:-0.16854 187:-0.337078 188:-0.707866 189:-0.76227 190:-0.191008 191:-0.288388 192:-1 193:-1 198:-1 199:-0.938839 200:-0.875369 201:-0.761712 202:-0.917262 203:-0.696628 204:-0.74719 205:-0.0462211 206:-0.64045 207:-0.757921 208:-0.95359 209:-1 210:-1 212:-1 213:-1 214:-1 215:-0.955727 216:-0.892364 217:-0.62706 218:-0.856562 219:-0.909968 220:-0.531432 221:0.0527224 222:-0.707866 223:-0.915861 224:-0.970349 225:-1 226:-0.165083 227:0.184269 228:-0.824033 229:-1 230:-0.722845 231:-1 242:-1 243:-0.814606 244:-0.460672 245:-0.438204 246:0.044944 247:-0.494382 248:-1 249:-1 250:-1 251:-1 252:-1 253:-1 254:-1 255:-1 256:-1 257:-1 258:-1 259:-1 260:-1 261:-0.977312 262:-0.776778 263:-0.777597 264:0.0411047 265:-0.30337 266:-0.786516 267:-0.831241 268:-0.95176 269:-1 270:-1 272:-1 273:-1 274:-1 275:-1 276:-1 277:-0.799888 278:-0.893952 279:-0.357569 280:-0.185393 281:-0.140448 282:-0.820224 283:-0.961878 284:-0.97263 285:-1 
-5.7275156072133848 -2.386634468079313 9.1820196098632927 2.0088935537553292 0 1:1 2:-1 16:-1 17:0.689378 18:-0.394784 19:-0.284916 20:-0.22905 21:-1 22:-1 23:-1 24:-1 30:-1 31:-1 32:-1 33:-1 34:1 35:-0.05028 36:-0.164818 37:-0.351956 38:-0.877094 39:-1 40:-1 41:-1 45:-1 46:-1 47:-1 48:-0.377186 49:0.363128 50:-0.765364 51:-1 52:-1 53:-1 60:-1 61:-0.682591 62:0.653632 63:-0.318436 64:-0.832402 65:-0.628493 66:-0.0859996 67:-1 68:-1 69:-1 70:-1 75:-1 76:-1 77:-0.473638 78:-0.72067 79:-0.608938 80:-0.47486 81:-0.0863872 82:-0.669771 83:-0.949717 84:-1 85:-1 86:-1 87:-1 88:-1 89:-1 90:-1 91:-1 92:-1 93:-1 94:-0.751493 95:-0.463688 96:-0.483368 97:0.583727 98:-0.622596 99:-0.965808 100:-1 101:-1 102:-1 103:-1 104:-1 105:-1 106:-1 107:-1 108:-0.813749 109:-0.128492 110:-0.26257 111:-0.587495 112:-0.617629 113:-1 114:-1 115:-1 116:-1 117:-1 118:-1 119:-1 120:-1 121:-1 122:-0.428652 123:-0.931784 124:-0.0041774 125:-0.691892 126:-0.687808 127:-0.635309 128:-0.928022 129:-0.718948 130:-1 131:-1 132:-1 133:-1 135:-1 136:-1 137:-0.649607 138:-0.944363 139:-0.787498 140:-0.575724 141:0.187438 142:-0.956079 143:1 144:-0.876123 145:-0.945347 146:-1 147:-1 148:-1 150:-1 151:-0.650813 152:0.024963 153:-0.938039 154:-0.901893 155:-0.712689 156:-0.270356 157:-0.332801 158:0.219851 159:-0.250219 160:-0.844594 161:-1 162:-1 163:-1 164:-1 165:-1 166:-1 167:0.3614 168:-0.0685103 169:-0.588184 170:-1 171:-1 172:-1 184:-1 185:0.330718 186:0.01676 187:-0.743016 188:-0.988826 189:-1 190:-1 191:-1 192:-1 193:-1 198:-1 199:-0.969588 200:0.569834 201:0.717929 202:-0.286949 203:-0.396647 204:-0.317637 205:-1 206:-1 207:-1 208:-1 209:-1 210:-1 212:-1 213:-1 214:-1 215:-0.603772 216:0.177378 217:0.0816622 218:-0.786045 219:-0.230054 220:-0.472741 221:-0.986578 222:-1 223:-1 224:-1 225:-1 226:-0.963903 227:0.528045 228:-0.25007 229:-1 230:-1 231:-1 242:-1 243:-1 244:0.206704 245:-0.329608 246:-0.117318 247:-0.675978 248:-0.813211 249:-1 250:-1 251:-1 252:-1 253:-1 254:-1 255:-1 256:-1 257:-1 258:-1 259:-0.697469 260:0.494716 261:-0.819511 262:-0.195346 263:-0.364166 264:-0.465103 265:-0.910614 266:-0.765364 267:-0.981352 268:-0.952031 269:-1 270:-1 272:-1 273:-0.97562 274:-0.926258 275:-0.706306 276:-0.734638 277:-0.668345 278:-0.42753 279:0.348671 280:-0.756983 281:-0.961147 282:-0.865922 283:-0.810455 284:-1 285:-1 
-4.172095208824012 -4.1918886334071344 1.959120963740774 3.1786883670165924 4.0089960249736363 1:0.718446 2:-0.718446 16:0.669917 17:0.467964 18:-0.558251 19:-0.68932 20:-0.194174 21:-0.69903 22:-0.924415 23:-1 24:-1 30:-1 31:-1 32:-0.21104 33:1 34:0.81685 35:-0.660195 36:-0.932804 37:-0.737864 38:-0.37864 39:-0.619118 40:-1 41:-1 45:-1 46:-1 47:-0.979891 48:-0.909803 49:-0.417476 50:-0.135922 51:-0.48778 52:0.100317 53:-1 60:-1 61:-1 62:-1 63:-0.68932 64:-0.7767 65:-0.615697 66:-0.374263 67:0.115362 68:-0.713709 69:-0.735434 70:0.228147 75:-1 76:-1 77:-1 78:-0.845543 79:-0.30097 80:-0.7767 81:-0.400188 82:-0.323625 83:-0.300969 84:-0.732623 85:-0.885413 86:-1 87:-1 88:-1 89:-1 90:-1 91:-1 92:-0.822331 93:-0.560595 94:-0.36659 95:-0.679612 96:-0.668657 97:-0.444714 98:-0.590077 99:-0.435533 100:-0.778762 101:-0.861205 102:-1 103:-1 104:-1 105:-1 106:0.0718334 107:-0.385923 108:-0.398879 109:-0.46602 110:-0.174758 111:-0.624491 112:-0.857606 113:-0.796132 114:-1 115:-1 116:-1 117:-1 118:-1 119:-1 120:-1 121:-1 122:-0.684068 123:-0.762902 124:-0.165238 125:-0.567521 126:-0.685322 127:-0.623689 128:-0.984365 129:-0.918594 130:-1 131:-1 132:-1 133:-1 135:-1 136:-1 137:-0.961945 138:-0.927482 139:-0.497344 140:0.211331 141:-0.457868 142:-0.713758 143:-0.770468 144:-0.91389 145:-0.976256 146:-1 147:-1 148:-1 150:-1 151:-1 152:-1 153:-0.802589 154:-0.80109 155:-0.111234 156:0.145315 157:-0.815534 158:-0.635637 159:-0.765459 160:-0.966243 161:-0.971019 162:-1 163:-1 164:-1 165:-1 166:-0.494337 167:0.577219 168:-0.955032 169:-1 170:-1 171:-1 172:-1 184:-0.823314 185:-0.638657 186:-0.31068 187:-0.252428 188:-0.640776 189:-1 190:-1 191:-1 192:-1 193:-1 198:-1 199:-1 200:-1 201:-1 202:-0.785527 203:-0.457004 204:-0.469486 205:-0.751766 206:-0.106796 207:-1 208:-1 209:-1 210:-1 212:-1 213:-1 214:-1 215:-1 216:-1 217:-0.785168 218:-0.727329 219:-0.393205 220:-0.403335 221:-0.381914 222:-0.76699 223:-0.927299 224:-1 225:-1 226:-0.670649 227:0.282329 228:-0.413527 229:0.105308 230:-1 231:-1 242:-1 243:-1 244:-1 245:-0.980584 246:-0.53398 248:-0.571044 249:1 250:-0.687725 251:-1 252:-1 253:-1 254:-1 255:-1 256:-1 257:-1 258:-1 259:-1 260:-1 261:-0.990199 262:-0.951779 263:-0.459512 264:-0.700136 265:-0.524272 266:-0.281554 267:-0.773169 268:-0.97916 269:-1 270:-1 272:-1 273:-1 274:-1 275:-1 276:-1 277:-0.903938 278:-0.738192 279:-0.342089 280:-0.549514 281:-0.0547218 282:-0.747572 283:-0.884707 284:-1 285:-1 
-1.3670829866159537 -1.9589730003176224 0.24964027526837582 0.35373350624057537 0.18663383386224069 1:0.87027 2:-0.87027 16:-1 17:0.167565 18:-0.765766 19:-0.545946 20:0.167568 21:-0.913514 22:-0.966334 23:-1 24:-1 30:-1 31:-1 32:-1 33:-0.640801 34:-0.0324397 35:-0.54054 36:-0.640846 37:-0.18919 38:-0.45946 39:-0.962578 40:-1 41:-1 45:-1 46:-1 47:-0.574516 48:-0.614996 49:-0.18919 50:-0.675676 51:-0.467662 52:-0.693695 53:-0.182832 60:-1 61:-1 62:0.167568 63:-0.275676 64:-0.61081 65:-0.794594 66:-0.571224 67:-0.783149 68:-0.781882 69:-0.873747 70:-1 75:-1 76:-1 77:-0.796287 78:0.25307 79:-0.545946 80:-0.686486 81:-0.882137 82:-1 83:-1 84:-1 85:-1 86:-1 87:-1 88:-1 89:-1 90:-1 91:-1 92:0.0551319 93:-0.580616 94:0.266355 95:-0.72973 96:-0.809572 97:-0.865582 98:-0.977179 99:-1 100:-0.96481 101:-0.289077 102:-0.95538 103:-1 104:-1 105:-1 106:-0.204313 107:-0.689189 108:-0.794046 109:-0.372972 110:-0.286486 111:-0.714909 112:0.162766 113:0.589198 114:-0.478372 115:-1 116:-1 117:-1 118:-1 119:-1 120:-1 121:-0.56756 122:-0.447191 123:-0.405974 124:-0.637261 125:-0.208845 126:-0.855008 127:-0.933839 128:-1 129:-1 130:-1 131:-1 132:-1 133:-1 135:-1 136:-0.324333 137:-0.152433 138:-0.34054 139:-0.188985 140:-0.824065 141:-0.785795 142:-0.766265 143:-0.81744 144:-0.928086 145:-1 146:-1 147:-1 148:-1 150:-1 151:-1 152:-0.504134 153:-0.200657 154:-0.303888 155:-0.810965 156:0.0931309 157:-0.794594 158:-0.52051 159:-0.912946 160:-0.924814 161:-1 162:-1 163:-1 164:-1 165:-1 166:-0.399399 167:0.132014 168:-0.849789 169:0.394598 170:-1 171:-1 172:-1 184:-0.803258 185:-0.657992 186:-0.308108 187:-0.178378 188:-0.805406 189:-0.656896 190:-1 191:-1 192:-1 193:-1 198:-1 199:-1 200:-1 201:-1 202:-1 203:-0.728959 204:0.0888032 205:-0.535627 206:-0.816216 207:-0.800355 208:-0.843713 209:-1 210:-1 212:-1 213:-1 214:-1 215:-1 216:-1 217:-1 218:-0.972397 219:-0.410949 220:-0.205101 221:-0.558483 222:-0.632432 223:-0.817849 224:-0.857357 225:-1 226:-0.720584 227:0.257946 228:-0.806506 229:1 230:1 231:-1 242:-1 243:-1 244:-1 245:-1 246:-0.275676 247:-0.491892 248:-0.135071 249:-0.443234 250:-1 251:-1 252:-1 253:-1 254:-1 255:-1 256:-1 257:-1 258:-1 259:-1 260:-1 261:-0.967256 262:-1 263:-0.585399 264:-0.382278 265:-0.481082 266:-0.45946 267:-0.747419 268:-0.953585 269:-1 270:-1 272:-1 273:-1 274:-1 275:-1 276:-1 277:-0.978608 278:-0.941694 279:-0.67949 280:-0.263243 281:-0.385995 282:-0.416216 283:-0.743242 284:-0.947331 285:-1 
-6.347442011426204 -12.13716404102219 23.515627843111425 10.141317571503283 19.833362804595495 1:-0.079366 2:0.079366 16:-1 17:-0.847619 18:-0.793651 19:-0.809524 20:-0.566138 21:-0.026456 22:-0.571606 23:-0.971596 24:-1 30:-1 31:-1 32:-1 33:-1 34:-0.913901 35:-0.761905 36:-0.882816 37:-0.544974 38:-0.142858 39:-0.71917 40:-0.329806 41:-1 45:-1 46:-1 47:-1 48:-0.918075 49:-0.587302 50:0.185186 51:-0.441708 52:-0.820106 53:-1 60:-1 61:-1 62:-1 63:-0.968254 64:0.015874 65:-0.0952391 66:-0.317982 67:-0.903517 68:-0.917884 69:-1 70:-1 75:-1 76:-1 77:-1 78:-0.867725 79:0.216932 80:-0.587302 81:-0.692348 82:-0.821282 83:-1 84:-1 85:-1 86:-1 87:-1 88:-1 89:-1 90:-1 91:-1 92:-1 93:-0.88597 94:0.114029 95:-0.174604 96:-0.732052 97:-0.684225 98:-1 99:-1 100:-1 101:-1 102:-1 103:-1 104:-1 105:-1 106:-1 107:-0.756614 108:-0.395212 109:-0.640212 110:-0.089948 111:-0.776754 112:0.0346867 113:1 114:-1 115:-1 116:-1 117:-1 118:-1 119:-1 120:-1 121:-0.68254 122:-0.0653508 123:-0.257032 124:-0.545077 125:-0.42761 126:-0.952692 127:-0.956825 128:-1 129:-1 130:-1 131:-1 132:-1 133:-1 135:-1 136:-1 137:-0.377778 138:-0.235937 139:-0.306779 140:-0.555121 141:-0.866572 142:-0.750411 143:-0.892782 144:-0.976536 145:-1 146:-1 147:-1 148:-1 150:-1 151:-1 152:-0.878659 153:-0.334938 154:-0.00890488 155:-0.346939 156:-0.843959 157:-0.842026 158:-0.711173 159:-0.914787 160:-0.963204 161:-1 162:-1 163:-1 164:-1 165:-1 166:-0.228396 167:0.121584 168:-0.803954 169:-0.414968 170:-0.544978 171:-1 172:-1 184:-0.807407 185:-0.586461 186:-0.396826 187:-0.04762 188:-0.830688 189:-0.888054 190:-0.915344 191:-1 192:-1 193:-1 198:-0.275719 199:-0.42399 200:-0.686996 201:-0.551163 202:-0.87013 203:-1 204:-0.863946 205:-0.545455 206:-0.31217 207:-0.951145 208:-0.825167 209:-0.910641 210:-1 212:1 213:0.552023 214:-0.746032 215:-0.66643 216:-0.763468 217:-0.736575 218:-0.932455 219:-0.949125 220:-0.84903 221:-0.504274 222:-0.333334 223:-0.920758 224:-0.776602 225:-0.946145 226:-0.452992 227:0.0920647 228:-0.479151 229:0.656496 230:-1 231:-1 242:-1 243:-1 244:-1 245:-0.915344 246:-0.492064 247:0.10053 248:-0.583007 249:-1 250:-1 251:-1 252:-1 253:-1 254:-1 255:-1 256:-1 257:-1 258:-1 259:-1 260:-1 261:-1 262:-0.973721 263:-0.869089 264:-0.329985 265:-0.661376 266:0.10053 267:-0.98234 268:-1 269:-1 270:-1 272:-1 273:-1 274:-1 275:-1 276:-1 277:-1 278:-1 279:-0.77591 280:-0.416932 281:-0.423521 282:-0.015874 283:-0.982048 284:-1 285:-1 
-0 -0.025145433036447753 4.4958019861211307 0 0 1:0.98913 2:-0.98913 16:-1 17:-0.295653 18:0.389493 19:0.108696 20:-0.858696 21:-0.98913 22:-1 23:-1 24:-1 30:-1 31:-1 32:-1 33:-0.927767 34:0.857207 35:0.902175 36:-0.54862 37:-0.369566 38:-0.956522 39:-1 40:-1 41:-1 45:-1 46:-0.376792 47:-0.932455 48:-0.0238436 49:-0.032608 50:-0.782608 51:-0.789729 52:-0.876807 53:-1 60:-1 61:-1 62:-0.826088 63:-0.641304 64:-0.630434 65:0.273551 66:-0.24556 67:-0.821611 68:-0.96626 69:-1 70:-1 75:-1 76:-0.92952 77:-0.829313 78:-0.888834 79:-0.967392 80:0.076086 81:-0.170467 82:-0.49517 83:-0.853264 84:-1 85:-1 86:-1 87:-1 88:-1 89:-1 90:-1 91:-0.453769 92:-0.867386 93:-0.836022 94:-0.903298 95:-0.347826 96:-0.0905472 97:-0.405349 98:-0.770531 99:-1 100:-1 101:-1 102:-1 103:-1 104:-1 105:-1 106:1 107:1 108:0.449521 109:-0.097826 110:-0.913044 111:-1 112:-1 113:-1 114:-1 115:-1 116:-1 117:-1 118:-1 119:-1 120:-1 121:-0.56522 122:0.768506 123:0.106025 124:-0.623892 125:-0.873188 126:-0.987851 127:-1 128:-1 129:-1 130:-1 131:-1 132:-1 133:-1 135:-1 136:-1 137:-0.872177 138:-0.864685 139:-0.678425 140:0.0318644 141:-0.138519 142:-0.487256 143:-0.816447 144:-1 145:-1 146:-1 147:-1 148:-1 150:-1 151:-1 152:-1 153:-0.919632 154:-0.809121 155:-0.429813 156:-0.152797 157:-0.601708 158:-0.406645 159:-0.153888 160:-0.697631 161:-1 162:-1 163:-1 164:-1 165:-1 166:0.339826 167:-0.0945774 168:-0.924487 169:-1 170:-1 171:-1 172:-1 184:-0.802166 185:-0.777497 186:0.413044 187:-0.630434 188:-0.913044 189:-1 190:-1 191:-1 192:-1 193:-1 198:-1 199:-1 200:-0.95981 201:-0.884737 202:-0.893281 203:0.0690987 204:-0.0683218 205:-0.710969 206:-0.913044 207:-0.949819 208:-0.88776 209:-0.908213 210:-1 212:-1 213:-1 214:-1 215:-1 216:-0.93058 217:-0.909808 218:-0.888992 219:-0.0245256 220:-0.0457071 221:-0.725818 222:-0.923914 223:-0.877906 224:-0.971315 225:-1 226:-0.806855 227:0.741739 228:-0.829774 229:-1 230:-1 231:-1 242:-1 243:-1 244:-1 245:-0.891304 246:-0.065218 247:-0.152174 248:-0.844246 249:-0.580173 250:-1 251:-1 252:-1 253:-1 254:-1 255:-1 256:-1 257:-0.933263 258:-0.882075 259:-0.779269 260:0.59259 261:-0.27571 262:-0.838042 263:-0.354548 264:-0.613924 265:-0.967392 266:-0.956522 267:-0.945583 268:-1 269:-1 270:-1 272:-1 273:-1 274:-0.641303 275:1 276:-0.483695 277:-0.935473 278:-0.956034 279:0.219947 280:-0.700543 281:-0.924406 282:-0.967392 283:-1 284:-1 285:-1 
-4.8961358433003257 -0 2.2336833814669106 6.7473588849015185 4.5025406827579717 1:0.978022 2:-0.978022 16:0.599344 17:0.424173 18:-0.452379 19:-0.758242 20:-0.318682 21:-0.505494 22:-0.982888 23:-1 24:-1 30:-1 31:-1 32:-0.441867 33:0.241413 34:0.609389 35:-0.642855 36:-0.695773 37:-0.725274 38:-0.23077 39:-0.860523 40:-0.913001 41:-1 45:-1 46:-1 47:-0.521977 48:-0.795817 49:-0.758242 50:-0.01099 51:-0.47821 52:-0.377291 53:-1 60:-1 61:-1 62:-0.780216 63:-0.78022 64:-0.32967 65:-0.00824125 66:-0.291751 67:-0.739494 68:-1 69:-1 70:-1 75:-1 76:-1 77:-1 78:-1 79:-0.373626 80:-0.648352 81:-0.540739 82:-0.489622 83:0.43407 84:-0.630107 85:-0.792487 86:-1 87:-1 88:-1 89:-1 90:-1 91:-1 92:-1 93:-1 94:-0.511179 95:-0.67033 96:-0.564473 97:-0.371485 98:-0.443224 99:-0.26022 100:-0.534952 101:-0.874323 102:-1 103:-1 104:-1 105:-1 106:0.213219 107:0.0109883 108:-0.241105 109:-0.56044 110:-0.076924 111:-0.903401 112:-0.892552 113:-0.76921 114:-0.469784 115:-1 116:-1 117:-1 118:-1 119:-1 120:-1 121:-1 122:-0.233734 123:0.162908 124:-0.665848 125:-0.86014 126:-0.889462 127:-0.88791 128:-0.893812 129:-0.953927 130:-0.82887 131:-1 132:-1 133:-1 135:-1 136:-1 137:-0.569231 138:-0.466472 139:0.0449912 140:-0.761554 141:-0.663495 142:-0.913604 143:-0.814427 144:-0.975631 145:-1 146:-1 147:-1 148:-1 150:-1 151:-1 152:-0.873981 153:-0.817181 154:0.238275 155:-0.333124 156:-0.76851 157:-0.746467 158:-0.812537 159:-0.911507 160:-0.961785 161:-1 162:-1 163:-1 164:-1 165:-1 166:-0.599358 167:0.506513 168:-0.745518 169:-0.864993 170:-1 171:-1 172:-1 184:1 185:-0.631905 186:-0.296704 187:-0.12088 188:-0.89011 189:-1 190:-1 191:-1 192:-1 193:-1 198:-1 199:-1 200:-1 201:-0.708682 202:-0.298701 203:-0.300627 204:-0.682103 205:-0.348153 206:-0.802198 207:-0.932355 208:-0.931914 209:-0.837605 210:-0.839377 212:-1 213:-1 214:-1 215:-1 216:-0.578921 217:-0.300909 218:-0.663316 219:-0.647788 220:-0.758806 221:-0.115612 222:-0.923076 223:-0.91771 224:-0.884005 225:-0.981356 226:-0.520709 227:0.405274 228:-0.680386 229:-0.843603 230:-1 231:-1 242:-1 243:-1 244:-1 245:-0.582416 246:-0.538462 247:0.131868 248:-0.790045 249:-0.717034 250:-1 251:-1 252:-1 253:-1 254:-1 255:-1 256:-1 257:-1 258:-1 259:-1 260:-1 261:-0.955621 262:-0.426922 263:-0.755296 264:-0.473917 265:0.10989 266:-0.934066 267:-1 268:-0.976408 269:-1 270:-1 272:-1 273:-1 274:-1 275:-1 276:-0.945055 277:-0.804285 278:-0.585135 279:-0.301875 280:-0.362638 281:-0.108392 282:-0.98901 283:-1 284:-1 285:-1 
-0 -3.3449383304895988 -0 1.7564667039992106 14.348277164434181 1:-0.62646 2:0.62646 16:-1 17:-1 18:-1 19:-0.992218 20:-0.77432 21:-0.190662 22:0.429818 23:-0.895557 24:-1 30:-1 31:-1 32:-1 33:-1 34:-1 35:-1 36:-0.989228 37:-0.603112 38:-0.66537 39:0.113438 40:-0.219627 41:-1 45:-1 46:-1 47:-1 48:-1 49:-0.782102 50:-0.416342 51:0.491751 52:0.234752 53:1 60:-1 61:-1 62:-0.968872 63:-0.875486 64:0.284046 65:-0.199093 66:-0.826385 67:-0.985809 68:-1 69:-1 70:-1 75:-1 76:-0.949543 77:-0.877798 78:-0.876193 79:-0.758754 80:-0.089494 81:-0.0525788 82:-0.654994 83:-0.964981 84:-1 85:-1 86:-1 87:-1 88:-1 89:-1 90:-1 91:-0.608945 92:-0.95253 93:-0.916142 94:-0.826915 95:-0.252918 96:-0.39171 97:0.0256556 98:-0.769994 99:-0.976187 100:-1 101:-1 102:-1 103:-1 104:-1 105:-1 106:-1 107:-1 108:-0.759083 109:-0.85214 110:0.03502 111:0.258694 112:-1 113:-1 114:-1 115:-1 116:-1 117:-1 118:-1 119:-1 120:-1 121:-1 122:-1 123:-0.88122 124:0.346378 125:-0.438746 126:-0.921722 127:-1 128:-1 129:-1 130:-1 131:-1 132:-1 133:-1 135:-1 136:-1 137:-0.969495 138:-0.864368 139:-0.605316 140:-0.0501564 141:0.191509 142:-0.709379 143:-1 144:-1 145:-1 146:-1 147:-1 148:-1 150:-1 151:-1 152:-1 153:-0.899306 154:-0.806396 155:-0.559755 156:1 157:-0.450805 158:-0.893798 159:-1 160:-1 161:-1 162:-1 163:-1 164:-1 165:-1 166:0.0132951 167:0.205743 168:-1 169:-1 170:-1 171:-1 172:-1 184:-1 185:-1 186:-0.587548 187:-0.11284 188:-0.338522 189:-0.862791 190:-1 191:-1 192:-1 193:-1 198:-1 199:-1 200:-1 201:-1 202:-0.980899 203:-1 204:-0.908281 205:-0.944288 206:-0.634242 207:1 208:-0.61428 209:-1 210:-1 212:-1 213:-1 214:-1 215:-1 216:-1 217:-0.956951 218:-0.930459 219:-1 220:-0.940218 221:-0.943914 222:-0.190662 223:0.689985 224:-0.691957 225:-1 226:-0.258306 227:0.39393 228:-1 229:-1 230:-1 231:-1 242:-1 243:-1 244:-1 245:-1 246:-0.766536 247:-0.042802 248:-0.0707252 249:-0.599228 250:-1 251:-1 252:-1 253:-1 254:-1 255:-1 256:-1 257:-1 258:-1 259:-1 260:-1 261:-1 262:-1 263:-0.980746 264:-0.939911 265:-0.929962 266:-0.494164 267:1 268:-0.632478 269:-1 270:-1 272:-1 273:-1 274:-1 275:-1 276:-1 277:-0.9846 278:-0.95803 279:-0.967041 280:-0.954864 281:-0.702334 282:-0.431906 283:0.689825 284:-0.772521 285:-1 
-5.9357771295961221 -2.2931181654798851 -5.78784061273267 3.7140023324966842 4.6704282648645457 1:0.145908 2:-0.145908 16:-1 17:-1 18:-1 19:-1 20:-0.345196 21:0.33096 22:-0.977837 23:-1 24:-1 30:-1 31:-1 32:-1 33:-1 34:-1 35:-1 36:-1 37:-1 38:0.395018 39:-0.301944 40:-1 41:-1 45:-1 46:-1 47:-1 48:-1 49:-0.523132 50:0.373666 51:-0.737146 52:-1 53:-1 60:-1 61:-1 62:-1 63:-0.80783 64:0.19573 65:-0.0984564 66:-0.894142 67:-1 68:-1 69:-1 70:-1 75:-1 76:-1 77:-1 78:-1 79:-0.91459 80:-0.508896 81:0.707143 82:-0.0383547 83:-0.871885 84:-1 85:-1 86:-1 87:-1 88:-1 89:-1 90:-1 91:-1 92:-1 93:-1 94:-1 95:-0.765124 96:-0.357471 97:1 98:-0.218665 99:-0.978219 100:-1 101:-1 102:-1 103:-1 104:-1 105:-1 106:-1 107:-1 108:-1 109:0.209964 110:-0.209964 111:-1 112:-1 113:-1 114:-1 115:-1 116:-1 117:-1 118:-1 119:-1 120:-1 121:-1 122:-1 123:-0.942061 124:0.529902 125:-0.554622 126:-0.928408 127:-1 128:-1 129:-1 130:-1 131:-1 132:-1 133:-1 135:-1 136:-1 137:-1 138:-1 139:-0.992479 140:-0.324332 141:1 142:-0.454412 143:-0.73558 144:-0.936871 145:-1 146:-1 147:-1 148:-1 150:-1 151:-1 152:-1 153:-1 154:-1 155:-0.897509 156:0.754215 157:0.081852 158:-0.29579 159:-0.885373 160:-0.925753 161:-1 162:-1 163:-1 164:-1 165:-1 166:-0.431594 167:0.554463 168:-1 169:-1 170:-1 171:-1 172:-1 184:-1 185:-0.986754 186:-0.25267 187:0.217082 188:-0.97153 189:-1 190:-1 191:-1 192:-1 193:-1 198:-0.965201 199:-0.186411 200:1 201:0.962261 202:-0.772891 203:-0.766651 204:-0.908489 205:-0.716111 206:-1 207:-0.780937 208:-0.867711 209:-1 210:-1 212:-1 213:-1 214:-0.943061 215:0.794868 216:1 217:-0.0944188 218:-0.863708 219:-0.623596 220:-0.945324 221:-0.820464 222:-0.978648 223:-0.986674 224:-1 225:-1 226:-0.51711 227:0.60541 228:-1 229:-1 230:-1 231:-1 242:-1 243:-1 244:-1 245:-0.971532 246:-0.323844 247:0.266904 248:-0.957504 249:-0.908356 250:-1 251:-1 252:-1 253:-1 254:-1 255:-1 256:-1 257:-0.803363 258:-0.69112 259:-0.951817 260:0.133516 261:-0.798796 262:-0.522778 263:-0.32201 264:-0.593314 265:-0.658362 266:-0.879004 267:-1 268:-1 269:-1 270:-1 272:-1 273:-0.906828 274:-0.624196 275:-0.679276 276:-0.519572 277:0.211268 278:-0.52977 279:-0.231315 280:-0.958718 281:-0.983501 282:-0.992882 283:-1 284:-1 285:-1 
-15.830181031110408 -32 -18.382256845766666 29.890019937184825 32 1:1 2:-1 16:-1 17:-1 18:-0.8375 19:-0.15 20:0.016666 21:-0.941666 22:-1 23:-1 24:-1 30:-1 31:-1 32:-1 33:-1 34:-1 35:-0.8125 36:-0.988464 37:0.45 38:-0.533334 39:-1 40:-1 41:-1 45:-1 46:-1 47:-1 48:-0.187096 49:-0.075 50:-0.45 51:-1 52:-1 53:-1 60:-1 61:-0.822449 62:-0.533336 63:-0.191666 64:-0.116666 65:-0.815279 66:-1 67:-1 68:-1 69:-1 70:-1 75:-1 76:-1 77:-0.790627 78:-0.630682 79:-0.783334 80:-0.058334 81:-0.242888 82:-0.929628 83:-1 84:-1 85:-1 86:-1 87:-1 88:-1 89:-1 90:-1 91:-1 92:-1 93:-0.551004 94:-0.604599 95:-0.575 96:-0.100918 97:-0.295426 98:-1 99:-1 100:-1 101:-1 102:-1 103:-1 104:-1 105:-1 106:-1 107:-1 108:-0.821398 109:-0.208334 110:0.025 111:-0.809542 112:-1 113:-1 114:-1 115:-1 116:-1 117:-1 118:-1 119:-1 120:-1 121:-1 122:-0.806309 123:-0.533625 124:-0.213592 125:-0.257576 126:-0.944118 127:-1 128:-1 129:-1 130:-1 131:-1 132:-1 133:-1 135:-1 136:-0.131958 137:-0.640669 138:-0.792518 139:-0.621383 140:-0.242808 141:-0.5797 142:-0.0663794 143:-0.746698 144:-1 145:-1 146:-1 147:-1 148:-1 150:-1 151:-1 152:-0.331101 153:-0.614898 154:-0.731706 155:-0.657142 156:-0.0169409 157:-0.581547 158:0.478436 159:-0.97763 160:-1 161:-1 162:-1 163:-1 164:-1 165:-1 166:-0.450233 167:0.569073 168:-1 169:-1 170:-1 171:-1 172:-1 184:-0.545 185:-0.674338 186:-0.808334 187:-0.241666 188:-0.15 189:-1 190:-1 191:-1 192:-1 193:-1 198:-1 199:-1 200:-1 201:-0.867453 202:-0.938636 203:-0.807143 204:-0.526786 205:-0.582386 206:-0.208334 207:-0.769162 208:-0.879528 209:-1 210:-1 212:-1 213:-1 214:-1 215:-1 216:-0.946782 217:-0.976948 218:-0.904255 219:-0.519231 220:-0.405556 221:-0.159171 222:-0.766666 223:-0.78159 224:-0.978007 225:-1 226:-0.380769 227:0.493999 228:-1 229:-1 230:-1 231:-1 242:-1 243:-1 244:-0.7 245:-0.816668 246:-0.758334 247:-0.291666 248:0.0548053 249:-1 250:-1 251:-1 252:-1 253:-1 254:-1 255:-1 256:-1 257:-1 258:-1 259:-1 260:-1 261:-1 262:-1 263:-0.865979 264:-0.292193 265:-0.483334 266:-0.191666 267:-0.819209 268:-1 269:-1 270:-1 272:-1 273:-1 274:-1 275:-1 276:-1 277:-1 278:-0.910113 279:-0.205882 280:-0.323334 281:-0.140342 282:-0.666666 283:-0.971727 284:-1 285:-1 
-1.4825858838824222 -13.545288394415563 -9.0122901462759319 24.264707806668323 31.183160094289619 1:0.883008 2:-0.883008 16:-1 17:-1 18:-1 19:-0.827298 20:0.041782 21:-0.303622 22:-0.861211 23:-1 24:-1 30:-1 31:-1 32:-1 33:-1 34:-1 35:-1 36:-0.992287 37:-0.24791 38:-0.052924 39:-0.659311 40:-1 41:-1 45:-1 46:-1 47:-1 48:-0.706711 49:0.4039 50:-0.593314 51:-1 52:-1 53:-1 60:-1 61:-1 62:-0.844008 63:-0.231198 64:-0.03064 65:-0.691272 66:-0.930948 67:-1 68:-1 69:-1 70:-1 75:-1 76:-1 77:-0.895021 78:-0.905039 79:-0.45961 80:-0.013928 81:-0.463484 82:-0.905912 83:-0.924787 84:-1 85:-1 86:-1 87:-1 88:-1 89:-1 90:-1 91:-1 92:-0.762112 93:-0.831909 94:-0.743925 95:-0.03064 96:-0.429608 97:-0.54283 98:-0.952956 99:-0.948855 100:-1 101:-1 102:-1 103:-1 104:-1 105:-1 106:-1 107:-1 108:-0.628537 109:0.108636 110:-0.320334 111:-0.902058 112:-1 113:-1 114:-1 115:-1 116:-1 117:-1 118:-1 119:-1 120:-1 121:-1 122:-0.22307 123:-0.648536 124:0.273439 125:-0.740018 126:-0.968867 127:-1 128:-1 129:-1 130:-1 131:-1 132:-1 133:-1 135:-1 136:-1 137:-0.86897 138:-0.493718 139:-0.811637 140:-0.471134 141:0.133954 142:-0.364902 143:-0.86829 144:-1 145:-1 146:-1 147:-1 148:-1 150:-1 151:-1 152:-0.552821 153:-0.639572 154:-0.649433 155:-0.782251 156:0.243986 157:-0.251492 158:-0.410781 159:-1 160:-1 161:-1 162:-1 163:-1 164:-1 165:-1 166:-0.55509 167:0.590615 168:-0.89679 169:-1 170:-1 171:-1 172:-1 184:-1 185:-0.751187 186:0.29248 187:-0.665738 188:-0.760446 189:-1 190:-1 191:-1 192:-1 193:-1 198:-1 199:-0.984835 200:-0.938202 201:-0.852311 202:-0.972651 203:-0.935536 204:-0.838838 205:-0.5157 206:-0.437326 207:-0.108366 208:-0.723872 209:-0.988237 210:-1 212:-1 213:-1 214:-1 215:-0.978045 216:-0.911051 217:-0.95377 218:-0.950215 219:-0.928577 220:-0.755445 221:-0.243824 222:-0.29248 223:-0.603678 224:-0.76478 225:-0.990548 226:-0.424041 227:0.507297 228:-0.962606 229:-1 230:-1 231:-1 242:-1 243:-1 244:-1 245:-0.743732 246:0.359332 247:-0.637884 248:-0.820383 249:-1 250:-1 251:-1 252:-1 253:-1 254:-1 255:-1 256:-1 257:-1 258:-1 259:-0.773731 260:-0.396676 261:-0.808763 262:-0.294431 263:-0.696751 264:0.0754192 265:-0.83844 266:-0.827298 267:-0.795465 268:-1 269:-1 270:-1 272:-1 273:-0.987843 274:-0.944844 275:-0.832642 276:-0.839832 277:-0.272392 278:-0.188757 279:-0.374735 280:-0.733426 281:-0.870854 282:-0.849582 283:-0.839335 284:-1 285:-1 
-7.534288246744798 -19.019925695629407 -5.0236493175176866 15.35704614367005 32 1:-0.098902 2:0.098902 16:-1 17:-1 18:-1 19:-1 20:-0.626374 21:0.326008 22:-0.532316 23:-1 24:-1 30:-1 31:-1 32:-1 33:-1 34:-1 35:-1 36:-1 37:-0.912088 38:0.611722 39:-0.653424 40:-1 41:-1 45:-1 46:-1 47:-1 48:-1 49:-0.948718 50:0.912088 51:-0.935582 52:-1 53:-1 60:-1 61:-1 62:-0.970696 63:0.30403 64:-0.37729 65:-0.895605 66:-1 67:-1 68:-1 69:-1 70:-1 75:-1 76:-1 77:-1 78:-0.841825 79:0.626374 80:-0.765568 81:-1 82:-1 83:-1 84:-1 85:-1 86:-1 87:-1 88:-1 89:-1 90:-1 91:-1 92:-1 93:-1 94:0.792346 95:-0.333334 96:-0.862889 97:-1 98:-1 99:-1 100:-1 101:-1 102:-1 103:-1 104:-1 105:-1 106:-1 107:-1 108:-1 109:-0.765568 110:0.736264 111:-0.948482 112:-1 113:-1 114:-1 115:-1 116:-1 117:-1 118:-1 119:-1 120:-1 121:-1 122:-1 123:-0.485638 124:0.49792 125:-0.93007 126:-1 127:-1 128:-1 129:-1 130:-1 131:-1 132:-1 133:-1 135:-1 136:-1 137:-1 138:-0.954399 139:0.671988 140:-0.483367 141:-1 142:-1 143:-1 144:-1 145:-1 146:-1 147:-1 148:-1 150:-1 151:-1 152:-1 153:-1 154:-0.260252 155:0.461853 156:-0.845674 157:-1 158:-1 159:-1 160:-1 161:-1 162:-1 163:-1 164:-1 165:-1 166:0.666156 167:-0.305993 168:-1 169:-1 170:-1 171:-1 172:-1 184:-1 185:-0.577373 186:-0.172162 187:-0.054946 188:-1 189:-1 190:-1 191:-1 192:-1 193:-1 198:-1 199:-1 200:-1 201:-1 202:-0.982018 203:-0.23705 204:-0.748823 205:-0.0109902 206:-0.604396 207:-1 208:-1 209:-1 210:-1 212:-1 213:-1 214:-1 215:-1 216:-1 217:-1 218:-0.84101 219:-0.40124 220:-0.0593416 221:-0.366409 222:-0.882784 223:-1 224:-1 225:-1 226:1 227:-0.634286 228:-1 229:-1 230:-1 231:-1 242:-1 243:-1 244:-1 245:-0.150184 246:-0.216118 247:-0.208792 248:-1 249:-1 250:-1 251:-1 252:-1 253:-1 254:-1 255:-1 256:-1 257:-1 258:-1 259:-1 260:-1 261:-1 262:-0.981807 263:-0.728107 264:-0.253304 265:-0.062272 266:-0.692308 267:-0.926645 268:-1 269:-1 270:-1 272:-1 273:-1 274:-1 275:-1 276:-1 277:-1 278:-0.851834 279:-0.100194 280:-0.0545795 281:-0.176324 282:-0.897436 283:-1 284:-1 285:-1 
-1.2562565834481039 -1.028487642881259 -10.465404301346608 0.10414670084744751 0.80003434072931479 1:1 2:-1 16:-1 17:-1 18:-0.922893 19:0.508896 20:-0.544484 21:-1 22:-1 23:-1 24:-1 30:-1 31:-1 32:-1 33:-1 34:-1 35:-1 36:1 37:-0.44484 38:-1 39:-1 40:-1 41:-1 45:-1 46:-1 47:-1 48:0.531857 49:0.010676 50:-1 51:-1 52:-1 53:-1 60:-1 61:-1 62:0.024912 63:0.537366 64:-0.793594 65:-1 66:-1 67:-1 68:-1 69:-1 70:-1 75:-1 76:-1 77:-1 78:-0.967648 79:0.188612 80:-0.266904 81:-0.90947 82:-1 83:-1 84:-1 85:-1 86:-1 87:-1 88:-1 89:-1 90:-1 91:-1 92:-1 93:-1 94:-0.240152 95:0.217082 96:-0.749257 97:-0.893807 98:-1 99:-1 100:-1 101:-1 102:-1 103:-1 104:-1 105:-1 106:-1 107:-1 108:1 109:0.153024 110:-0.992882 111:-1 112:-1 113:-1 114:-1 115:-1 116:-1 117:-1 118:-1 119:-1 120:-1 121:-1 122:-0.0735789 123:0.412249 124:-0.597001 125:-0.969805 126:-1 127:-1 128:-1 129:-1 130:-1 131:-1 132:-1 133:-1 135:-1 136:-1 137:-1 138:-0.875953 139:0.285973 140:-0.131282 141:-0.923078 142:-1 143:-1 144:-1 145:-1 146:-1 147:-1 148:-1 150:-1 151:-1 152:-1 153:-0.986842 154:-0.291727 155:0.317742 156:-0.550199 157:-0.980682 158:-1 159:-1 160:-1 161:-1 162:-1 163:-1 164:-1 165:-1 166:-0.33274 167:0.476978 168:-1 169:-1 170:-1 171:-1 172:-1 184:0.036309 185:1 186:-0.217082 187:-0.91459 188:-1 189:-1 190:-1 191:-1 192:-1 193:-1 198:0.0786868 199:-0.786916 200:-0.0263141 201:1 202:-0.720476 203:-0.57448 204:-0.344178 205:-0.912649 206:-0.97153 207:-1 208:-1 209:-1 210:-1 212:-1 213:-0.304078 214:-0.107947 215:0.738782 216:-0.772728 217:-0.0156719 218:-0.600211 219:-0.863125 220:-0.734429 221:-0.931605 222:-0.97153 223:-1 224:-1 225:-1 226:-0.298659 227:0.426904 228:-1 229:-1 230:-1 231:-1 242:-1 243:-1 244:-1 245:-0.487544 246:0.69395 247:-0.950178 248:-1 249:-1 250:-1 251:-1 252:-1 253:-1 254:-1 255:-1 256:-1 257:-1 258:-0.665385 259:-1 260:-0.410576 261:-0.791609 262:-0.717198 263:-0.137103 264:0.066175 265:-0.893238 266:-1 267:-1 268:-1 269:-1 270:-1 272:-1 273:-0.798125 274:-1 275:-1 276:-0.83096 277:1 278:-0.606543 279:-0.66841 280:-0.65943 281:-0.909252 282:-1 283:-1 284:-1 285:-1 
-10.465026706347469 -29.304246018894119 -5.4063011200233086 11.683159634296349 32 1:-0.974138 2:0.974138 16:-1 17:-1 18:-1 19:-1 20:-0.896552 21:-0.560344 22:1 23:-0.537205 24:-1 30:-1 31:-1 32:-1 33:-1 34:-1 35:-1 36:-1 37:-0.939656 38:-0.646552 39:0.571616 40:-0.408524 41:-1 45:-1 46:-1 47:-1 48:-1 49:-0.905172 50:0.267242 51:0.106718 52:-0.951153 53:-1 60:-1 61:-1 62:-1 63:-0.577586 64:0.25862 65:-0.494971 66:-1 67:-1 68:-1 69:-1 70:-1 75:-1 76:-1 77:-1 78:-0.745298 79:-0.465518 80:-0.25862 81:-0.373423 82:-0.672415 83:-1 84:-1 85:-1 86:-1 87:-1 88:-1 89:-1 90:-1 91:-1 92:-1 93:-0.869948 94:-0.501488 95:-0.206896 96:-0.496995 97:-0.314006 98:-0.836207 99:-1 100:-1 101:-1 102:-1 103:-1 104:-1 105:-1 106:-1 107:-1 108:-1 109:-0.896552 110:-0.043104 111:0.227615 112:0.180083 113:-1 114:-1 115:-1 116:-1 117:-1 118:-1 119:-1 120:-1 121:-1 122:-0.479035 123:-0.122808 124:-0.0147299 125:-0.908569 126:-1 127:-1 128:-1 129:-1 130:-1 131:-1 132:-1 133:-1 135:-1 136:-1 137:-0.864831 138:-0.753167 139:-0.216655 140:-0.263462 141:-0.347813 142:-0.762782 143:-1 144:-1 145:-1 146:-1 147:-1 148:-1 150:-1 151:-1 152:-0.802291 153:-0.649424 154:-0.457527 155:-0.565517 156:0.25304 157:-0.613917 158:-0.588233 159:-1 160:-1 161:-1 162:-1 163:-1 164:-1 165:-1 166:-0.655771 167:0.554213 168:-0.700545 169:-1 170:-1 171:-1 172:-1 184:-1 185:-1 186:-0.284482 187:-0.094828 188:-0.62069 189:-1 190:-1 191:-1 192:-1 193:-1 198:-1 199:-1 200:-1 201:-1 202:-1 203:-1 204:-0.879927 205:0.0139111 206:-0.12069 207:-0.973466 208:-1 209:-1 210:-1 212:-1 213:-1 214:-1 215:-1 216:-1 217:-1 218:-1 219:-0.917109 220:-0.0539357 221:0.00443717 222:-0.75 223:-1 224:-1 225:-1 226:-0.860744 227:0.726897 228:-0.729982 229:-1 230:-1 231:-1 242:-1 243:-1 244:-1 245:-1 246:-0.051724 247:-0.12069 248:-0.794117 249:-1 250:-1 251:-1 252:-1 253:-1 254:-1 255:-1 256:-1 257:-1 258:-1 259:-1 260:-1 261:-1 262:-1 263:-0.946675 264:-0.427542 265:-0.112068 266:-0.310344 267:-0.985615 268:-1 269:-1 270:-1 272:-1 273:-1 274:-1 275:-1 276:-1 277:-1 278:-1 279:-0.762679 280:-0.362499 281:0.388911 282:-0.75 283:-1 284:-1 285:-1 
-0 -0.037058927633816172 -2.9919932306101851 0 0 1:0.030304 2:-0.030304 16:-1 17:-1 18:-1 19:-0.878788 20:0.128788 21:-0.5 22:-0.610738 23:-1 24:-1 30:-1 31:-1 32:-1 33:-1 34:-1 35:-1 36:-0.884646 37:-0.121212 38:-0.469696 39:-0.414336 40:-1 41:-1 45:-1 46:-1 47:-1 48:-0.577711 49:0.022728 50:-0.295454 51:-1 52:-1 53:-1 60:-1 61:-1 62:-0.333336 63:0.325758 64:-0.492424 65:-1 66:-1 67:-1 68:-1 69:-1 70:-1 75:-1 76:-1 77:-0.833453 78:-0.621211 79:-0.257576 80:-0.25 81:-0.848576 82:-0.920035 83:-1 84:-1 85:-1 86:-1 87:-1 88:-1 89:-1 90:-1 91:-1 92:-1 93:-0.526517 94:-0.17999 95:-0.189394 96:-0.599667 97:-0.924642 98:-0.952019 99:-1 100:-1 101:-1 102:-1 103:-1 104:-1 105:-1 106:-1 107:-1 108:-0.38662 109:0.075758 110:-0.90909 111:0.0122203 112:-1 113:-1 114:-1 115:-1 116:-1 117:-1 118:-1 119:-1 120:-1 121:-1 122:-0.647827 123:0.641945 124:-0.674316 125:-1 126:-1 127:-1 128:-1 129:-1 130:-1 131:-1 132:-1 133:-1 135:-1 136:-1 137:-1 138:-0.698207 139:-0.359635 140:0.130137 141:-0.50874 142:-0.910659 143:-1 144:-1 145:-1 146:-1 147:-1 148:-1 150:-1 151:-1 152:-1 153:-0.943984 154:-0.434589 155:-0.150649 156:0.212868 157:-0.804653 158:-0.870769 159:-1 160:-1 161:-1 162:-1 163:-1 164:-1 165:-1 166:-0.0135729 167:-1 168:1 169:-0.767321 170:-1 171:-1 172:-1 184:-0.862117 185:-0.957705 186:0.84091 187:-0.871212 188:-1 189:-1 190:-1 191:-1 192:-1 193:-1 198:1 199:1 200:-0.383775 201:0.285305 202:-1 203:-1 204:-0.715908 205:-0.81405 206:-1 207:-1 208:-1 209:-1 210:-1 212:-1 213:1 214:1 215:1 216:-0.709708 217:-0.91618 218:-0.59381 219:-0.842173 220:-1 221:-1 222:-1 223:-1 224:-1 225:-1 226:-0.0576918 227:-1 228:1 229:-0.460965 230:-1 231:-1 242:-1 243:1 244:1 245:1 246:-0.863636 247:-1 248:-1 249:-1 250:-1 251:-1 252:-1 253:-1 254:-1 255:-1 256:1 257:1 258:1 259:1 260:-0.372621 261:-0.831731 262:-0.887123 263:-1 264:-1 265:-1 266:-1 267:-1 268:-1 269:-1 270:-1 272:1 273:1 274:1 275:-0.4026 276:-0.867425 277:-0.89506 278:-0.989785 279:-1 280:-1 281:-1 282:-1 283:-1 284:-1 285:-1 
-0 -0 -12.521286181892934 0 15.59576287770726 1:0.102564 2:-0.102564 16:-1 17:-0.953848 18:-0.875001 19:-0.897436 20:-0.576924 21:-0.378206 22:-0.34125 23:-0.0192324 24:-1 30:-1 31:-1 32:-1 33:-1 34:-0.947846 35:-0.91987 36:-0.893519 37:-0.532052 38:-0.326924 39:-0.667159 40:0.184118 41:-0.918272 45:-1 46:0.102511 47:-0.721153 48:-0.722083 49:-0.884616 50:-0.057692 51:-0.188329 52:-0.164531 53:-1 60:-1 61:-1 62:-0.871792 63:-0.24359 64:-0.371794 65:-0.533119 66:-0.555072 67:-0.848038 68:-0.960204 69:-1 70:-1 75:-1 76:-0.958438 77:-0.758411 78:-0.249709 79:-0.173076 80:-0.653846 81:-0.848576 82:-1 83:-1 84:-1 85:-1 86:-1 87:-1 88:-1 89:-1 90:-1 91:-0.677889 92:-0.804482 93:-0.0743793 94:0.064543 95:-0.320512 96:-0.851799 97:-1 98:-1 99:-1 100:-1 101:-1 102:-1 103:-1 104:-1 105:-1 106:-1 107:-0.926285 108:-0.374132 109:-0.621794 110:-0.185898 111:-0.0758869 112:-0.968662 113:-1 114:-1 115:-1 116:-1 117:-1 118:-1 119:-1 120:-1 121:-1 122:-0.225227 123:-0.439047 124:-0.401793 125:-0.524087 126:-0.756411 127:-0.960771 128:-0.958703 129:-1 130:-1 131:-1 132:-1 133:-1 135:-1 136:-0.33225 137:0.256407 138:-0.361592 139:-0.336235 140:-0.487091 141:-0.872988 142:-0.886605 143:-1 144:-1 145:-1 146:-1 147:-1 148:-1 150:-1 151:-0.799687 152:0.91111 153:-0.0402119 154:-0.296434 155:-0.36044 156:-0.689417 157:-0.939102 158:-0.956261 159:-1 160:-1 161:-1 162:-1 163:-1 164:-1 165:-1 166:0.224181 167:-0.256145 168:-0.539811 169:-0.881873 170:-1 171:-1 172:-1 184:-1 185:-0.85685 186:-0.416666 187:0.01282 188:-0.673076 189:-1 190:-1 191:-1 192:-1 193:-1 198:-1 199:-1 200:-1 201:-0.966015 202:-0.921327 203:-0.888737 204:-0.896978 205:-0.285402 206:-0.051282 207:-0.753378 208:-1 209:-1 210:-1 212:-1 213:-1 214:-1 215:-1 216:-0.959063 217:-0.769501 218:-0.959083 219:-0.938362 220:-0.73971 221:-0.0683113 222:-0.346154 223:-0.687985 224:-1 225:-1 226:-0.0473372 227:0.0100003 228:-0.741853 229:-0.361434 230:-1 231:-1 242:-1 243:-1 244:-1 245:-0.794872 246:-0.544872 247:0.205128 248:-0.762707 249:-0.504802 250:-1 251:-1 252:-1 253:-1 254:-1 255:-1 256:-1 257:-1 258:-1 259:-1 260:-1 261:-0.987057 262:-0.649786 263:-0.896906 264:-0.811913 265:-0.429488 266:-0.01923 267:-0.850232 268:-1 269:-1 270:-1 272:-1 273:-1 274:-1 275:-1 276:-1 277:-0.936573 278:-0.783925 279:-0.687782 280:-0.711859 281:-0.0563817 282:-0.365384 283:-0.978252 284:-1 285:-1 
-2.9883125324460078 -3.5697778378947738 -4.8735017676085475 0 3.6238979013298351 1:-0.328672 2:0.328672 16:-1 17:-1 18:-1 19:-0.958042 20:-0.34965 21:0.16084 22:-0.771341 23:-1 24:-1 30:-1 31:-1 32:-1 33:-1 34:-1 35:-1 36:-1 37:-0.566434 38:0.111888 39:-0.475524 40:-1 41:-1 45:-1 46:-1 47:-1 48:-0.566885 49:0.013986 50:-0.328672 51:-0.938508 52:-1 53:-1 60:-1 61:-1 62:-0.91608 63:0.055944 64:-0.216784 65:-0.778555 66:-1 67:-1 68:-1 69:-1 70:-1 75:-1 76:-1 77:-0.538787 78:-0.427845 79:-0.027972 80:-0.678322 81:-0.936464 82:-0.955709 83:-1 84:-1 85:-1 86:-1 87:-1 88:-1 89:-1 90:-1 91:-1 92:-0.914685 93:-0.547866 94:0.296117 95:-0.314686 96:-0.830628 97:-0.895662 98:-0.970474 99:-0.978598 100:-1 101:-1 102:-1 103:-1 104:-1 105:-1 106:-1 107:-1 108:-0.583677 109:-0.13986 110:-0.16084 111:-0.778705 112:-1 113:-1 114:-1 115:-1 116:-1 117:-1 118:-1 119:-1 120:-1 121:-0.72028 122:0.365338 123:-0.452092 124:-0.274085 125:-0.532739 126:-0.992183 127:-1 128:-1 129:-1 130:-1 131:-1 132:-1 133:-1 135:-1 136:-1 137:-1 138:-0.8433 139:0.0196581 140:-0.22234 141:-0.420567 142:-0.97251 143:-1 144:-1 145:-1 146:-1 147:-1 148:-1 150:-1 151:-1 152:-1 153:-1 154:-0.0892025 155:-0.28072 156:0.237418 157:-0.876622 158:-1 159:-1 160:-1 161:-1 162:-1 163:-1 164:-1 165:-1 166:-0.477951 167:0.429025 168:-0.724694 169:-1 170:-1 171:-1 172:-1 184:-1 185:-0.453435 186:0.013986 187:-0.34965 188:-0.958042 189:-1 190:-1 191:-1 192:-1 193:-1 198:-1 199:-1 200:-0.948289 201:-0.740462 202:-0.691036 203:-0.946054 204:-0.955045 205:0.0441839 206:-0.405594 207:-0.838573 208:-0.956672 209:-1 210:-1 212:-1 213:-1 214:-1 215:-1 216:-0.86602 217:-0.574468 218:-0.919654 219:-1 220:-0.355353 221:0.0499861 222:-0.76923 223:-0.908357 224:-1 225:-1 226:-0.55944 227:0.252307 228:-0.342895 229:-1 230:-1 231:-1 242:-1 243:-1 244:-1 245:-0.748252 246:0.55944 247:-0.685314 248:-1 249:-1 250:-1 251:-1 252:-1 253:-1 254:-1 255:-1 256:-1 257:-1 258:-1 259:0.798818 260:-0.0644872 261:-0.851734 262:-0.583218 263:-0.671257 264:0.263522 265:-0.881118 266:-0.958042 267:-0.953319 268:-1 269:-1 270:-1 272:-1 273:-1 274:-0.423074 275:0.418011 276:-0.816433 277:-0.626365 278:-0.54742 279:-0.229947 280:-0.513287 281:-0.967578 282:-0.965034 283:-0.976274 284:-1 285:-1 
-0 -0 -0 0 1.4097657604318818 1:-0.664 2:0.664 16:-0.576613 17:-0.8848 18:-0.896 19:-0.968 20:-0.792 21:-0.392 22:0.295464 23:-0.527579 24:-1 30:1 31:-1 32:-0.837474 33:-0.893677 34:-1 35:-0.88 36:-0.955704 37:-0.936 38:-0.664 39:0.163076 40:0.140001 41:-1 45:1 46:-1 47:-1 48:-0.900903 49:-0.808 50:-0.168 51:0.519449 52:-1 53:-1 60:1 61:-1 62:-0.936 63:-0.056 64:-0.232 65:-0.645333 66:-1 67:-1 68:-1 69:-1 70:-1 75:1 76:-0.896258 77:-0.6985 78:-0.0545455 79:-0.232 80:-0.76 81:-1 82:-1 83:-1 84:-1 85:-1 86:-1 87:-1 88:-1 89:-1 90:1 91:-1 92:-0.121598 93:-0.172414 94:0.49462 95:-0.68 96:-0.894312 97:-1 98:-1 99:-1 100:-1 101:-1 102:-1 103:-1 104:-1 105:1 106:-1 107:-0.724 108:-0.809492 109:-0.712 110:0.088 111:-0.212387 112:-1 113:-1 114:-1 115:-1 116:-1 117:-1 118:-1 119:-1 120:-0.512423 121:-0.68 122:-0.851243 123:-0.983719 124:0.375689 125:-0.42303 126:-0.982118 127:-1 128:-1 129:-1 130:-1 131:-1 132:-1 133:-1 135:1 136:1 137:-1 138:-0.701225 139:-0.0194721 140:-0.457534 141:-0.538872 142:-1 143:-0.891924 144:-1 145:-1 146:-1 147:-1 148:-1 150:1 151:1 152:-0.633065 153:-0.940849 154:-0.391219 155:-0.127771 156:-0.258492 157:-0.761143 158:-0.945412 159:-0.957053 160:-1 161:-1 162:-1 163:-1 164:-1 165:1 166:1 167:-0.872496 168:-0.481263 169:-1 170:-1 171:-1 172:-1 184:-1 185:-0.791576 186:-0.28 187:-0.216 188:-0.616 189:-1 190:-1 191:-1 192:-1 193:-1 198:-1 199:-1 200:-1 201:-1 202:-0.960727 203:-0.969143 204:-0.691428 205:0.145454 206:-0.456 207:-0.975377 208:-1 209:-1 210:-1 212:-1 213:-1 214:-1 215:-1 216:-1 217:-1 218:-1 219:-0.897436 220:-0.174728 221:0.26845 222:-0.872 223:-1 224:-1 225:-1 226:0.318153 227:-0.3728 228:-0.498848 229:-1 230:-1 231:-1 242:-1 243:-1 244:-1 245:-0.904 246:-0.36 247:-0.216 248:-0.407717 249:-0.588001 250:-1 251:-1 252:-1 253:-1 254:-1 255:-1 256:-1 257:-1 258:-1 259:-1 260:-1 261:-0.983846 262:-1 263:-0.980206 264:-0.752911 265:0.008 266:-0.264 267:-0.893195 268:-1 269:-1 270:-1 272:-1 273:-1 274:-1 275:-1 276:-1 277:-1 278:-0.935281 279:-0.661176 280:-0.1648 281:-0.0727272 282:-0.584 283:-1 284:-1 285:-1 
-3.0804834674001151 -5.7951915748930558 -0.43999749239003566 0.76225936443658604 8.5046157393846382 1:-0.213114 2:0.213114 16:-1 17:-1 18:-1 19:-1 20:-1 21:0.37705 22:-0.030037 23:-1 24:-1 30:-1 31:-1 32:-1 33:-1 34:-1 35:-1 36:-1 37:-1 38:0.409836 39:-0.319042 40:-1 41:-1 45:-1 46:-1 47:-1 48:-1 49:-0.90164 50:0.803278 51:-0.827022 52:-1 53:-1 60:-1 61:-1 62:-1 63:-1 64:0.967214 65:-0.948089 66:-1 67:-1 68:-1 69:-1 70:-1 75:-1 76:-1 77:0.235654 78:-0.441132 79:-0.04918 80:-0.836066 81:-1 82:-1 83:-1 84:-1 85:-1 86:-1 87:-1 88:-1 89:-1 90:-1 91:-1 92:1 93:-0.0107414 94:-0.659695 95:-0.14754 96:-0.855617 97:-1 98:-1 99:-1 100:-1 101:-1 102:-1 103:-1 104:-1 105:-1 106:-1 107:-1 108:-1 109:-0.278688 110:0.180328 111:-0.827077 112:-1 113:-1 114:-1 115:-1 116:-1 117:-1 118:-1 119:-1 120:-1 121:-1 122:-1 123:-0.266034 124:0.34076 125:-1 126:-1 127:-1 128:-1 129:-1 130:-1 131:-1 132:-1 133:-1 135:-1 136:-1 137:0.542293 138:1 139:-1 140:-1 141:-1 142:-1 143:-1 144:-1 145:-1 146:-1 147:-1 148:-1 150:-1 151:-1 152:-1 153:1 154:0.343462 155:-1 156:-1 157:-1 158:-1 159:-1 160:-1 161:-1 162:-1 163:-1 164:-1 165:-1 166:-0.0323299 167:0.241506 168:-1 169:-1 170:-1 171:-1 172:-1 184:-1 185:-1 186:1 187:-1 188:-1 189:-1 190:-1 191:-1 192:-1 193:-1 198:-1 199:-1 200:-1 201:-1 202:-0.919525 203:-0.810306 204:-0.929742 205:0.743666 206:-0.90164 207:-1 208:-1 209:-1 210:-1 212:-1 213:-1 214:-1 215:-1 216:-1 217:-0.818625 218:-0.832577 219:-0.947458 220:-0.78411 221:0.811621 222:-0.934426 223:-1 224:-1 225:-1 226:-0.470367 227:0.567214 228:-1 229:-1 230:-1 231:-1 242:-1 243:-1 244:-1 245:-0.868852 246:-0.37705 247:0.311476 248:-1 249:-1 250:-1 251:-1 252:-1 253:-1 254:-1 255:-1 256:-1 257:-1 258:-0.407142 259:-0.556114 260:-0.373411 261:-0.867591 262:-0.430056 263:-0.918877 264:-0.64557 265:0.016394 266:-1 267:-1 268:-1 269:-1 270:-1 272:-1 273:-0.928467 274:-0.675412 275:-0.38441 276:-0.836065 277:-0.610712 278:0.458833 279:-0.444549 280:-0.95246 281:-1 282:-1 283:-1 284:-1 285:-1 
-1.6421735077409312 -8.9857268294202211 -2.3200762240529023 -11.840738802354515 22.003290982860122 1:0.469388 2:-0.469388 16:-1 17:-1 18:-1 19:-1 20:-0.020408 21:0.020408 22:-1 23:-1 24:-1 30:-1 31:-1 32:-1 33:-1 34:-1 35:-1 36:-1 37:-1 38:0.081632 39:0.059655 40:-1 41:-1 45:-1 46:-1 47:-1 48:-1 49:-0.918368 50:0.918368 51:-1 52:-1 53:-1 60:-1 61:-1 62:-1 63:-0.938776 64:0.795918 65:-0.773808 66:-1 67:-1 68:-1 69:-1 70:-1 75:-1 76:-1 77:-1 78:-0.976809 79:-0.755102 80:0.734694 81:-1 82:-1 83:-1 84:-1 85:-1 86:-1 87:-1 88:-1 89:-1 90:-1 91:-1 92:-1 93:-1 94:-0.93948 95:0.122448 96:-0.0788246 97:-1 98:-1 99:-1 100:-1 101:-1 102:-1 103:-1 104:-1 105:-1 106:-1 107:-1 108:-1 109:-0.204082 110:0.204082 111:-1 112:-1 113:-1 114:-1 115:-1 116:-1 117:-1 118:-1 119:-1 120:-1 121:-1 122:-1 123:-0.480845 124:0.562116 125:-1 126:-1 127:-1 128:-1 129:-1 130:-1 131:-1 132:-1 133:-1 135:-1 136:-1 137:1 138:-1 139:-0.784366 140:0.715962 141:-0.963239 142:-1 143:-1 144:-1 145:-1 146:-1 147:-1 148:-1 150:-1 151:-1 152:-1 153:-0.0568963 154:-0.970135 155:-0.0134105 156:0.0747744 157:-1 158:-1 159:-1 160:-1 161:-1 162:-1 163:-1 164:-1 165:-1 166:-1 167:1 168:-1 169:-1 170:-1 171:-1 172:-1 184:-1 185:-0.620219 186:-0.22449 187:-0.163266 188:-0.816326 189:-1 190:-1 191:-1 192:-1 193:-1 198:-1 199:-1 200:-1 201:-1 202:-0.699446 203:-0.763851 204:-0.234693 205:-0.853895 206:-0.918368 207:0.256263 208:-1 209:-1 210:-1 212:-1 213:-1 214:-1 215:-1 216:-1 217:-1 218:-0.843683 219:-0.803769 220:-0.171324 221:-0.828401 222:-0.183674 223:-0.923589 224:-1 225:-1 226:-1 227:1 228:-1 229:-1 230:-1 231:-1 242:-1 243:-1 244:-1 245:-0.510204 246:-0.22449 247:-0.653062 248:-0.244536 249:-1 250:-1 251:-1 252:-1 253:-1 254:-1 255:-1 256:-1 257:-1 258:-1 259:-1 260:-1 261:-1 262:-0.746601 263:-0.772774 264:0.0085261 265:-0.857142 266:-0.918368 267:0.396367 268:-1 269:-1 270:-1 272:-1 273:-1 274:-1 275:-1 276:-1 277:-1 278:-0.889934 279:-0.611043 280:-0.0234683 281:-0.787105 282:-0.285714 283:-0.723031 284:-1 285:-1 
