svm_type c_svc
kernel_type rbf
gamma 0.03125
nr_class 6
total_sv 72
rho 0.021242266404442489 0.0050423869397491217 0.00079886091407388449 -0.035454469616524875 -0.019352929433807731 -0.022788503440096974 -0.020122130168601871 -0.051813788944855332 -0.036156509537249804 0.0054400346707552671 -0.029968208866193891 -0.012570394668728113 -0.034415844012983143 -0.019806877127848566 0.012842047028243542
label 0 1 2 3 4 5
nr_sv 12 12 12 12 12 12
SV
0.03125 0.03125 0.03125 0.03125 0.03125 1:-1 2:-1 3:-0.802401 4:-0.545381 5:-0.926604 6:-0.960028 7:-0.85845 8:-0.893278 9:-0.825371 10:-0.587343 11:0.705782 12:-0.639533 13:-1 14:-1 15:-1 16:-1 17:-0.247706 18:0.258018 19:-1 20:-1 21:-1 22:-1 23:-1 24:-1 25:-1 26:-1 27:-1 28:-1 29:-1 30:-1 31:-1 32:-0.830413 33:-0.940766 34:-0.526127 35:-0.939532 36:-0.885319 37:-0.936292 38:-0.804036 39:-0.617736 40:-0.818111 41:0.830274 42:-0.406726 43:-1 44:-1 45:-1 46:-0.559632 47:1 48:-0.771216 49:-0.836582 50:-0.803704 51:-0.911078 52:-0.900582 53:-0.952136 54:-0.163993 55:-0.94438 56:-1 57:-1 58:-1 59:-1 60:-1 61:-1 62:0.973909 63:-0.0995575 64:-0.846927 65:-0.892818 66:-0.864001 67:-0.796002 68:-0.953664 69:-0.317738 70:-0.862385 71:-1 72:-1 73:-1 74:-1 75:-1 76:-1 77:-1 78:-1 79:-1 80:-0.541284 81:-0.858598 82:-0.908742 83:-0.922526 84:-0.943855 85:0.0751522 86:-0.160616 87:0.363267 88:1 89:1 90:-1 92:-1 93:-1 94:-1 95:-1 96:-1 97:-1 98:-1 99:-0.382497 100:-0.959726 101:-0.581238 102:0.19266 103:-0.931298 104:-1 105:-1 107:-1 108:-1 109:-1 110:-1 111:-1 112:-1 113:-1 114:-0.222882 115:-0.893579 116:-0.744787 117:0.33945 118:-1 119:-1 120:-1 121:-1 122:-1 123:-1 124:-1 125:-0.565924 126:-0.845391 127:-0.87549 128:-0.749597 129:-0.852245 130:0.148459 131:-0.123582 132:0.572865 133:1 134:1 135:-1 136:-1 137:-1 138:-1 139:-1 140:-1 141:-1 142:-0.926606 143:0.247706 144:-0.237827 145:-0.951582 146:-1 150:-1 
0.03125 0.03125 0.03125 0.03125 0.03125 1:-1 2:-1 3:-0.966556 4:-0.720194 5:-0.90062 6:-0.918809 7:-0.760425 8:-0.879579 9:-0.566502 10:-0.794143 11:-0.0141579 12:0.0371891 13:-0.404281 14:-0.437684 15:-1 16:-1 17:-0.329192 18:0.340177 19:-1 20:-1 21:-1 22:-1 23:-1 24:-1 25:-1 26:-1 27:-1 28:-1 29:-1 30:-1 31:-1 32:-1 33:-0.732648 34:-0.897921 35:-0.918124 36:-0.8059 37:-0.827465 38:-0.867326 39:-0.525535 40:-0.107212 41:-0.0896203 42:-0.0293317 43:-0.716324 44:-0.788413 45:-1 46:-0.900624 47:-0.472155 48:-0.203419 49:-0.26242 50:-0.0254294 51:-0.578593 52:-0.764429 53:-0.902779 54:-0.916148 55:-0.924689 56:-0.896393 57:-0.608424 58:-1 59:-1 60:-1 61:-0.0360321 62:-0.138783 63:-0.195307 64:0.0708776 65:-0.600907 66:-0.585675 67:-0.516626 68:-0.843141 69:-0.93975 70:-0.953415 71:-0.888088 72:-0.801242 73:-1 74:-1 75:-1 76:-1 77:-1 78:-1 79:-0.907903 80:-0.62733 81:-0.876915 82:-0.382178 83:-0.475498 84:-0.0116739 85:-0.676493 86:-0.538275 87:-0.435972 88:-0.00704138 89:0.624826 90:0.0351667 92:-1 93:-1 94:-1 95:-1 96:-1 97:-1 98:-1 99:-1 100:-1 101:-0.880629 102:-0.652174 103:1 104:0.245689 105:-0.978927 107:-1 108:-1 109:-1 110:-1 111:-1 112:-1 113:-1 114:-1 115:-1 116:-0.956803 117:-0.664596 118:0.643743 119:0.603762 120:-1 121:-1 122:-1 123:-0.977038 124:-0.945461 125:-0.52724 126:-0.816822 127:-0.848269 128:-0.364264 129:-0.399805 130:-0.222476 131:-0.0358027 132:0.120907 133:-0.492237 134:0.354044 135:-1 136:-1 137:-1 138:-1 139:-1 140:-1 141:-1 142:-0.68944 143:0.0559 144:-0.311992 145:-0.901654 146:-1 150:-1 
0.03125 0.03125 0.03125 0.03125 0.03125 1:-1 2:-0.699343 3:-0.97105 4:-1 5:-0.91398 6:-0.953148 7:-0.834104 8:-0.916613 9:0.842052 10:-0.287251 11:-0.171042 12:-0.947188 13:-1 14:-1 15:-1 16:-0.935484 17:0.806452 18:-0.869902 19:-1 20:-1 21:-1 22:-1 23:-1 24:-1 25:-1 26:-1 27:-1 28:-1 29:-1 30:-1 31:-1 32:-1 33:-1 34:-1 35:-0.64565 36:-0.731181 37:-0.85066 38:-0.846884 39:-0.178611 40:0.598879 41:0.18203 42:-0.594384 43:-1 44:-1 45:-1 46:-1 47:-0.245125 48:0.532258 49:0.0215056 50:-0.923309 51:-0.947889 52:-0.941738 53:-0.943897 54:-0.963709 55:-0.934813 56:-0.718141 57:-1 58:-1 59:-1 60:-1 61:-1 62:0.0282261 63:0.604141 64:0.016646 65:-0.937189 66:-0.84061 67:-0.760915 68:-1 69:-0.965232 70:-0.7043 71:-0.975782 72:-1 73:-1 74:-1 75:-1 76:-1 77:-1 78:-1 79:-0.904338 80:-0.784946 81:-0.976324 82:-0.679133 83:-0.364395 84:-0.012904 85:0.190117 86:0.106766 87:-0.2011 88:-1 89:-1 90:-1 92:-1 93:-1 94:-1 95:-1 96:-1 97:-1 98:-1 99:-0.965535 100:0.722856 101:-0.509194 102:-1 103:-1 104:-1 105:-1 107:-1 108:-1 109:-1 110:-1 111:-1 112:-1 113:-1 114:-1 115:0.683871 116:-0.0278588 117:-1 118:-1 119:-1 120:-1 121:-1 122:-1 123:-1 124:-1 125:-0.97788 126:-0.41107 127:-0.912443 128:-0.192912 129:-0.191849 130:0.0469223 131:0.027199 132:0.843464 133:-0.706994 134:-1 135:-1 136:-1 137:-1 138:-1 139:-1 140:-1 141:-0.79162 142:0.849462 143:-1 144:-1 145:-1 146:-1 150:-1 
0.03125 0.03125 0.03125 0.03125 0.03125 1:-1 2:-1 3:-1 4:-0.911669 5:-0.764704 6:-0.971522 7:-0.949579 8:-0.974656 9:-0.91706 10:-0.984527 11:-0.555405 12:0.572929 13:1 14:-0.915468 15:-1 16:-0.85621 17:0.398692 18:-0.538703 19:-1 20:-1 21:-1 22:-1 23:-1 24:-1 25:-1 26:-1 27:-1 28:-1 29:-1 30:-1 31:-1 32:-1 33:-0.901534 34:-0.877237 35:-1 36:-0.95915 37:-0.954611 38:-0.953464 39:-0.909222 40:-0.967604 41:-0.600841 42:0.338417 43:1 44:-0.109427 45:-1 46:-1 47:0.424838 48:0.536765 49:-0.767155 50:-0.953385 51:-0.936651 52:-0.964587 53:-0.965899 54:-0.977941 55:-0.980188 56:-0.984425 57:-0.711567 58:-1 59:-1 60:-1 61:-0.661873 62:1 63:0.4626 64:-0.709193 65:-0.961821 66:-0.903113 67:-0.927335 68:-0.966988 69:-0.978867 70:-0.96732 71:-0.793912 72:-1 73:-1 74:-1 75:-1 76:-1 77:-1 78:-1 79:-1 80:-0.79085 81:-0.985609 82:-0.967494 83:-0.64125 84:1 85:1 86:-0.0656347 87:-1 88:-1 89:-1 90:-1 92:-1 93:-1 94:-1 95:-1 96:-1 97:-1 98:-1 99:-1 100:-0.555288 101:0.0834198 102:-0.398692 103:-0.853168 104:-0.965504 105:-1 107:-1 108:-1 109:-1 110:-1 111:-1 112:-1 113:-1 114:-1 115:-0.260784 116:0.333333 117:-0.79085 118:-0.800419 119:-0.968158 120:-1 121:-1 122:-1 123:-1 124:-1 125:-0.771429 126:-0.972463 127:-0.964519 128:-0.286428 129:0.228069 130:1 131:0.365821 132:-0.823072 133:-1 134:-1 135:-1 136:-1 137:-1 138:-1 139:-1 140:-1 141:-0.800961 142:-0.490196 143:0.346406 144:-1 145:-1 146:-1 150:-1 
0.03125 0.03125 0.03125 0.03125 0.03125 1:-1 2:-1 3:-1 4:-0.549515 5:-0.979488 6:-0.977657 7:-0.960441 8:-1 9:-0.967464 10:-0.769335 11:1 12:0.108213 13:-0.929734 14:-1 15:-1 16:0.866666 17:-0.866666 18:-1 19:-1 20:-1 21:-1 22:-1 23:-1 24:-1 25:-1 26:-1 27:-1 28:-1 29:-1 30:-1 31:-1 32:-1 33:-0.591638 34:-0.98796 35:-0.915501 36:-0.9359 37:-0.89316 38:-0.926977 39:-0.928778 40:-0.110369 41:0.92088 42:-0.557836 43:-1 44:-1 45:-1 46:-1 47:-1 48:0.498076 49:0.0657044 50:0.0240957 51:-0.975149 52:-0.944431 53:-0.91973 54:-0.982693 55:-0.968912 56:-0.547844 57:-0.935339 58:-1 59:-1 60:-1 61:-1 62:-0.877404 63:0.993161 64:0.112328 65:-0.700448 66:-0.961992 67:-1 68:-0.974099 69:-1 70:-0.97436 71:-0.561099 72:-1 73:-1 74:-1 75:-1 76:-1 77:-1 78:-1 79:-0.452521 80:-0.866666 81:-0.4693 82:-0.183841 83:-0.718517 84:-0.466464 85:-0.332244 86:-0.501484 87:-1 88:-1 89:-1 90:-1 92:-1 93:-1 94:-1 95:-1 96:-0.967251 97:-0.971632 98:-0.88216 99:-0.0302436 100:0.19311 101:-0.765923 102:-1 103:-1 104:-1 105:-1 107:-1 108:-1 109:-1 110:-1 111:-1 112:-1 113:-1 114:0.780997 115:0.606154 116:-0.940559 117:-1 118:-1 119:-1 120:-1 121:-0.6795 122:-0.647169 123:-0.962084 124:-0.279549 125:-0.651868 126:-0.28701 127:-0.707693 128:-0.30015 129:-0.394329 130:-0.714683 131:-0.877525 132:-1 133:-1 134:-1 135:-1 136:-1 137:-1 138:-1 139:-1 140:-1 141:0.916636 142:-0.384616 143:-1 144:-1 145:-1 146:-1 150:-1 
0.03125 0.03125 0.03125 0.03125 0.03125 1:-1 2:-1 3:-1 4:-0.631613 5:-0.327104 6:-0.918556 7:-0.891853 8:-0.927521 9:-0.851759 10:-0.933627 11:-0.576179 12:0.101622 13:0.131123 14:-1 15:-1 16:-0.738318 17:0.59813 18:-0.858655 19:-1 20:-1 21:-1 22:-1 23:-1 24:-1 25:-1 26:-1 27:-1 28:-1 29:-1 30:-1 31:-1 32:-1 33:-1 34:-0.495328 35:-0.846007 36:-0.678737 37:-0.772847 38:-0.767105 39:-0.675493 40:-0.81471 41:-0.79072 42:0.813086 43:-0.551819 44:-0.416337 45:-1 46:-1 47:-0.551086 48:0.165303 49:-0.583823 50:-0.666725 51:-0.864128 52:-0.746814 53:-0.85372 54:-0.889604 55:-0.858353 56:-0.398689 57:-1 58:-1 59:-1 60:-1 61:-1 62:-0.553154 63:0.320874 64:-0.324288 65:-0.808932 66:-0.826831 67:-0.844142 68:-0.90559 69:-0.954672 70:-0.94159 71:-0.273806 72:-1 73:-1 74:-1 75:-1 76:-1 77:-1 78:-1 79:-0.293264 80:-0.663552 81:-0.742777 82:-0.0238999 83:-0.763239 84:-0.599623 85:-0.756613 86:-0.545744 87:-0.652814 88:-1 89:-1 90:-1 92:-1 93:-1 94:-1 95:-1 96:-1 97:-1 98:-1 99:-0.985022 100:1 101:-0.797932 102:-1 103:-1 104:-1 105:-1 107:-1 108:-1 109:-1 110:-1 111:-1 112:-1 113:-1 114:-0.663552 115:0.355141 116:0.0507647 117:-1 118:-1 119:-1 120:-1 121:-1 122:-1 123:-1 124:-0.19307 125:-0.79813 126:-0.173125 127:-0.50534 128:-0.457945 129:-0.724052 130:-0.675021 131:-0.581503 132:-1 133:-1 134:-1 135:-1 136:-1 137:-1 138:-1 139:-1 140:-1 141:-1 142:-1 143:0.074766 144:0.0675773 145:-1 146:-1 150:-1 
0.03125 0.03125 0.03125 0.03125 0.03125 1:-1 2:-0.728772 3:-0.985755 4:-0.737813 5:-0.534392 6:-0.446712 7:1 8:-0.774322 9:-0.597154 10:-0.787064 11:-0.832042 12:-0.948028 13:-1 14:-1 15:-1 16:-1 17:-0.798942 18:0.0669478 19:-0.280424 20:-0.889869 21:-1 22:-1 23:-1 24:-1 25:-1 26:-1 27:-1 28:-1 29:-1 30:-1 31:-1 32:-1 33:-1 34:-1 35:-0.965128 36:0.521162 37:0.175778 38:0.243173 39:-0.0814236 40:-0.685301 41:-0.22449 42:-0.914462 43:-1 44:-1 45:-1 46:-0.915344 47:-0.863151 48:-0.623017 49:-0.780093 50:1 51:1 52:-0.856662 53:-0.972395 54:-0.910714 55:-0.983962 56:-0.936958 57:-0.899931 58:-1 59:-1 60:-1 61:-0.86314 62:-0.468751 63:-0.813051 64:-0.705733 65:-0.258252 66:1 67:0.352941 68:-0.759484 69:-0.692064 70:-0.986773 71:-0.737833 72:-1 73:-1 74:-1 75:-1 76:-1 77:-1 78:-0.726328 79:-0.293926 80:-0.216932 81:-0.836901 82:-0.763169 83:-0.642563 84:-0.740952 85:-0.793314 86:-0.848722 87:-1 88:-1 89:-1 90:-1 92:-1 93:-1 94:-1 95:-1 96:-1 97:0.404931 98:0.175278 99:-0.626917 100:-0.628382 101:-1 102:-1 103:-1 104:-1 105:-1 107:-1 108:-1 109:-1 110:-1 111:-1 112:-0.811536 113:-0.643304 114:0.142857 115:0.0894172 116:-0.6443 117:-0.957672 118:-1 119:-1 120:-1 121:-1 122:-1 123:-0.863075 124:-0.612853 125:-0.782313 126:-0.598751 127:-0.43991 128:-0.494553 129:-0.573935 130:-0.668832 131:0.0108934 132:-0.522578 133:-1 134:-1 135:-1 136:-1 137:-1 138:-1 139:-1 140:-1 141:-0.648448 142:0.555556 143:-0.809524 144:-1 145:-1 146:-1 150:-1 
0.03125 0.03125 0.03125 0.03125 0.03125 1:-1 2:-1 3:-1 4:-0.976658 5:-0.067356 6:-0.72909 7:-0.480381 8:-0.638364 9:-0.737 10:-0.926404 11:-0.624049 12:0.425067 13:-0.59771 14:-1 15:-1 16:-0.968912 17:0.243524 18:-0.299962 19:-0.968912 20:-1 21:-1 22:-1 23:-1 24:-1 25:-1 26:-1 27:-1 28:-1 29:-1 30:-1 31:-1 32:-0.904223 33:-0.81043 34:-0.647218 35:-0.521902 36:-0.6114 37:-0.856076 38:-0.741765 39:-0.424292 40:-0.640459 41:-0.873427 42:-0.218191 43:-0.361071 44:-1 45:-1 46:-0.253888 47:-0.885132 48:-0.353952 49:-0.723122 50:-0.408736 51:-0.548028 52:-0.803488 53:-0.81077 54:-0.947539 55:-0.952882 56:-0.604895 57:-0.820342 58:-0.477808 59:-0.350048 60:0.312686 61:-1 62:-0.92568 63:-0.125312 64:-0.567749 65:-0.42495 66:0.190494 67:-0.251137 68:-0.712127 69:-0.916234 70:-0.598445 71:-0.789946 72:-0.95855 73:-1 74:-1 75:-1 76:-1 77:-1 78:-1 79:-0.400749 80:-0.61658 81:-0.691972 82:-0.510383 83:-0.628094 84:-0.460931 85:-0.426524 86:-0.703717 87:-0.957229 88:-0.698797 89:-0.548178 90:0.295333 92:-1 93:-1 94:-1 95:-1 96:-1 97:-1 98:-1 99:-0.501795 100:-0.76118 101:-0.838181 102:-0.295336 103:-0.0300041 104:-0.699193 105:-1 107:-1 108:-1 109:-1 110:-1 111:-1 112:-1 113:-0.986029 114:-0.912223 115:-0.759584 116:0.165097 117:-0.471502 118:-0.771464 119:-0.722332 120:-1 121:-1 122:-1 123:-0.961688 124:-0.575381 125:-0.754848 126:-0.104987 127:-0.831237 128:-0.11612 129:-0.193346 130:-0.387423 131:-0.505026 132:-1 133:-1 134:-1 135:-1 136:-1 137:1 138:0.308383 139:-1 140:-1 141:-0.3545 142:-0.471502 143:-0.388602 144:-1 145:-1 146:-1 150:-1 
0.03125 0.03125 0.03125 0.03125 0.03125 1:-1 2:-1 3:-0.535808 4:-0.68932 5:-0.965516 6:-0.849753 7:-0.667491 8:-0.899719 9:-0.726519 10:-0.428572 11:0.329187 12:-1 13:-1 14:-1 15:-1 16:-1 17:-1 18:0.686236 19:-0.672414 20:-1 21:-1 22:-1 23:-1 24:-1 25:-1 26:-1 27:-1 28:-1 29:-1 30:-1 31:-1 32:-0.904389 33:-0.851573 34:-0.878561 35:-0.403411 36:-0.838363 37:-0.760535 38:-0.693107 39:-0.640806 40:0.709147 41:-0.298029 42:-1 43:-1 44:-1 45:-1 46:-1 47:-0.490356 48:0.443424 49:-0.795257 50:-0.569614 51:-0.874669 52:0.0275839 53:-0.955021 54:-0.621767 55:-0.921606 56:-1 57:-1 58:-1 59:-1 60:-1 61:-1 62:-0.835128 63:0.861431 64:-0.664383 65:-0.848933 66:-0.808317 67:-0.42495 68:-0.912918 69:-0.108047 70:-0.913793 71:-1 72:-1 73:-1 74:-1 75:-1 76:-1 77:-1 78:-1 79:-1 80:-0.431034 81:-0.677317 82:-0.785629 83:-0.417624 84:-0.261376 85:-0.27036 86:-0.260566 87:-0.786501 88:-1 89:-1 90:-1 92:-1 93:-1 94:-1 95:-1 96:-1 97:-0.904624 98:-0.713866 99:-0.972369 100:-0.337755 101:0.346155 102:-1 103:-1 104:-1 105:-1 107:-1 108:-1 109:-1 110:-1 111:-1 112:-1 113:-1 114:-0.0872217 115:-0.424999 116:0.0991382 117:-0.775862 118:-1 119:-1 120:-1 121:-1 122:-1 123:-1 124:-1 125:-0.521181 126:-0.0920018 127:-0.953203 128:-0.470589 129:-0.352085 130:-0.280567 131:-0.227942 132:-0.0665602 133:-1 134:-1 135:-1 136:-1 137:-1 138:-1 139:-1 140:-1 141:-0.904535 142:0.103448 143:-0.172414 144:-1 145:-1 146:-1 150:-1 
0.03125 0.03125 0.03125 0.03125 0.03125 1:-1 2:-1 3:-1 4:-1 5:-1 6:-1 7:-0.854447 8:-0.853677 9:-0.960097 10:-0.791555 11:-0.51514 12:0.698912 13:0.666012 14:-0.593285 15:-1 16:-0.836478 17:0.597484 18:-0.759031 19:-1 20:-1 21:-1 22:-1 23:-1 24:-1 25:-1 26:-1 27:-1 28:-1 29:-1 30:-1 31:-1 32:-1 33:-1 34:-1 35:-1 36:-1 37:-1 38:-0.73132 39:-0.650597 40:-0.376539 41:-0.0525622 42:0.38959 43:0.350042 44:-1 45:-1 46:-0.698112 47:-0.163415 48:-0.0365583 49:0.493709 50:-0.0580302 51:-0.878085 52:-0.59108 53:-1 54:-1 55:-1 56:-1 57:-1 58:-1 59:-1 60:-1 61:-1 62:-0.458725 63:1 64:-0.0205892 65:-0.338721 66:-0.766922 67:-0.860151 68:-0.809401 69:-0.979666 70:-1 71:-1 72:-1 73:-1 74:-1 75:-1 76:-1 77:-1 78:-0.728909 79:-0.888093 80:-0.924528 81:-0.750735 82:-0.499526 83:-0.415792 84:-0.422639 85:-0.221999 86:-0.0289689 87:-0.117358 88:-0.725786 89:-1 90:-1 92:-1 93:-1 94:-1 95:-1 96:-1 97:-1 98:-1 99:-0.979843 100:-0.64109 101:0.254067 102:-0.622642 103:-0.552581 104:-1 105:-1 107:-1 108:-1 109:-1 110:-1 111:-1 112:-1 113:-1 114:-1 115:-0.854089 116:0.0789028 117:-0.471698 118:-0.253144 119:-1 120:-1 121:-1 122:-1 123:-0.883741 124:-0.944777 125:-0.818869 126:-0.629035 127:-0.761007 128:-0.270441 129:-0.561073 130:-0.212691 131:-0.399185 132:0.759259 133:0.199681 134:-1 135:-1 136:-1 137:-1 138:-1 139:-1 140:-1 141:-1 142:-0.081762 143:-0.044026 144:-0.854862 145:-1 146:-1 150:-1 
0.03125 0.03125 0.03125 0.03125 0.03125 1:-1 2:-1 3:-0.973475 4:-1 5:-0.625616 6:-0.763899 7:-0.733988 8:-0.942697 9:-0.437403 10:-0.580175 11:0.831824 12:-0.564506 13:-0.84251 14:-1 15:-1 16:-1 17:1 18:-1 19:-1 20:-1 21:-1 22:-1 23:-1 24:-1 25:-1 26:-1 27:-1 28:-1 29:-1 30:-1 31:-1 32:-1 33:-1 34:-1 35:-1 36:-1 37:-0.965792 38:-0.298524 39:0.607826 40:0.489399 41:0.363827 42:-0.840721 43:-1 44:-1 45:-1 46:-1 47:-0.65417 48:0.579433 49:0.111453 50:0.897205 51:-1 52:-0.94662 53:-1 54:-1 55:-1 56:-1 57:-1 58:-1 59:-1 60:-1 61:-1 62:-0.740919 63:0.0443355 64:1 65:-0.309404 66:-0.926979 67:-0.835703 68:-0.900478 69:-1 70:-0.630543 71:-0.977811 72:-1 73:-1 74:-1 75:-1 76:-1 77:-0.939903 78:-0.957534 79:-0.488704 80:-0.950738 81:-0.858997 82:-0.730503 83:-0.77121 84:-0.397045 85:-0.0378398 86:1 87:-0.837337 88:-1 89:-1 90:-1 92:-1 93:-1 94:-1 95:-1 96:-1 97:-1 98:-1 99:-1 100:-0.978376 101:1 102:-0.68473 103:-1 104:-1 105:-1 107:-1 108:-1 109:-1 110:-1 111:-1 112:-1 113:-1 114:-1 115:-1 116:0.575907 117:-0.359606 118:-1 119:-1 120:-1 121:-1 122:-1 123:-1 124:-1 125:-0.655453 126:-0.896227 127:-0.786065 128:-0.260506 129:-0.365308 130:-0.177786 131:1 132:-0.555504 133:-1 134:-1 135:-1 136:-1 137:-1 138:-1 139:-1 140:-1 141:-0.918172 142:0.901478 143:-0.960592 144:-1 145:-1 146:-1 150:-1 
0.03125 0.03125 0.03125 0.03125 0.03125 1:-1 2:-1 3:-0.930611 4:-0.860674 5:-0.835052 6:-0.775407 7:-1 8:-1 9:-0.967292 10:-0.987796 11:-0.929873 12:1 13:-0.0112307 14:1 15:1 16:-0.969072 17:0.969072 18:-1 19:-1 20:-1 21:-1 22:-1 23:-1 24:-1 25:-1 26:-1 27:-1 28:-1 29:-1 30:-1 31:-1 32:-1 33:-1 34:-0.709548 35:-0.830133 36:-0.967781 37:-1 38:-0.963296 39:-1 40:-0.974449 41:-0.412371 42:1 43:0.271276 44:-0.824408 45:-1 46:-1 47:-0.352436 48:0.0834408 49:0.928156 50:-0.963234 51:-0.975018 52:-1 53:-0.973104 54:-1 55:-0.984374 56:-0.582364 57:-1 58:-1 59:-1 60:-1 61:1 62:-0.0634687 63:0.517755 64:-0.197288 65:-0.939782 66:-1 67:-0.942688 68:-1 69:-0.95 70:-0.871135 71:-0.895514 72:-0.896908 73:-0.87883 74:-1 75:-1 76:-1 77:-1 78:-1 79:-0.755422 80:-0.86598 81:-0.909203 82:-0.641091 83:-0.912942 84:-0.432161 85:-0.261682 86:0.444312 87:1 88:-0.775257 89:-1 90:-1 92:-1 93:-1 94:-1 95:-1 96:-1 97:-1 98:-1 99:-1 100:-1 101:-0.640882 102:0.57732 103:-0.768399 104:-1 105:-1 107:-1 108:-1 109:-1 110:-1 111:-1 112:-1 113:-1 114:-1 115:-1 116:-0.677367 117:0.494846 118:-0.615243 119:-1 120:-1 121:-1 122:-1 123:-1 124:-0.713352 125:-0.819735 126:-0.978281 127:-0.930045 128:-0.472404 129:-0.363536 130:-0.103796 131:0.384933 132:1 133:-0.929763 134:-1 135:-1 136:-1 137:-1 138:-1 139:-1 140:-1 141:-0.957188 142:-0.752578 143:0.72165 144:-1 145:-1 146:-1 150:-1 
-0.03125 0.03125 0.03125 0.03125 0.03125 1:-1 2:-0.400832 3:1 4:-1 5:-1 6:-1 7:-1 8:-1 9:-1 10:-1 11:-1 12:-1 13:-1 14:-1 15:-1 16:-1 17:-1 18:0.401968 19:-0.390476 20:-1 21:-1 22:-1 23:-1 24:-1 25:-1 26:-1 27:-1 28:-1 29:-1 30:-1 31:-1 32:-1 33:-0.959005 34:-0.821119 35:-0.215369 36:0.904762 37:-0.80159 38:-0.864378 39:-0.80159 40:-0.858387 41:-0.72857 42:-0.0248697 43:-0.956502 44:-1 45:-1 46:-1 47:-0.753671 48:-0.694644 49:-0.321427 50:-0.728303 51:-0.86154 52:-0.896795 53:0.639754 54:-0.517858 55:-0.509226 56:-0.931916 57:-1 58:-1 59:-1 60:-1 61:-1 62:-1 63:-1 64:-1 65:-1 66:-1 67:-1 68:-1 69:-1 70:1 71:-0.54955 72:-1 73:-1 74:-1 75:-1 76:-1 77:-1 78:-1 79:-1 80:-0.04762 81:0.153344 82:-1 83:-1 84:-1 85:-1 86:-1 87:-1 88:-1 89:-1 90:-1 92:-1 93:-1 94:-1 95:-1 96:-1 97:-1 98:-1 99:-1 100:0.944029 101:-0.725443 102:-1 103:-1 104:-1 105:-1 107:-1 108:-1 109:-1 110:-1 111:1 112:-0.208451 113:-1 114:-1 115:-1 116:-1 117:-1 118:-1 119:-1 120:-1 121:-1 122:-1 123:-1 124:-1 125:0.05796 126:-0.237628 127:-0.896599 128:-0.805045 129:-0.130826 130:-0.86753 131:-0.886272 132:-0.656258 133:-1 134:-1 135:-1 136:-1 137:-1 138:-1 139:-1 140:-1 141:-1 142:-1 143:-0.733334 144:1 145:-1 146:-1 150:-1 
-0.03125 0.03125 0.03125 0.03125 0.03125 1:-0.669172 2:-0.901891 3:-0.60324 4:-0.573224 5:-0.957896 6:-0.954137 7:-0.918799 8:1 9:-0.732851 10:-1 11:-1 12:-1 13:-1 14:-1 15:-1 16:-1 17:-0.852632 18:0.867944 19:-1 20:-1 21:-1 22:-1 23:-1 24:-1 25:-1 26:-1 27:-1 28:-1 29:-1 30:-1 31:-1 32:-1 33:-1 34:-0.18444 35:-0.514356 36:-0.868419 37:-0.853799 38:-0.925055 39:-0.926903 40:-0.89565 41:-0.614285 42:0.304677 43:-0.615394 44:-1 45:-1 46:-1 47:-1 48:-0.737501 49:1 50:-0.774776 51:-0.948989 52:-0.942968 53:-0.945082 54:-0.964475 55:-0.904276 56:-0.62374 57:0.0286044 58:-1 59:-1 60:-1 61:-1 62:-1 63:-1 64:-1 65:-1 66:-1 67:-0.882976 68:0.701338 69:-0.251228 70:-0.947368 71:-0.596966 72:-0.68421 73:-0.587596 74:-0.698253 75:-1 76:-1 77:-0.486318 78:-0.591651 79:-0.157168 80:-0.957894 81:-0.83776 82:-0.947649 83:1 84:-1 85:-1 86:-1 87:-1 88:-1 89:-1 90:-1 92:-1 93:-1 94:-1 95:-1 96:-1 97:-1 98:-1 99:-1 100:-1 101:-1 102:-1 103:-0.881762 104:1 105:1 107:-1 108:-1 109:-1 110:-1 111:-1 112:-1 113:-1 114:-1 115:-1 116:-1 117:-1 118:1 119:1 120:-1 121:-1 122:-1 123:-1 124:-1 125:-0.891728 126:0.552201 127:-0.285714 128:-0.353558 129:-0.265374 130:-0.633969 131:-0.811455 132:-1 133:-1 134:-1 135:-1 136:-1 137:-1 138:-1 139:-1 140:-1 141:-1 142:-0.978948 143:-1 144:0.360324 145:1 146:-0.463146 150:-1 
-0.03125 0.03125 0.03125 0.03125 0.03125 1:-1 2:-1 3:0.842107 4:-0.525805 5:-0.789472 6:-1 7:-1 8:-1 9:-0.666059 10:-1 11:-1 12:-1 13:-1 14:-1 15:-1 16:-1 17:-0.298246 18:0.308976 19:-1 20:-1 21:-1 22:-1 23:-1 24:-1 25:-1 26:-1 27:-1 28:-1 29:-1 30:-1 31:-1 32:-1 33:-1 34:-1 35:-1 36:-1 37:-1 38:-1 39:-0.269007 40:1 41:1 42:-1 43:-1 44:-1 45:-1 46:-1 47:0.231638 48:1 49:-0.479168 50:-0.874875 51:-1 52:-1 53:-1 54:-1 55:-1 56:-1 57:-1 58:-1 59:-1 60:-1 61:-1 62:-1 63:-1 64:-0.70728 65:-1 66:-1 67:-1 68:-1 69:-1 70:0.622807 71:-0.328275 72:-1 73:-1 74:-1 75:-1 76:-1 77:-1 78:-1 79:-0.791895 80:0.368422 81:-0.575085 82:-0.912746 83:-0.851851 84:-1 85:-1 86:-1 87:-1 88:-1 89:-1 90:-1 92:-1 93:-1 94:-1 95:-1 96:-1 97:-1 98:-1 99:-1 100:-0.845975 101:0.18011 102:-0.122808 103:-1 104:-1 105:-1 107:-1 108:-1 109:-1 110:-1 111:-1 112:-1 113:-1 114:0.188856 115:-0.0333341 116:-0.511962 117:-0.649122 118:-1 119:-1 120:-1 121:-1 122:-1 123:-1 124:-1 125:-1 126:-0.556515 127:1 128:-0.640863 129:-0.717449 130:-0.633969 131:-1 132:-1 133:-1 134:-1 135:-1 136:-1 137:-1 138:-1 139:-1 140:-1 141:-1 142:1 143:-1 144:-1 145:-1 146:-1 150:-1 
-0.03125 0.03125 0.03125 0.03125 0.03125 1:-1 2:-1 3:-1 4:-0.293357 5:-0.529412 6:-0.23109 7:-0.243698 8:-0.69588 9:-0.751181 10:-0.814327 11:-0.644325 12:-0.903697 13:-1 14:-1 15:-1 16:0.294118 17:-0.294118 18:-1 19:-1 20:-1 21:-1 22:-1 23:-1 24:-1 25:-1 26:-1 27:-1 28:-1 29:-1 30:-1 31:-1 32:-1 33:-0.9156 34:-0.907928 35:-0.353834 36:-0.63235 37:-1 38:-0.860391 39:-0.727667 40:-0.708438 41:-0.840335 42:0.0566426 43:0.432835 44:-1 45:-1 46:-1 47:-0.710204 48:0.327205 49:-0.767155 50:-0.720308 51:-0.809953 52:-0.787521 53:-0.795395 54:-0.669119 55:-0.643383 56:-0.859824 57:-0.752772 58:-1 59:-1 60:-1 61:-1 62:-1 63:-1 64:-0.890947 65:-0.885464 66:-0.56401 67:-0.128031 68:-0.50482 69:-0.873202 70:-0.313725 71:-0.0726014 72:-1 73:-1 74:-1 75:-1 76:-1 77:-0.282345 78:-0.408384 79:-1 80:0.058824 81:-0.697787 82:-1 83:-1 84:-0.879999 85:-0.744679 86:-0.551508 87:-1 88:-1 89:-1 90:-1 92:-1 93:-1 94:-1 95:-1 96:-1 97:-1 98:-0.949937 99:-0.685772 100:0.334137 101:-0.528949 102:-0.843138 103:-1 104:-1 105:-1 107:-1 108:-1 109:-1 110:-1 111:-1 112:-1 113:-1 114:-1 115:-0.60196 116:1 117:-1 118:-1 119:-1 120:-1 121:-1 122:-1 123:-1 124:-1 125:-0.838656 126:-0.421729 127:-0.627451 128:-0.866204 129:1 130:0.636361 131:-0.882929 132:-1 133:-1 134:-1 135:-1 136:-1 137:-1 138:-1 139:-1 140:-1 141:-1 142:-1 143:-0.960784 144:0.312216 145:0.759259 146:1 150:-1 
-0.03125 0.03125 0.03125 0.03125 0.03125 1:-1 2:-1 3:0.529231 4:-0.0449708 5:-0.968 6:-1 7:-1 8:-1 9:-1 10:-1 11:-1 12:-1 13:-1 14:-1 15:-1 16:1 17:-1 18:-1 19:-1 20:-1 21:-1 22:-1 23:-1 24:-1 25:-1 26:-1 27:-1 28:-1 29:-1 30:-1 31:-0.68842 32:0.00557503 33:-0.982783 34:-0.943652 35:-0.947273 36:-0.85 37:-0.222222 38:-0.31648 39:1 40:-0.365566 41:-1 42:-1 43:-1 44:-1 45:-1 46:-1 47:-1 48:-0.7435 49:0.615001 50:0.597587 51:-0.767384 52:-0.869964 53:-0.833043 54:-0.946 55:-0.92725 56:-0.370894 57:-0.924348 58:-1 59:-1 60:-1 61:-1 62:-1 63:-1 64:-1 65:-1 66:-1 67:-1 68:-1 69:-1 70:-1 71:1 72:-0.776 73:-1 74:-1 75:-1 76:-1 77:-1 78:1 79:0.589516 80:-1 81:-1 82:-1 83:-1 84:-1 85:-1 86:-1 87:-1 88:-1 89:-1 90:-1 92:-1 93:-1 94:-1 95:-1 96:-1 97:-1 98:-1 99:1 100:-0.174728 101:-1 102:-1 103:-1 104:-1 105:-1 107:-1 108:-1 109:-1 110:-1 111:-1 112:-1 113:-0.935281 114:-0.322353 115:0.0440003 116:0.057091 117:-1 118:-1 119:-1 120:-1 121:-1 122:-1 123:-1 124:0.0536591 125:-0.0619426 126:-0.460721 127:-0.891429 128:-0.890823 129:-1 130:-1 131:-1 132:-1 133:-1 134:-1 135:-1 136:-1 137:-1 138:-1 139:-1 140:-1 141:-1 142:1 143:-1 144:-1 145:-1 146:-1 150:-1 
-0.03125 0.03125 0.03125 0.03125 0.03125 1:-1 2:-1 3:-0.698276 4:1 5:-1 6:-1 7:-1 8:-1 9:-1 10:-1 11:-1 12:-1 13:-1 14:-1 15:-1 16:-0.310344 17:0.310344 18:-1 19:-1 20:-1 21:-1 22:-1 23:-1 24:-1 25:-1 26:-1 27:-1 28:-1 29:-1 30:-1 31:-1 32:-1 33:-0.684595 34:-0.068965 35:-0.943183 36:-0.838363 37:-0.880271 38:-0.877244 39:-0.341472 40:-0.914545 41:-0.859605 42:-0.163795 43:-0.645652 44:-1 45:-1 46:-1 47:-1 48:-0.232221 49:-0.795257 50:-0.81555 51:-0.540448 52:-0.906585 53:-0.910047 54:-0.912716 55:-0.947738 56:-0.609685 57:0.222826 58:-1 59:-1 60:-1 61:-1 62:-1 63:-1 64:-1 65:-1 66:-1 67:-1 68:-1 69:-1 70:-1 71:-1 72:1 73:-1 74:-1 75:-1 76:-1 77:-1 78:-1 79:-0.360881 80:0.568966 81:-1 82:-1 83:-1 84:-1 85:-1 86:-1 87:-1 88:-1 89:-1 90:-1 92:-1 93:-1 94:-1 95:-1 96:-1 97:-1 98:-1 99:-1 100:0.362335 101:-0.0887579 102:-1 103:-1 104:-1 105:-1 107:-1 108:-1 109:-1 110:-1 111:-1 112:-1 113:-1 114:-1 115:1.45e-06 116:0.518808 117:-1 118:-1 119:-1 120:-1 121:-1 122:-1 123:-1 124:-0.293525 125:-0.255172 126:-0.128319 127:-0.74261 128:-0.705885 129:-0.814881 130:-0.880097 131:-1 132:-1 133:-1 134:-1 135:-1 136:-1 137:-1 138:-1 139:-1 140:-1 141:-1 142:-0.672414 143:0.672414 144:-1 145:-1 146:-1 150:-1 
-0.03125 0.03125 0.03125 0.03125 0.03125 1:-1 2:-1 3:-1 4:-1 5:-1 6:-1 7:-1 8:-1 9:-0.288941 10:1 11:-0.804533 12:-1 13:-1 14:-1 15:-1 16:-1 17:1 18:-1 19:-1 20:-1 21:-1 22:-1 23:-1 24:-1 25:-1 26:-1 27:-1 28:-1 29:-1 30:-1 31:-0.412429 32:-0.139498 33:-0.48051 34:-0.817842 35:-0.943183 36:-0.676725 37:0.376917 38:-0.693107 39:-0.461208 40:-1 41:-1 42:-1 43:-1 44:-1 45:-1 46:-1 47:-0.904442 48:-0.539334 49:0.126077 50:-0.754064 51:-0.83289 52:0.167709 53:0.0794635 54:-0.679956 55:-0.790947 56:-1 57:-1 58:-1 59:-1 60:-1 61:-1 62:-1 63:-1 64:-1 65:-1 66:-1 67:-1 68:-0.608125 69:0.393676 70:0.228447 71:-1 72:-1 73:-1 74:-1 75:-1 76:-1 77:-1 78:-1 79:0.0481555 80:-0.672414 81:-0.0699138 82:-0.785629 83:-0.927205 84:-1 85:-1 86:-1 87:-1 88:-1 89:-1 90:-1 92:-1 93:-1 94:-1 95:-1 96:-1 97:-1 98:-1 99:-1 100:-0.602654 101:0.946747 102:-0.982758 103:-1 104:-1 105:-1 107:-1 108:-1 109:-1 110:-1 111:-1 112:-1 113:-1 114:-1 115:-0.35 116:-0.860109 117:0.310344 118:-0.795258 119:-1 120:-1 121:-1 122:-1 123:-1 124:-0.798148 125:-0.964533 126:-0.745759 127:-0.157635 128:1 129:-0.537205 130:-0.820142 131:-0.382354 132:-0.68885 133:-1 134:-1 135:-1 136:-1 137:-1 138:-1 139:-1 140:-1 141:-1 142:1 143:-1 144:-1 145:-1 146:-1 150:-1 
-0.03125 0.03125 0.03125 0.03125 0.03125 1:-1 2:-1 3:0.270769 4:0.189282 5:-1 6:-1 7:-1 8:-1 9:-1 10:-1 11:-1 12:-1 13:-1 14:-1 15:-1 16:-1 17:1 18:-1 19:-1 20:-1 21:-1 22:-1 23:-1 24:-1 25:-1 26:-1 27:-1 28:-1 29:-1 30:-1 31:-1 32:-1 33:-0.707304 34:-0.92487 35:-0.894546 36:1 37:1 38:-0.20256 39:-0.777778 40:-0.881044 41:-0.902286 42:-1 43:-1 44:-1 45:-1 46:-1 47:-1 48:-1 49:-1 50:-0.82883 51:-0.883692 52:-0.566546 53:-0.206956 54:0.538999 55:-0.7575 56:-0.923745 57:-0.52087 58:-1 59:-1 60:-1 61:-1 62:-1 63:-1 64:-1 65:-1 66:-1 67:-1 68:-1 69:-1 70:-1 71:-0.0630631 72:0.168 73:-1 74:-1 75:-1 76:-1 77:-1 78:-1 79:-1 80:1 81:-1 82:-1 83:-1 84:-1 85:-1 86:-1 87:-1 88:-1 89:-1 90:-1 92:-1 93:-1 94:-1 95:-1 96:-1 97:-1 98:-1 99:-1 100:-1 101:-1 102:1 103:-1 104:-1 105:-1 107:-1 108:-1 109:-1 110:-1 111:-1 112:-1 113:-1 114:-1 115:-1 116:-1 117:1 118:-1 119:-1 120:-1 121:-1 122:-1 123:-1 124:-0.438049 125:-0.292343 126:0.718951 127:-0.848 128:-1 129:-1 130:-1 131:-1 132:-1 133:-1 134:-1 135:-1 136:-1 137:-1 138:-1 139:-1 140:-1 141:-1 142:-1 143:1 144:-1 145:-1 146:-1 150:-1 
-0.03125 0.03125 0.03125 0.03125 0.03125 1:-1 2:-1 3:-1 4:-0.353812 5:-0.90164 6:-0.571427 7:0.264635 8:-0.523251 9:-0.583944 10:-0.767146 11:-0.368092 12:-1 13:-1 14:-1 15:-1 16:-1 17:-1 18:1 19:-0.983606 20:-1 21:-1 22:-1 23:-1 24:-1 25:-1 26:-1 27:-1 28:-1 29:-1 30:-1 31:-1 32:-0.848484 33:-0.753029 34:-0.326444 35:-0.756894 36:-0.641394 37:-0.772312 38:-0.533113 39:-0.203097 40:-0.228082 41:-0.766394 42:-1 43:-1 44:-1 45:-1 46:-1 47:-0.878855 48:-0.561987 49:-0.318648 50:-0.00618708 51:-0.761666 52:-0.733534 53:-0.272987 54:-0.668032 55:-0.229766 56:-1 57:-1 58:-1 59:-1 60:-1 61:-1 62:-1 63:-0.227688 64:-0.0426689 65:-0.377571 66:-0.14947 67:0.00241253 68:-0.958598 69:-0.681966 70:-0.467213 71:-1 72:-1 73:-1 74:-1 75:-1 76:-1 77:-1 78:-1 79:-0.975692 80:-0.754098 81:0.209204 82:0.589874 83:-1 84:-1 85:-1 86:-1 87:-1 88:-1 89:-1 90:-1 92:-1 93:-1 94:-1 95:-1 96:-1 97:-1 98:-1 99:-1 100:0.511224 101:-0.251722 102:-1 103:-1 104:-1 105:-1 107:-1 108:-1 109:-1 110:-1 111:-1 112:-1 113:-1 114:-0.618129 115:0.782787 116:-0.315946 117:-1 118:-1 119:-1 120:-1 121:-1 122:-1 123:-1 124:-1 125:-0.511007 126:0.20868 127:-0.911007 128:-0.272904 129:-0.0319233 130:-0.372951 131:-0.902124 132:-0.778118 133:-0.664961 134:-1 135:-1 136:-1 137:-1 138:-1 139:-1 140:-1 141:-1 142:-1 143:0.819672 144:-0.791929 145:-1 146:-1 150:-1 
-0.03125 0.03125 0.03125 0.03125 0.03125 1:-1 2:-1 3:-1 4:-0.955397 5:-0.762376 6:-0.91372 7:0.0693091 8:-0.884825 9:0.256404 10:-0.48434 11:-0.595901 12:0.118438 13:-1 14:-1 15:-1 16:-1 17:1 18:-1 19:-1 20:-1 21:-1 22:-1 23:-1 24:-1 25:-1 26:-1 27:-1 28:-1 29:-1 30:-1 31:-1 32:-1 33:-0.978691 34:0.046062 35:-0.869487 36:-0.690594 37:-0.862486 38:-0.788515 39:-0.862486 40:-0.901851 41:-0.838755 42:-0.733223 43:-0.231268 44:0.236669 45:-1 46:-1 47:-1 48:-0.576733 49:-0.118192 50:-0.435082 51:-0.856055 52:-0.892709 53:-0.845028 54:-0.966584 55:-0.909963 56:-0.669686 57:0.185967 58:-0.894963 59:-1 60:-1 61:-1 62:-1 63:-1 64:0.211448 65:0.156689 66:0.834599 67:0.430987 68:-0.649941 69:-0.839934 70:-0.90099 71:-0.888502 72:-1 73:-1 74:-1 75:-1 76:-1 77:-1 78:-1 79:0.291909 80:-0.326732 81:-0.498591 82:-1 83:-1 84:-1 85:-1 86:-1 87:-1 88:-1 89:-1 90:-1 92:-1 93:-1 94:-1 95:-1 96:-1 97:-1 98:-1 99:-1 100:-1 101:-0.928642 102:0.940594 103:-1 104:-1 105:-1 107:-1 108:-1 109:-1 110:-1 111:-1 112:-1 113:-1 114:-1 115:-1 116:-0.885238 117:0.90099 118:-1 119:-1 120:-1 121:-1 122:-1 123:-1 124:-0.681236 125:-0.246392 126:-0.374289 127:-0.892503 128:0.283637 129:-0.521625 130:-0.586859 131:-1 132:-1 133:-1 134:-1 135:-1 136:-1 137:-1 138:-1 139:-1 140:-1 141:-1 142:-1 143:-0.782178 144:0.622238 145:-0.00714876 146:-1 150:-1 
-0.03125 0.03125 0.03125 0.03125 0.03125 1:-1 2:1 3:-0.618589 4:-1 5:-1 6:-1 7:-1 8:-1 9:-1 10:-1 11:-1 12:-1 13:-1 14:-1 15:-1 16:-1 17:-1 18:-1 19:1 20:-1 21:-1 22:-1 23:-1 24:-1 25:-1 26:-1 27:-1 28:-1 29:-1 30:-1 31:-0.837716 32:-0.106565 33:0.20163 34:-0.882609 35:-0.835227 36:-0.479169 37:-1 38:-1 39:-1 40:-1 41:-1 42:-1 43:-1 44:-1 45:-1 46:-1 47:-1 48:-1 49:-1 50:-1 51:-0.676921 52:-0.638787 53:1 54:0.490625 55:-0.873697 56:-1 57:-1 58:-1 59:-1 60:-1 61:-1 62:-1 63:-1 64:-1 65:-1 66:-1 67:-1 68:-0.747458 69:-0.164724 70:0.729167 71:-1 72:-1 73:-1 74:-1 75:-1 76:-1 77:-1 78:-1 79:-1 80:-0.816666 81:1 82:-1 83:-1 84:-1 85:-1 86:-1 87:-1 88:-1 89:-1 90:-1 92:-1 93:-1 94:-1 95:-1 96:-1 97:-1 98:1 99:-0.305554 100:-1 101:-1 102:-1 103:-1 104:-1 105:-1 107:-1 108:-1 109:-1 110:-1 111:-1 112:-0.637205 113:1 114:-0.294116 115:-1 116:-1 117:-1 118:-1 119:-1 120:-1 121:-1 122:-1 123:-1 124:-0.268292 125:0.0457138 126:-0.438253 127:-0.932143 128:-0.886272 129:-0.865789 130:-0.710225 131:-1 132:-1 133:-1 134:-1 135:-1 136:-1 137:-1 138:-1 139:-1 140:-1 141:-1 142:1 143:-1 144:-1 145:-1 146:-1 150:-1 
-0.03125 0.03125 0.03125 0.03125 0.03125 1:-1 2:-1 3:-0.559748 4:0.388288 5:-0.748428 6:-0.972598 7:0.164419 8:-1 9:-1 10:-1 11:-1 12:-1 13:-1 14:-1 15:-1 16:-0.91195 17:0.91195 18:-1 19:-1 20:-1 21:-1 22:-1 23:-1 24:-1 25:-1 26:-1 27:-1 28:-1 29:-1 30:-1 31:-1 32:-1 33:-0.878178 34:0.491386 35:-0.709835 36:-0.803456 37:-0.737944 38:-0.417862 39:-0.650597 40:-0.90648 41:-1 42:-1 43:-1 44:-1 45:-1 46:-1 47:-1 48:-1 49:-1 50:-1 51:-0.817125 52:-0.454774 53:-0.835929 54:-0.851416 55:-0.885613 56:0.228957 57:-0.266477 58:-1 59:-1 60:-1 61:-1 62:-1 63:-1 64:-1 65:-1 66:-1 67:-1 68:-1 69:-0.511951 70:-0.984278 71:-0.801689 72:0.44654 73:-0.753594 74:-1 75:-1 76:-1 77:-1 78:-1 79:-0.123403 80:-0.00629 81:-0.543016 82:-1 83:-1 84:-1 85:-1 86:-1 87:-1 88:-1 89:-1 90:-1 92:-1 93:-1 94:-1 95:-1 96:-1 97:-1 98:-1 99:-1 100:-1 101:-0.395632 102:0.496856 103:-1 104:-1 105:-1 107:-1 108:-1 109:-1 110:-1 111:-1 112:-1 113:-1 114:-1 115:-1 116:0.530874 117:-0.320754 118:-1 119:-1 120:-1 121:-1 122:-1 123:-0.883741 124:0.859181 125:-0.547169 126:-0.841014 127:-0.965857 128:-0.957087 129:-0.898709 130:-0.868782 131:-0.887347 132:-1 133:-1 134:-1 135:-1 136:-1 137:-1 138:-1 139:-1 140:-1 141:-1 142:-1 143:0.91195 144:-0.898404 145:-1 146:-1 150:-1 
-0.03125 -0.03125 0.03125 0.03125 0.03125 1:-0.739394 2:-0.976816 3:-0.919632 4:-0.294015 5:-0.820896 6:-0.869935 7:-0.155647 8:0.215354 9:-0.431807 10:-0.929332 11:-0.977439 12:-1 13:-1 14:-1 15:-1 16:-0.542288 17:-0.124378 18:-0.327824 19:-1 20:-1 21:-1 22:-1 23:-1 24:-1 25:-1 26:-1 27:-1 28:-1 29:-1 30:-1 31:-1 32:-0.871249 33:-0.743024 34:-0.264114 35:-0.590118 36:0.399256 37:-0.0326181 38:-0.787461 39:-0.896354 40:-1 41:-1 42:-1 43:-1 44:-1 45:-1 46:-1 47:-1 48:-1 49:-1 50:-1 51:-1 52:-0.865217 53:-0.610641 54:0.897387 55:-0.245959 56:-0.822166 57:-0.952954 58:-1 59:-1 60:-1 61:-1 62:-1 63:-1 64:-1 65:-1 66:-0.705004 67:0.382792 68:0.331818 69:-0.00265295 70:-0.676618 71:-0.932768 72:-0.880598 73:-0.649153 74:-1 75:-1 76:1 77:-0.332341 78:-0.742668 79:-0.734432 80:-0.293532 81:-0.33178 82:-0.430898 83:-0.978994 84:-1 85:-1 86:-1 87:-1 88:-1 89:-1 90:-1 92:-1 93:-1 94:-1 95:-1 96:-1 97:-1 98:-1 99:-0.968109 100:0.0264581 101:-0.557772 102:-0.412936 103:-0.83235 104:-1 105:-1 107:-1 108:-1 109:-1 110:-1 111:-1 112:-1 113:-0.879256 114:0.327482 115:0.255225 116:-0.919267 117:-0.880598 118:-0.679284 119:-0.903051 120:-1 121:-1 122:-1 123:-0.79768 124:-0.0826347 125:-0.764605 126:0.38341 127:-0.68941 128:-0.728416 129:-0.919876 130:-0.861605 131:-1 132:-1 133:-1 134:-1 135:-1 136:-1 137:-1 138:-1 139:-1 140:-0.975125 141:-0.889812 142:-0.333334 143:0.18408 144:-0.931113 145:-1 146:-1 150:-1 
-0.03125 -0.03125 0.03125 0.03125 0.03125 1:-1 2:-0.96321 3:-0.376518 4:-0.300563 5:-0.536844 6:-0.816542 7:-0.9594 8:-0.918366 9:-0.899821 10:-0.887864 11:-1 12:-0.172817 13:-0.87981 14:-1 15:-1 16:-0.694736 17:0.263158 18:-0.702828 19:-0.91579 20:-0.835678 21:-0.94656 22:-0.9436 23:-1 24:-1 25:-1 26:-1 27:-1 28:-1 29:-1 30:-1 31:-1 32:-0.961086 33:-0.071167 34:-0.456293 35:-0.219499 36:-0.769737 37:-1 38:-0.962527 39:-0.963451 40:-0.921742 41:-0.892856 42:-1 43:-1 44:-1 45:-1 46:-1 47:-1 48:-1 49:-1 50:-0.924928 51:-0.872468 52:-0.914452 53:-0.615561 54:-0.644738 55:-0.537334 56:-0.435611 57:0.111557 58:-0.972083 59:-0.958738 60:1 61:-1 62:-1 63:-0.442106 64:-0.678009 65:-1 66:-0.492879 67:-0.239319 68:-0.734164 69:-0.625616 70:-0.644737 71:-0.857752 72:-0.421052 73:-1 74:-1 75:-1 76:-1 77:-1 78:-0.977315 79:-0.921959 80:0.094736 81:-0.872525 82:-0.555005 83:-0.91111 84:-0.838946 85:0.130792 86:-0.699034 87:-1 88:-1 89:-1 90:-1 92:-1 93:-1 94:-1 95:-1 96:-0.69749 97:-0.708844 98:-0.986563 99:-0.865048 100:-0.815168 101:-0.772407 102:-0.757894 103:0.517381 104:-0.72222 105:-0.678571 107:-1 108:-1 109:-1 110:-1 111:-1 112:-0.895848 113:-0.886458 114:-0.55418 115:-0.404737 116:-0.62177 117:-0.831578 118:0.160713 119:-1 120:1 121:-1 122:-1 123:-1 124:-0.630294 125:-0.11218 126:-0.756082 127:-0.942856 128:-0.892263 129:-0.915238 130:-0.853586 131:-0.560063 132:0.329742 133:0.147375 134:-1 135:-0.561417 136:-1 137:-0.893078 138:-0.580304 139:-0.143534 140:-0.894735 141:-0.694012 142:-0.631578 143:-0.568422 144:-0.125507 145:-1 146:-1 150:-1 
-0.03125 -0.03125 0.03125 0.03125 0.03125 1:-1 2:-0.0141891 3:-0.213017 4:-0.982674 5:-0.784616 6:-0.7989 7:-0.703293 8:-0.761383 9:-0.70716 10:-0.927159 11:-1 12:-1 13:-1 14:-1 15:-1 16:-0.938462 17:-0.353846 18:-0.56567 19:-0.4 20:-0.0393139 21:-0.609463 22:-1 23:-1 24:-1 25:-1 26:-1 27:-1 28:-1 29:-1 30:-1 31:-0.775302 32:0.478787 33:-0.536454 34:-0.783277 35:-0.87325 36:-0.423075 37:-0.465812 38:-0.890459 39:-1 40:-0.961874 41:-0.968683 42:-0.875641 43:-0.964869 44:-1 45:-1 46:-1 47:-1 48:-0.917788 49:-0.954329 50:-0.94514 51:-0.850889 52:-0.833288 53:-0.638794 54:-0.402885 55:-0.580287 56:-0.193453 57:-0.539297 58:-0.877592 59:-0.939695 60:-1 61:-1 62:-0.816104 63:-0.9396 64:-0.700528 65:-0.685471 66:-0.828959 67:-0.230313 68:-0.84459 69:0.119231 70:-0.442308 71:-0.670824 72:-1 73:-1 74:-1 75:-1 76:-1 77:-0.906157 78:-0.867375 79:-0.543767 80:-0.338462 81:-0.508821 82:0.262491 83:-1 84:-1 85:-1 86:-1 87:-1 88:-1 89:-1 90:-1 92:-1 93:-1 94:-1 95:-1 96:-1 97:1 98:-0.862521 99:-0.679487 100:-0.577909 101:-0.297769 102:-1 103:-1 104:-1 105:-1 107:-1 108:-1 109:-1 110:-1 111:-1 112:-0.93911 113:-0.87554 114:-0.837102 115:-0.13 116:-0.500698 117:-0.338462 118:-0.817308 119:-1 120:-1 121:-1 122:-1 123:-0.800933 124:-0.414634 125:-0.461979 126:-0.935181 127:-0.665934 128:0.469688 129:-0.587045 130:-0.625526 131:-1 132:-1 133:-1 134:-1 135:-1 136:-1 137:-1 138:-1 139:-0.499304 140:1 141:-0.42501 142:-0.276924 143:-1 144:-1 145:-1 146:-1 150:-1 
-0.03125 -0.03125 0.03125 0.03125 0.03125 1:-0.939091 2:-0.837436 3:0.189623 4:-0.554754 5:-0.790696 6:-0.569353 7:-0.506648 8:-0.842191 9:-0.926222 10:-0.958709 11:-1 12:-1 13:-1 14:-1 15:-1 16:-0.918604 17:-0.523256 18:-0.613109 19:-0.88372 20:-0.636948 21:-0.822897 22:-0.87539 23:-0.857689 24:-1 25:-0.361239 26:-0.826549 27:0.561085 28:1 29:1 30:1 31:-0.0376378 32:-0.484144 33:-0.824824 34:-0.699697 35:-0.789246 36:-0.0915687 37:-0.313632 38:-0.544655 39:-0.434757 40:-0.79828 41:-0.786958 42:-0.968669 43:-1 44:-1 45:-1 46:-1 47:-0.80666 48:0.0148984 49:-0.13699 50:-0.709739 51:-0.74642 52:-0.432983 53:-0.84833 54:-0.921511 55:-0.894258 56:-0.459674 57:-0.981673 58:-1 59:-1 60:-1 61:-1 62:-1 63:-1 64:-1 65:-0.966039 66:-0.741448 67:-0.741448 68:-0.735709 69:-0.304459 70:-0.752908 71:-0.698827 72:-0.5 73:-0.0888832 74:1 75:-1 76:-1 77:-0.858138 78:-0.548918 79:-0.672414 80:-0.5 81:-0.667164 82:-0.0168774 83:-0.484496 84:-0.78651 85:-0.962147 86:-0.966754 87:-0.952004 88:-1 89:-1 90:-1 92:-1 93:-1 94:-1 95:-1 96:-1 97:-0.967837 98:-0.910934 99:-0.590042 100:-0.693739 101:-0.301636 102:-0.790698 103:-0.586398 104:-0.202195 105:-0.881644 107:-1 108:-0.39112 109:0.227911 110:-0.12672 111:-0.85465 112:-0.838928 113:-0.921609 114:-0.87688 115:-0.511045 116:-0.5148 117:-0.953488 118:-1 119:-1 120:-1 121:-1 122:-1 123:-0.935518 124:-0.81282 125:-0.689036 126:0.518681 127:-0.526577 128:0.0711388 129:-0.625461 130:-1 131:-0.965287 132:-1 133:-1 134:-1 135:-1 136:-1 137:-0.763769 138:0.159039 139:-0.432342 140:-0.476745 141:-0.484934 142:-0.686046 143:-0.197674 144:-0.973166 145:-0.969315 146:-1 150:-1 
-0.03125 -0.03125 0.03125 0.03125 0.03125 1:-1 2:-0.886732 3:-0.551281 4:-0.608954 5:0.027776 6:-0.243551 7:0.339286 8:-0.973074 9:-1 10:-1 11:-1 12:-1 13:-1 14:-1 15:-1 16:-0.083334 17:-0.25 18:-0.663911 19:-1 20:-1 21:-1 22:-1 23:-1 24:-1 25:-1 26:-1 27:-1 28:-1 29:-1 30:-1 31:-1 32:-1 33:-1 34:-0.608695 35:-0.885575 36:-0.0885438 37:-0.51775 38:-0.752779 39:-0.951778 40:-0.380435 41:-0.123511 42:-0.139276 43:-0.8097 44:-1 45:-1 46:-1 47:-1 48:-0.678385 49:0.731773 50:-0.207547 51:-0.966348 52:-1 53:-0.166667 54:-0.507814 55:-0.894749 56:-0.983453 57:-0.518417 58:-1 59:-1 60:-1 61:-1 62:-1 63:-1 64:-1 65:-1 66:-1 67:-0.922799 68:-0.0178926 69:0.0104162 70:-0.479168 71:-0.593342 72:-0.805556 73:-1 74:-1 75:-1 76:-1 77:-0.745837 78:-0.820401 79:-0.0938689 80:-0.125 81:-0.571866 82:-1 83:-1 84:-1 85:-1 86:-1 87:-1 88:-1 89:-1 90:-1 92:-1 93:-1 94:-1 95:-0.890546 96:-0.334751 97:-0.807921 98:-0.964539 99:-0.755163 100:-0.862821 101:-0.149161 102:-0.597222 103:-0.869994 104:-0.816745 105:-0.764387 107:-1 108:-1 109:-1 110:-1 111:-1 112:-0.80761 113:-0.513108 114:-0.0882339 115:-0.254862 116:-0.323863 117:-0.986112 118:-1 119:-1 120:-1 121:-1 122:-1 123:-1 124:-0.979676 125:-0.0571433 126:0.550663 127:-0.698413 128:-0.620911 129:-1 130:-1 131:-1 132:-1 133:-1 134:-1 135:-1 136:-1 137:-1 138:-0.907712 139:-0.773988 140:0.52778 141:0.864874 142:-1 143:-1 144:-1 145:-1 146:-1 150:-1 
-0.03125 -0.03125 0.03125 0.03125 0.03125 1:-1 2:-1 3:-0.894122 4:-0.240754 5:-0.370788 6:-0.559388 7:0.516854 8:-0.695023 9:-0.821774 10:-0.933501 11:-0.974523 12:-0.862039 13:-1 14:-1 15:-1 16:-0.516854 17:-0.404494 18:-0.376915 19:-0.797752 20:-0.707656 21:-0.828867 22:-0.939795 23:-1 24:-1 25:-1 26:-1 27:-1 28:-1 29:-1 30:-1 31:-1 32:-1 33:-0.975818 34:-0.432829 35:-0.537157 36:-0.57865 37:-0.375778 38:1 39:-0.336764 40:-0.721543 41:-0.93138 42:-1 43:-1 44:-1 45:-1 46:-1 47:-1 48:-0.899929 49:0.43434 50:-0.238707 51:-0.891097 52:-0.878243 53:-0.179288 54:-0.658707 55:-0.710498 56:-0.584988 57:-0.84062 58:-1 59:-1 60:-1 61:-1 62:-1 63:-1 64:-0.937509 65:-0.770286 66:-0.833443 67:-0.500328 68:-0.404111 69:-0.00093605 70:-0.606742 71:-0.633061 72:-0.741574 73:-1 74:-0.83895 75:-1 76:-1 77:-1 78:-0.830491 79:0.0495938 80:-0.202248 81:-0.727862 82:-0.636769 83:-0.952559 84:-1 85:-1 86:-1 87:-1 88:-1 89:-1 90:-1 92:-1 93:-1 94:-1 95:-0.955727 96:-0.892364 97:-0.62706 98:-0.856562 99:-0.909968 100:-0.531432 101:0.0527224 102:-0.707866 103:-0.915861 104:-0.970349 105:-1 107:-1 108:-1 109:-1 110:-1 111:-1 112:-0.799888 113:-0.893952 114:-0.357569 115:-0.185393 116:-0.140448 117:-0.820224 118:-0.961878 119:-0.97263 120:-1 121:-1 122:-1 123:-1 124:-0.375171 125:-0.664848 126:0.0414444 127:-0.695023 128:-0.0799753 129:-0.517443 130:-0.726506 131:-1 132:-1 133:-1 134:-1 135:-1 136:1 137:-0.885866 138:-0.253348 139:0.00562223 140:-0.80337 141:-0.688934 142:-0.41573 143:-0.325842 144:-0.792566 145:-1 146:-1 150:-1 
-0.03125 -0.03125 0.03125 0.03125 0.03125 1:-1 2:-0.700601 3:-0.684144 4:-0.836415 5:-0.620112 6:-0.878292 7:-0.439742 8:-0.545093 9:0.630515 10:-0.761942 11:-0.949332 12:-1 13:-1 14:-1 15:-1 16:-1 17:-0.899442 18:0.0589603 19:-0.843576 20:-0.941854 21:-0.546195 22:-0.221711 23:-0.498599 24:-0.424578 25:-0.232779 26:1 27:1 28:-1 29:-1 30:-1 31:-0.9456 32:-0.793465 33:-0.555137 34:-0.921301 35:-0.687024 36:0.222069 37:-0.379271 38:0.153518 39:-0.146493 40:-0.833857 41:-1 42:-1 43:-1 44:-1 45:-1 46:-1 47:-1 48:-1 49:-1 50:-0.721093 51:-0.323161 52:-0.152462 53:-0.213018 54:-0.24581 55:-0.424232 56:-0.813623 57:-0.964781 58:-0.940734 59:-1 60:-1 61:-1 62:-1 63:-1 64:-0.502873 65:0.109515 66:0.159386 67:0.73908 68:-0.68961 69:-0.945809 70:-0.76257 71:-0.471538 72:-1 73:-1 74:-1 75:-1 76:-1 77:-1 78:-1 79:-0.751493 80:-0.463688 81:-0.483368 82:0.583727 83:-0.622596 84:-0.965808 85:-1 86:-1 87:-1 88:-1 89:-1 90:-1 92:-1 93:-1 94:-1 95:-0.603772 96:0.177378 97:0.0816622 98:-0.786045 99:-0.230054 100:-0.472741 101:-0.986578 102:-1 103:-1 104:-1 105:-1 107:-1 108:-0.97562 109:-0.926258 110:-0.706306 111:-0.734638 112:-0.668345 113:-0.42753 114:0.348671 115:-0.756983 116:-0.961147 117:-0.865922 118:-0.810455 119:-1 120:-1 121:-0.650813 122:0.024963 123:-0.938039 124:-0.901893 125:-0.712689 126:-0.270356 127:-0.332801 128:0.219851 129:-0.250219 130:-0.844594 131:-1 132:-1 133:-1 134:-1 135:-1 136:-1 137:-1 138:-1 139:1 140:-0.05028 141:-0.164818 142:-0.351956 143:-0.877094 144:-1 145:-1 146:-1 150:-1 
-0.03125 -0.03125 0.03125 0.03125 0.03125 1:-1 2:-0.98869 3:-0.725541 4:-0.507964 5:-0.495144 6:-0.217404 7:0.46047 8:-0.510598 9:-0.845998 10:-0.94254 11:-1 12:-0.97616 13:-1 14:-1 15:-1 16:-1 17:-0.184466 18:-0.833588 19:-0.980582 20:-0.191657 21:-0.70426 22:-0.271703 23:-0.207857 24:1 25:1 26:-1 27:-1 28:-1 29:-1 30:-1 31:-1 32:-1 33:-0.655235 34:-0.464332 35:-0.584068 36:-0.0594687 37:-0.528049 38:-0.688934 39:-0.696604 40:-0.398482 41:-0.802357 42:-0.947679 43:-1 44:-1 45:-1 46:-1 47:-1 48:-0.688713 49:-0.798238 50:-0.238322 51:-0.505973 52:-0.053136 53:-0.544109 54:-0.85255 55:-0.749849 56:-0.768644 57:-0.433832 58:-0.974253 59:-1 60:-1 61:-1 62:-0.88395 63:-0.6379 64:-0.649021 65:-0.0642628 66:-0.136491 67:0.241287 68:-0.754812 69:-0.795954 70:-0.902913 71:-0.781336 72:-0.68932 73:-0.847856 74:-0.721674 75:-1 76:-1 77:-0.822331 78:-0.560595 79:-0.36659 80:-0.679612 81:-0.668657 82:-0.444714 83:-0.590077 84:-0.435533 85:-0.778762 86:-0.861205 87:-1 88:-1 89:-1 90:-1 92:-1 93:-1 94:-1 95:-1 96:-1 97:-0.785168 98:-0.727329 99:-0.393205 100:-0.403335 101:-0.381914 102:-0.76699 103:-0.927299 104:-1 105:-1 107:-1 108:-1 109:-1 110:-1 111:-1 112:-0.903938 113:-0.738192 114:-0.342089 115:-0.549514 116:-0.0547218 117:-0.747572 118:-0.884707 119:-1 120:-1 121:-1 122:-1 123:-0.802589 124:-0.80109 125:-0.111234 126:0.145315 127:-0.815534 128:-0.635637 129:-0.765459 130:-0.966243 131:-0.971019 132:-1 133:-1 134:-1 135:-1 136:-1 137:-0.21104 138:1 139:0.81685 140:-0.660195 141:-0.932804 142:-0.737864 143:-0.37864 144:-0.619118 145:-1 146:-1 150:-1 
-0.03125 -0.03125 0.03125 0.03125 0.03125 1:-0.43372 2:-0.521386 3:-0.403325 4:-0.79302 5:-0.675676 6:-0.717374 7:-0.332822 8:-0.895201 9:-0.862812 10:-0.692884 11:-1 12:-0.920357 13:-1 14:-1 15:-1 16:-0.308108 17:-0.535136 18:-0.204288 19:-0.967568 20:-0.887486 21:-1 22:-1 23:-1 24:-1 25:-1 26:-1 27:-1 28:-1 29:-1 30:-1 31:1 32:0.558723 33:-0.744066 34:-0.784254 35:-0.661547 36:-0.89865 37:-0.774778 38:-0.923026 39:-1 40:-1 41:-1 42:-1 43:-1 44:-1 45:-1 46:-1 47:-1 48:-1 49:-1 50:-1 51:-1 52:-1 53:-0.943595 54:-0.562162 55:-0.737839 56:-0.201381 57:-0.591069 58:-0.0251453 59:-0.0252997 60:-1 61:-1 62:-1 63:-1 64:-0.819625 65:-0.905278 66:-0.759621 67:-0.519239 68:-0.508568 69:-0.58054 70:-0.716215 71:-0.829559 72:-0.437838 73:-0.0681972 74:0.704502 75:-1 76:-1 77:0.0551319 78:-0.580616 79:0.266355 80:-0.72973 81:-0.809572 82:-0.865582 83:-0.977179 84:-1 85:-0.96481 86:-0.289077 87:-0.95538 88:-1 89:-1 90:-1 92:-1 93:-1 94:-1 95:-1 96:-1 97:-1 98:-0.972397 99:-0.410949 100:-0.205101 101:-0.558483 102:-0.632432 103:-0.817849 104:-0.857357 105:-1 107:-1 108:-1 109:-1 110:-1 111:-1 112:-0.978608 113:-0.941694 114:-0.67949 115:-0.263243 116:-0.385995 117:-0.416216 118:-0.743242 119:-0.947331 120:-1 121:-1 122:-0.504134 123:-0.200657 124:-0.303888 125:-0.810965 126:0.0931309 127:-0.794594 128:-0.52051 129:-0.912946 130:-0.924814 131:-1 132:-1 133:-1 134:-1 135:-1 136:-1 137:-1 138:-0.640801 139:-0.0324397 140:-0.54054 141:-0.640846 142:-0.18919 143:-0.45946 144:-0.962578 145:-1 146:-1 150:-1 
-0.03125 -0.03125 0.03125 0.03125 0.03125 1:-0.556564 2:-0.728772 3:-0.68661 4:-0.0108398 5:-0.301588 6:-0.585034 7:-0.959184 8:-1 9:-0.966429 10:-0.987474 11:-1 12:-1 13:-1 14:-1 15:-1 16:-0.57672 17:-0.248678 18:-0.669247 19:-0.904762 20:-0.724672 21:-0.355313 22:-0.489696 23:-0.654642 24:-0.795635 25:-0.854675 26:-1 27:-1 28:-1 29:-1 30:-1 31:-0.845447 32:-0.882636 33:-0.84058 34:-0.689441 35:-0.250242 36:-0.338625 37:-0.595826 38:-0.472593 39:-0.669312 40:-0.711526 41:-0.633787 42:-0.771899 43:-0.806681 44:-1 45:-1 46:-0.661376 47:-0.863151 48:-0.943452 49:-0.780093 50:-0.509434 51:-0.512821 52:-0.77066 53:-0.585921 54:-0.785715 55:-0.663195 56:-0.420017 57:-0.633081 58:-0.775477 59:-0.834074 60:-1 61:-1 62:-1 63:-1 64:-0.970573 65:-0.938188 66:-0.215686 67:1 68:-0.358623 69:-0.503881 70:-0.960318 71:-0.571 72:-0.57672 73:-1 74:-1 75:-1 76:-1 77:-1 78:-0.88597 79:0.114029 80:-0.174604 81:-0.732052 82:-0.684225 83:-1 84:-1 85:-1 86:-1 87:-1 88:-1 89:-1 90:-1 92:1 93:0.552023 94:-0.746032 95:-0.66643 96:-0.763468 97:-0.736575 98:-0.932455 99:-0.949125 100:-0.84903 101:-0.504274 102:-0.333334 103:-0.920758 104:-0.776602 105:-0.946145 107:-1 108:-1 109:-1 110:-1 111:-1 112:-1 113:-1 114:-0.77591 115:-0.416932 116:-0.423521 117:-0.015874 118:-0.982048 119:-1 120:-1 121:-1 122:-0.878659 123:-0.334938 124:-0.00890488 125:-0.346939 126:-0.843959 127:-0.842026 128:-0.711173 129:-0.914787 130:-0.963204 131:-1 132:-1 133:-1 134:-1 135:-1 136:-1 137:-1 138:-1 139:-0.913901 140:-0.761905 141:-0.882816 142:-0.544974 143:-0.142858 144:-0.71917 145:-0.329806 146:-1 150:-1 
-0.03125 -0.03125 0.03125 0.03125 0.03125 1:-1 2:-0.898692 3:-0.604933 4:-0.951034 5:-0.913044 6:-0.644797 7:-0.413043 8:-0.452086 9:1 10:-0.639752 11:-1 12:-1 13:-1 14:-1 15:-1 16:-0.836956 17:-0.543478 18:-0.419153 19:-0.880434 20:0.696853 21:0.765883 22:-0.941756 23:-1 24:-1 25:-1 26:-1 27:-1 28:-1 29:-1 30:-1 31:-0.84125 32:-0.598154 33:-0.0876656 34:-0.706522 35:-0.820899 36:-0.592394 37:-0.320653 38:-0.458261 39:-0.773549 40:-1 41:-1 42:-1 43:-1 44:-1 45:-1 46:-1 47:-1 48:-1 49:-1 50:-1 51:-1 52:-1 53:-1 54:-0.358018 55:-0.357506 56:-0.158187 57:-0.48606 58:-0.596408 59:-0.95739 60:-1 61:-1 62:-1 63:-1 64:-0.607059 65:1 66:0.369569 67:-0.637464 68:-0.643147 69:-0.718839 70:-0.538042 71:-0.963279 72:-0.97826 73:-1 74:-1 75:-1 76:-0.453769 77:-0.867386 78:-0.836022 79:-0.903298 80:-0.347826 81:-0.0905472 82:-0.405349 83:-0.770531 84:-1 85:-1 86:-1 87:-1 88:-1 89:-1 90:-1 92:-1 93:-1 94:-1 95:-1 96:-0.93058 97:-0.909808 98:-0.888992 99:-0.0245256 100:-0.0457071 101:-0.725818 102:-0.923914 103:-0.877906 104:-0.971315 105:-1 107:-1 108:-1 109:-0.641303 110:1 111:-0.483695 112:-0.935473 113:-0.956034 114:0.219947 115:-0.700543 116:-0.924406 117:-0.967392 118:-1 119:-1 120:-1 121:-1 122:-1 123:-0.919632 124:-0.809121 125:-0.429813 126:-0.152797 127:-0.601708 128:-0.406645 129:-0.153888 130:-0.697631 131:-1 132:-1 133:-1 134:-1 135:-1 136:-1 137:-1 138:-0.927767 139:0.857207 140:0.902175 141:-0.54862 142:-0.369566 143:-0.956522 144:-1 145:-1 146:-1 150:-1 
-0.03125 -0.03125 0.03125 0.03125 0.03125 1:-1 2:-1 3:-0.837277 4:-0.170809 5:-0.802196 6:-0.640893 7:-0.491366 8:-0.552588 9:-0.058731 10:-0.856918 11:-0.850499 12:-0.973012 13:-0.974903 14:-0.928931 15:-1 16:-0.406594 17:-0.351648 18:-0.423849 19:-0.901098 20:-0.828444 21:-0.832624 22:-0.941113 23:-0.955166 24:-1 25:-1 26:-1 27:-1 28:-1 29:-1 30:-1 31:-0.625501 32:-0.370296 33:-0.373268 34:-0.316292 35:-0.674076 36:-0.62225 37:-0.847375 38:-0.882634 39:-1 40:-1 41:-0.955259 42:-1 43:-1 44:-1 45:-1 46:-0.91208 47:-0.959397 48:-0.882555 49:-0.706385 50:-0.686502 51:-0.680473 52:-0.255743 53:-0.397991 54:-0.740385 55:-0.71686 56:-0.685761 57:-0.255255 58:-1 59:-1 60:-1 61:-1 62:-1 63:-1 64:-0.938883 65:-0.775333 66:-0.511312 67:-0.205877 68:-0.417208 69:-0.68022 70:-0.615385 71:-0.82675 72:-0.351648 73:-0.784732 74:-0.68498 75:0.208888 76:-1 77:-1 78:-1 79:-0.511179 80:-0.67033 81:-0.564473 82:-0.371485 83:-0.443224 84:-0.26022 85:-0.534952 86:-0.874323 87:-1 88:-1 89:-1 90:-1 92:-1 93:-1 94:-1 95:-1 96:-0.578921 97:-0.300909 98:-0.663316 99:-0.647788 100:-0.758806 101:-0.115612 102:-0.923076 103:-0.91771 104:-0.884005 105:-0.981356 107:-1 108:-1 109:-1 110:-1 111:-0.945055 112:-0.804285 113:-0.585135 114:-0.301875 115:-0.362638 116:-0.108392 117:-0.98901 118:-1 119:-1 120:-1 121:-1 122:-0.873981 123:-0.817181 124:0.238275 125:-0.333124 126:-0.76851 127:-0.746467 128:-0.812537 129:-0.911507 130:-0.961785 131:-1 132:-1 133:-1 134:-1 135:-1 136:-1 137:-0.441867 138:0.241413 139:0.609389 140:-0.642855 141:-0.695773 142:-0.725274 143:-0.23077 144:-0.860523 145:-0.913001 146:-1 150:-1 
-0.03125 -0.03125 -0.03125 0.03125 0.03125 1:-1 2:-0.990934 3:-0.832385 4:-0.377733 5:-0.284048 6:-0.169262 7:-0.00944615 8:-0.72842 9:-0.950624 10:-1 11:-1 12:-0.923559 13:-0.893375 14:-0.446427 15:-1 16:-0.797666 17:0.338522 18:-0.5606 19:-0.976654 20:-1 21:-1 22:-1 23:-1 24:-1 25:-1 26:-1 27:-1 28:-1 29:-1 30:-1 31:-1 32:-1 33:-0.72365 34:-0.214347 35:-0.384508 36:0.313231 37:-0.459576 38:-0.750665 39:-0.810854 40:-1 41:-1 42:-1 43:-1 44:-1 45:-1 46:-1 47:-1 48:-1 49:-1 50:-1 51:-0.849149 52:-0.873507 53:-0.65488 54:-0.540369 55:-0.563594 56:-0.267489 57:-0.0923697 58:-0.979361 59:-1 60:-1 61:-0.39612 62:-0.851169 63:-0.938897 64:-0.97836 65:-0.954543 66:-1 67:-0.178072 68:-0.567632 69:-0.597405 70:-0.688715 71:-0.684509 72:-0.40856 73:-0.451202 74:-0.888457 75:-1 76:-0.608945 77:-0.95253 78:-0.916142 79:-0.826915 80:-0.252918 81:-0.39171 82:0.0256556 83:-0.769994 84:-0.976187 85:-1 86:-1 87:-1 88:-1 89:-1 90:-1 92:-1 93:-1 94:-1 95:-1 96:-1 97:-0.956951 98:-0.930459 99:-1 100:-0.940218 101:-0.943914 102:-0.190662 103:0.689985 104:-0.691957 105:-1 107:-1 108:-1 109:-1 110:-1 111:-1 112:-0.9846 113:-0.95803 114:-0.967041 115:-0.954864 116:-0.702334 117:-0.431906 118:0.689825 119:-0.772521 120:-1 121:-1 122:-1 123:-0.899306 124:-0.806396 125:-0.559755 126:1 127:-0.450805 128:-0.893798 129:-1 130:-1 131:-1 132:-1 133:-1 134:-1 135:-1 136:-1 137:-1 138:-1 139:-1 140:-1 141:-0.989228 142:-0.603112 143:-0.66537 144:0.113438 145:-0.219627 146:-1 150:-1 
-0.03125 -0.03125 -0.03125 0.03125 0.03125 1:-0.44077 2:-0.726358 3:-0.770053 4:-0.583182 5:-0.50178 6:-0.364262 7:0.811895 8:-0.862009 9:-0.909681 10:-0.991575 11:-1 12:-1 13:-1 14:-1 15:-1 16:-0.857652 17:-0.50178 18:-0.519191 19:-0.729538 20:-0.185184 21:-0.096634 22:0.0296844 23:-0.76771 24:-0.816725 25:-1 26:-1 27:-1 28:-1 29:-1 30:-1 31:-0.272335 32:-0.421114 33:-0.494508 34:-0.64908 35:-0.695082 36:-0.354981 37:-0.481021 38:-0.543914 39:-0.678729 40:-0.98236 41:-1 42:-1 43:-1 44:-1 45:-1 46:-1 47:-1 48:-1 49:-1 50:-1 51:-1 52:-0.7879 53:-0.610088 54:-0.543596 55:-0.568505 56:-0.567501 57:0.110551 58:-0.60359 59:-1 60:-1 61:-1 62:-1 63:-1 64:-1 65:-1 66:-1 67:-0.169144 68:-0.460761 69:-0.689325 70:-0.430605 71:-0.519092 72:-0.508896 73:-0.721154 74:-1 75:-1 76:-1 77:-1 78:-1 79:-1 80:-0.765124 81:-0.357471 82:1 83:-0.218665 84:-0.978219 85:-1 86:-1 87:-1 88:-1 89:-1 90:-1 92:-1 93:-1 94:-0.943061 95:0.794868 96:1 97:-0.0944188 98:-0.863708 99:-0.623596 100:-0.945324 101:-0.820464 102:-0.978648 103:-0.986674 104:-1 105:-1 107:-1 108:-0.906828 109:-0.624196 110:-0.679276 111:-0.519572 112:0.211268 113:-0.52977 114:-0.231315 115:-0.958718 116:-0.983501 117:-0.992882 118:-1 119:-1 120:-1 121:-1 122:-1 123:-1 124:-1 125:-0.897509 126:0.754215 127:0.081852 128:-0.29579 129:-0.885373 130:-0.925753 131:-1 132:-1 133:-1 134:-1 135:-1 136:-1 137:-1 138:-1 139:-1 140:-1 141:-1 142:-1 143:0.395018 144:-0.301944 145:-1 146:-1 150:-1 
-0.03125 -0.03125 -0.03125 0.03125 0.03125 1:-1 2:-0.932038 3:-0.338142 4:-0.605825 5:0.266668 6:-0.509821 7:-0.485711 8:-0.967688 9:-0.81494 10:-0.960543 11:-1 12:-1 13:-1 14:-1 15:-1 16:-0.141666 17:-0.3 18:-0.554684 19:-1 20:-1 21:-1 22:-1 23:-1 24:-1 25:-1 26:-1 27:-1 28:-1 29:-1 30:-1 31:-1 32:-0.892171 33:-0.713044 34:-0.618478 35:-0.49195 36:0.354169 37:-0.508104 38:-0.288 39:-0.565972 40:-0.979346 41:-0.949107 42:-0.955094 43:-0.923879 44:-0.668813 45:-1 46:-0.6 47:-0.96921 48:-0.896093 49:-0.950523 50:-1 51:-0.959617 52:-0.616214 53:-0.521737 54:-0.803126 55:-0.381119 56:-0.295036 57:-0.645381 58:-0.557973 59:-0.967331 60:-1 61:-1 62:-1 63:-1 64:-1 65:-1 66:-1 67:-1 68:-0.726411 69:-0.622777 70:-0.447918 71:-0.568318 72:-0.433334 73:-0.183788 74:-0.163874 75:-1 76:-1 77:-1 78:-0.551004 79:-0.604599 80:-0.575 81:-0.100918 82:-0.295426 83:-1 84:-1 85:-1 86:-1 87:-1 88:-1 89:-1 90:-1 92:-1 93:-1 94:-1 95:-1 96:-0.946782 97:-0.976948 98:-0.904255 99:-0.519231 100:-0.405556 101:-0.159171 102:-0.766666 103:-0.78159 104:-0.978007 105:-1 107:-1 108:-1 109:-1 110:-1 111:-1 112:-1 113:-0.910113 114:-0.205882 115:-0.323334 116:-0.140342 117:-0.666666 118:-0.971727 119:-1 120:-1 121:-1 122:-0.331101 123:-0.614898 124:-0.731706 125:-0.657142 126:-0.0169409 127:-0.581547 128:0.478436 129:-0.97763 130:-1 131:-1 132:-1 133:-1 134:-1 135:-1 136:-1 137:-1 138:-1 139:-1 140:-0.8125 141:-0.988464 142:0.45 143:-0.533334 144:-1 145:-1 146:-1 150:-1 
-0.03125 -0.03125 -0.03125 0.03125 0.03125 1:-0.854088 2:-0.889661 3:-0.460039 4:-0.353761 5:-0.35376 6:-0.587343 7:-0.140466 8:-0.719176 9:-0.982323 10:-0.980216 11:-1 12:-1 13:-1 14:-1 15:-1 16:-0.593314 17:-0.88858 18:-0.94383 19:-0.983286 20:-0.0723262 21:-0.406042 22:1 23:1 24:-0.0316853 25:-0.464431 26:-0.335193 27:-0.501387 28:-0.963139 29:-1 30:-1 31:-0.566048 32:-0.660167 33:-0.610332 34:-0.731864 35:-0.458409 36:-0.582175 37:-0.361653 38:-0.722341 39:-0.53575 40:-0.710063 41:-0.943293 42:-0.714793 43:-0.936388 44:-1 45:-1 46:-1 47:-1 48:-1 49:-1 50:-0.940397 51:-0.568033 52:0.222487 53:-0.21521 54:-0.783774 55:-0.772023 56:-0.787591 57:-0.675124 58:-0.394211 59:-0.454038 60:0.411362 61:-1 62:-1 63:-1 64:-1 65:-0.983726 66:-0.896769 67:-0.411598 68:-0.634202 69:-0.405571 70:-0.568245 71:-0.648673 72:-0.50975 73:-0.279735 74:-0.760431 75:-1 76:-1 77:-0.762112 78:-0.831909 79:-0.743925 80:-0.03064 81:-0.429608 82:-0.54283 83:-0.952956 84:-0.948855 85:-1 86:-1 87:-1 88:-1 89:-1 90:-1 92:-1 93:-1 94:-1 95:-0.978045 96:-0.911051 97:-0.95377 98:-0.950215 99:-0.928577 100:-0.755445 101:-0.243824 102:-0.29248 103:-0.603678 104:-0.76478 105:-0.990548 107:-1 108:-0.987843 109:-0.944844 110:-0.832642 111:-0.839832 112:-0.272392 113:-0.188757 114:-0.374735 115:-0.733426 116:-0.870854 117:-0.849582 118:-0.839335 119:-1 120:-1 121:-1 122:-0.552821 123:-0.639572 124:-0.649433 125:-0.782251 126:0.243986 127:-0.251492 128:-0.410781 129:-1 130:-1 131:-1 132:-1 133:-1 134:-1 135:-1 136:-1 137:-1 138:-1 139:-1 140:-1 141:-0.992287 142:-0.24791 143:-0.052924 144:-0.659311 145:-1 146:-1 150:-1 
-0.03125 -0.03125 -0.03125 0.03125 0.03125 1:-1 2:-1 3:-0.802762 4:-0.0594269 5:0.186812 6:-0.377551 7:-0.463108 8:-1 9:-1 10:-1 11:-1 12:-1 13:-1 14:-1 15:-1 16:-0.113554 17:-0.245422 18:-0.667605 19:-0.970696 20:-1 21:-1 22:-1 23:-1 24:-1 25:-1 26:-1 27:-1 28:-1 29:-1 30:-1 31:-1 32:-1 33:-0.968466 34:0.0148101 35:-0.32401 36:0.64835 37:-0.414937 38:-1 39:-1 40:-1 41:-1 42:-1 43:-1 44:-1 45:-1 46:-1 47:-1 48:-1 49:-1 50:-1 51:-1 52:-1 53:-1 54:-0.913462 55:-0.022895 56:0.0649195 57:-0.353401 58:-1 59:-1 60:-1 61:-1 62:-1 63:-1 64:-1 65:-1 66:-1 67:-1 68:-1 69:-0.834188 70:-0.789378 71:-0.24925 72:0.04762 73:-0.942596 74:-1 75:-1 76:-1 77:-1 78:-1 79:0.792346 80:-0.333334 81:-0.862889 82:-1 83:-1 84:-1 85:-1 86:-1 87:-1 88:-1 89:-1 90:-1 92:-1 93:-1 94:-1 95:-1 96:-1 97:-1 98:-0.84101 99:-0.40124 100:-0.0593416 101:-0.366409 102:-0.882784 103:-1 104:-1 105:-1 107:-1 108:-1 109:-1 110:-1 111:-1 112:-1 113:-0.851834 114:-0.100194 115:-0.0545795 116:-0.176324 117:-0.897436 118:-1 119:-1 120:-1 121:-1 122:-1 123:-1 124:-0.260252 125:0.461853 126:-0.845674 127:-1 128:-1 129:-1 130:-1 131:-1 132:-1 133:-1 134:-1 135:-1 136:-1 137:-1 138:-1 139:-1 140:-1 141:-1 142:-0.912088 143:0.611722 144:-0.653424 145:-1 146:-1 150:-1 
-0.03125 -0.03125 -0.03125 0.03125 0.03125 1:-0.552614 2:-0.286874 3:-0.473035 4:-0.815637 5:-0.800712 6:-0.767411 7:-0.258772 8:-0.793012 9:-0.796788 10:-0.789382 11:-1 12:-1 13:-1 14:-1 15:-1 16:-0.94306 17:-0.672598 18:-0.583776 19:-0.281138 20:1 21:-0.819323 22:-0.847452 23:-0.854817 24:-1 25:-1 26:-1 27:-1 28:-1 29:-1 30:-1 31:-0.376286 32:0.184083 33:-0.548121 34:-0.607303 35:-0.390167 36:-0.755337 37:-0.950576 38:-0.949327 39:-1 40:-1 41:-1 42:-1 43:-1 44:-1 45:-1 46:-1 47:-1 48:-1 49:-1 50:-1 51:-1 52:-1 53:-1 54:-0.97598 55:-0.816615 56:-0.686226 57:0.581694 58:0.472382 59:-0.8326 60:-1 61:-1 62:-1 63:-1 64:-1 65:-1 66:-1 67:-1 68:-0.982024 69:-0.309609 70:-0.822065 71:-0.519092 72:-0.423488 73:0.36635 74:0.0201671 75:-1 76:-1 77:-1 78:-1 79:-0.240152 80:0.217082 81:-0.749257 82:-0.893807 83:-1 84:-1 85:-1 86:-1 87:-1 88:-1 89:-1 90:-1 92:-1 93:-0.304078 94:-0.107947 95:0.738782 96:-0.772728 97:-0.0156719 98:-0.600211 99:-0.863125 100:-0.734429 101:-0.931605 102:-0.97153 103:-1 104:-1 105:-1 107:-1 108:-0.798125 109:-1 110:-1 111:-0.83096 112:1 113:-0.606543 114:-0.66841 115:-0.65943 116:-0.909252 117:-1 118:-1 119:-1 120:-1 121:-1 122:-1 123:-0.986842 124:-0.291727 125:0.317742 126:-0.550199 127:-0.980682 128:-1 129:-1 130:-1 131:-1 132:-1 133:-1 134:-1 135:-1 136:-1 137:-1 138:-1 139:-1 140:-1 141:1 142:-0.44484 143:-1 144:-1 145:-1 146:-1 150:-1 
-0.03125 -0.03125 -0.03125 0.03125 0.03125 1:-1 2:-1 3:-0.930372 4:-0.718447 5:-0.931036 6:-0.981221 7:-0.833742 8:-0.81615 9:-0.67182 10:-0.908164 11:-0.628607 12:0.608905 13:-0.0353819 14:-0.386778 15:-1 16:-0.594828 17:0.422414 18:-0.834852 19:-0.99138 20:-1 21:-1 22:-1 23:-1 24:-1 25:-1 26:-1 27:-1 28:-1 29:-1 30:-1 31:-1 32:-1 33:-0.730978 34:-0.929161 35:-0.914773 36:-0.703663 37:-0.40134 38:0.503793 39:-0.461208 40:-0.95727 41:-0.543719 42:0.161397 43:-0.803141 44:-0.804231 45:-1 46:-1 47:-0.920367 48:-0.892512 49:0.893861 50:-0.938514 51:-0.853782 52:-0.182603 53:-0.12294 54:-0.738147 55:-0.882409 56:-0.958915 57:-0.565218 58:-1 59:-1 60:-1 61:-0.442525 62:-0.814521 63:0.522988 64:-0.280824 65:-0.320198 66:-0.808317 67:-0.952083 68:-0.651663 69:-0.888505 70:-0.989225 71:-0.941752 72:-0.715518 73:-1 74:-1 75:-1 76:-1 77:-1 78:-0.869948 79:-0.501488 80:-0.206896 81:-0.496995 82:-0.314006 83:-0.836207 84:-1 85:-1 86:-1 87:-1 88:-1 89:-1 90:-1 92:-1 93:-1 94:-1 95:-1 96:-1 97:-1 98:-1 99:-0.917109 100:-0.0539357 101:0.00443717 102:-0.75 103:-1 104:-1 105:-1 107:-1 108:-1 109:-1 110:-1 111:-1 112:-1 113:-1 114:-0.762679 115:-0.362499 116:0.388911 117:-0.75 118:-1 119:-1 120:-1 121:-1 122:-0.802291 123:-0.649424 124:-0.457527 125:-0.565517 126:0.25304 127:-0.613917 128:-0.588233 129:-1 130:-1 131:-1 132:-1 133:-1 134:-1 135:-1 136:-1 137:-1 138:-1 139:-1 140:-1 141:-1 142:-0.939656 143:-0.646552 144:0.571616 145:-0.408524 146:-1 150:-1 
-0.03125 -0.03125 -0.03125 0.03125 0.03125 1:-1 2:-1 3:-0.94901 4:-0.948809 5:-0.878788 6:-0.983495 7:-0.737012 8:-0.735621 9:0.201674 10:-0.614409 11:-0.0895866 12:-0.181432 13:-0.619404 14:-0.755055 15:-1 16:-0.833334 17:-0.795454 18:-0.793763 19:-0.719696 20:0.537454 21:1 22:0.948433 23:-0.845475 24:-0.65862 25:-1 26:-1 27:-1 28:-1 29:-1 30:-1 31:-1 32:-0.971992 33:-0.934783 34:-0.626482 35:-0.600552 36:-0.12405 37:0.104799 38:0.132727 39:-0.552819 40:-0.718381 41:-0.830356 42:-0.714227 43:-0.965399 44:-1 45:-1 46:-1 47:-0.972007 48:-0.757102 49:-0.122871 50:0.296741 51:-0.467659 52:0.641869 53:-0.525692 54:-0.78267 55:-0.919626 56:-1 57:-1 58:-1 59:-1 60:-1 61:-1 62:-1 63:-0.821547 64:-0.0730577 65:0.371812 66:0.684496 67:0.937163 68:-0.674756 69:-0.951009 70:-0.97159 71:-0.906155 72:-0.962122 73:-1 74:-1 75:-1 76:-1 77:-1 78:-0.526517 79:-0.17999 80:-0.189394 81:-0.599667 82:-0.924642 83:-0.952019 84:-1 85:-1 86:-1 87:-1 88:-1 89:-1 90:-1 92:-1 93:1 94:1 95:1 96:-0.709708 97:-0.91618 98:-0.59381 99:-0.842173 100:-1 101:-1 102:-1 103:-1 104:-1 105:-1 107:1 108:1 109:1 110:-0.4026 111:-0.867425 112:-0.89506 113:-0.989785 114:-1 115:-1 116:-1 117:-1 118:-1 119:-1 120:-1 121:-1 122:-1 123:-0.943984 124:-0.434589 125:-0.150649 126:0.212868 127:-0.804653 128:-0.870769 129:-1 130:-1 131:-1 132:-1 133:-1 134:-1 135:-1 136:-1 137:-1 138:-1 139:-1 140:-1 141:-0.884646 142:-0.121212 143:-0.469696 144:-0.414336 145:-1 146:-1 150:-1 
-0.03125 -0.03125 -0.03125 0.03125 0.03125 1:-1 2:-1 3:-0.861933 4:-0.487429 5:0.064104 6:0.0334237 7:-0.357145 8:-0.900576 9:-0.633954 10:-0.977238 11:-1 12:-0.874067 13:-0.956087 14:-0.958549 15:-0.585489 16:-0.5 17:-0.051282 18:-0.502331 19:-0.942308 20:-1 21:-1 22:-1 23:-1 24:-1 25:-1 26:-1 27:-1 28:-1 29:-1 30:-1 31:-0.937587 32:-0.905206 33:-0.730978 34:-0.413044 35:-0.50357 36:0.0216375 37:-0.28775 38:-0.543587 39:-0.532583 40:-0.841139 41:-0.9478 42:-1 43:-1 44:-1 45:-1 46:-1 47:-1 48:-1 49:-0.904846 50:-0.565678 51:-0.720415 52:-0.531122 53:-0.816055 54:-0.459136 55:-0.349057 56:-0.503547 57:-0.616081 58:-0.795984 59:-1 60:-1 61:-0.585463 62:-0.984676 63:-0.987417 64:-0.946525 65:-0.925109 66:-0.524883 67:-0.714932 68:-0.821927 69:-0.637288 70:-0.238783 71:-0.473032 72:-0.653846 73:-0.949774 74:-1 75:-1 76:-0.677889 77:-0.804482 78:-0.0743793 79:0.064543 80:-0.320512 81:-0.851799 82:-1 83:-1 84:-1 85:-1 86:-1 87:-1 88:-1 89:-1 90:-1 92:-1 93:-1 94:-1 95:-1 96:-0.959063 97:-0.769501 98:-0.959083 99:-0.938362 100:-0.73971 101:-0.0683113 102:-0.346154 103:-0.687985 104:-1 105:-1 107:-1 108:-1 109:-1 110:-1 111:-1 112:-0.936573 113:-0.783925 114:-0.687782 115:-0.711859 116:-0.0563817 117:-0.365384 118:-0.978252 119:-1 120:-1 121:-0.799687 122:0.91111 123:-0.0402119 124:-0.296434 125:-0.36044 126:-0.689417 127:-0.939102 128:-0.956261 129:-1 130:-1 131:-1 132:-1 133:-1 134:-1 135:-1 136:-1 137:-1 138:-1 139:-0.947846 140:-0.91987 141:-0.893519 142:-0.532052 143:-0.326924 144:-0.667159 145:0.184118 146:-0.918272 150:-1 
-0.03125 -0.03125 -0.03125 0.03125 0.03125 1:-0.19414 2:-0.714847 3:-0.293974 4:-0.495961 5:-0.356644 6:-0.482018 7:-0.865131 8:-0.932209 9:-1 10:-1 11:-1 12:-1 13:-1 14:-1 15:-1 16:-0.727272 17:-0.594406 18:-0.252616 19:-0.622378 20:-0.126653 21:-0.822481 22:-1 23:-1 24:-1 25:-1 26:-1 27:-1 28:-1 29:-1 30:-1 31:-0.93191 32:-0.754396 33:-0.63127 34:-0.474613 35:-0.274078 36:-0.409963 37:-0.00446528 38:-0.62657 39:-0.854313 40:-1 41:-1 42:-1 43:-1 44:-1 45:-1 46:-1 47:-1 48:-1 49:-1 50:-1 51:-1 52:-1 53:-0.981755 54:-0.905595 55:-0.703235 56:-0.52507 57:0.0580709 58:0.595013 59:-0.725874 60:-1 61:-1 62:-1 63:-1 64:-1 65:-1 66:-1 67:-1 68:-0.876375 69:-0.89825 70:-0.79021 71:-0.35425 72:-0.482518 73:1 74:0.703986 75:-1 76:-1 77:-0.914685 78:-0.547866 79:0.296117 80:-0.314686 81:-0.830628 82:-0.895662 83:-0.970474 84:-0.978598 85:-1 86:-1 87:-1 88:-1 89:-1 90:-1 92:-1 93:-1 94:-1 95:-1 96:-0.86602 97:-0.574468 98:-0.919654 99:-1 100:-0.355353 101:0.0499861 102:-0.76923 103:-0.908357 104:-1 105:-1 107:-1 108:-1 109:-0.423074 110:0.418011 111:-0.816433 112:-0.626365 113:-0.54742 114:-0.229947 115:-0.513287 116:-0.967578 117:-0.965034 118:-0.976274 119:-1 120:-1 121:-1 122:-1 123:-1 124:-0.0892025 125:-0.28072 126:0.237418 127:-0.876622 128:-1 129:-1 130:-1 131:-1 132:-1 133:-1 134:-1 135:-1 136:-1 137:-1 138:-1 139:-1 140:-1 141:-1 142:-0.566434 143:0.111888 144:-0.475524 145:-1 146:-1 150:-1 
-0.03125 -0.03125 -0.03125 0.03125 0.03125 1:-1 2:-0.981359 3:-0.698461 4:-0.008932 5:-0.2 6:-0.477142 7:-0.753143 8:-0.844898 9:-1 10:-0.924245 11:-1 12:-0.921418 13:-1 14:-1 15:-1 16:-0.456 17:-0.136 18:-0.499901 19:-0.904 20:-1 21:-1 22:-1 23:-1 24:-1 25:-1 26:-1 27:-1 28:-1 29:-1 30:-1 31:-0.610526 32:-0.852121 33:-0.845043 34:-0.417739 35:-0.261819 36:0.55 37:-0.277778 38:-0.88608 39:-1 40:-0.960348 41:-1 42:-1 43:-1 44:-1 45:-1 46:-1 47:-0.911322 48:-1 49:-1 50:-1 51:-0.961231 52:-1 53:-0.874782 54:-0.541 55:-0.39375 56:-0.447149 57:-0.117392 58:-0.830261 59:-0.49824 60:-1 61:-0.379203 62:-1 63:-0.968593 64:-0.955507 65:-0.95327 66:-0.822117 67:-0.911059 68:-0.797966 69:-0.896533 70:-0.8 71:-0.189189 72:-0.328 73:-0.561206 74:-0.54133 75:-1 76:-1 77:-0.121598 78:-0.172414 79:0.49462 80:-0.68 81:-0.894312 82:-1 83:-1 84:-1 85:-1 86:-1 87:-1 88:-1 89:-1 90:1 92:-1 93:-1 94:-1 95:-1 96:-1 97:-1 98:-1 99:-0.897436 100:-0.174728 101:0.26845 102:-0.872 103:-1 104:-1 105:-1 107:-1 108:-1 109:-1 110:-1 111:-1 112:-1 113:-0.935281 114:-0.661176 115:-0.1648 116:-0.0727272 117:-0.584 118:-1 119:-1 120:-1 121:1 122:-0.633065 123:-0.940849 124:-0.391219 125:-0.127771 126:-0.258492 127:-0.761143 128:-0.945412 129:-0.957053 130:-1 131:-1 132:-1 133:-1 134:-1 135:1 136:-1 137:-0.837474 138:-0.893677 139:-1 140:-0.88 141:-0.955704 142:-0.936 143:-0.664 144:0.163076 145:0.140001 146:-1 150:1 
-0.03125 -0.03125 -0.03125 0.03125 0.03125 1:-1 2:-1 3:-0.911727 4:-0.889226 5:-0.606556 6:1 7:0.89696 8:-0.555035 9:-1 10:-1 11:-1 12:-1 13:-1 14:-1 15:-1 16:0.245902 17:-0.57377 18:-0.735536 19:-0.967214 20:-0.829392 21:-1 22:-1 23:-1 24:-1 25:-1 26:-1 27:-1 28:-1 29:-1 30:-1 31:-1 32:1 33:-0.647186 34:-0.692087 35:-0.621834 36:-0.795081 37:-0.88616 38:-1 39:-1 40:-1 41:-1 42:-1 43:-1 44:-1 45:-1 46:-1 47:-1 48:-1 49:-1 50:-1 51:-1 52:-1 53:-1 54:-1 55:-1 56:-0.960936 57:0.550248 58:1 59:-0.100328 60:-1 61:-1 62:-1 63:-1 64:-1 65:-1 66:-1 67:-1 68:-1 69:-0.946996 70:-0.09836 71:0.181509 72:-1 73:-0.229282 74:-1 75:-1 76:-1 77:1 78:-0.0107414 79:-0.659695 80:-0.14754 81:-0.855617 82:-1 83:-1 84:-1 85:-1 86:-1 87:-1 88:-1 89:-1 90:-1 92:-1 93:-1 94:-1 95:-1 96:-1 97:-0.818625 98:-0.832577 99:-0.947458 100:-0.78411 101:0.811621 102:-0.934426 103:-1 104:-1 105:-1 107:-1 108:-0.928467 109:-0.675412 110:-0.38441 111:-0.836065 112:-0.610712 113:0.458833 114:-0.444549 115:-0.95246 116:-1 117:-1 118:-1 119:-1 120:-1 121:-1 122:-1 123:1 124:0.343462 125:-1 126:-1 127:-1 128:-1 129:-1 130:-1 131:-1 132:-1 133:-1 134:-1 135:-1 136:-1 137:-1 138:-1 139:-1 140:-1 141:-1 142:-1 143:0.409836 144:-0.319042 145:-1 146:-1 150:-1 
-0.03125 -0.03125 -0.03125 -0.03125 0.03125 1:-1 2:-0.976224 3:0.813186 4:-0.35645 5:-0.877552 6:-1 7:-1 8:-1 9:-1 10:-1 11:-1 12:-1 13:-1 14:-1 15:-1 16:-1 17:0.081632 18:-0.0740419 19:-1 20:-1 21:-1 22:-1 23:-1 24:-1 25:-1 26:-1 27:-1 28:-1 29:-1 30:-1 31:-1 32:-0.811381 33:0.778838 34:-0.712511 35:-1 36:-1 37:-1 38:-1 39:-1 40:-1 41:-1 42:-1 43:-1 44:-1 45:-1 46:-1 47:-1 48:-1 49:-1 50:-1 51:-1 52:-1 53:-1 54:-0.896685 55:-0.443241 56:-0.465045 57:-0.0350506 58:-1 59:1 60:-1 61:-1 62:-1 63:-1 64:-1 65:-1 66:-1 67:-1 68:-1 69:-0.967007 70:-0.0306125 71:-0.379482 72:-0.346938 73:-1 74:-1 75:-1 76:-1 77:-1 78:-1 79:-0.93948 80:0.122448 81:-0.0788246 82:-1 83:-1 84:-1 85:-1 86:-1 87:-1 88:-1 89:-1 90:-1 92:-1 93:-1 94:-1 95:-1 96:-1 97:-1 98:-0.843683 99:-0.803769 100:-0.171324 101:-0.828401 102:-0.183674 103:-0.923589 104:-1 105:-1 107:-1 108:-1 109:-1 110:-1 111:-1 112:-1 113:-0.889934 114:-0.611043 115:-0.0234683 116:-0.787105 117:-0.285714 118:-0.723031 119:-1 120:-1 121:-1 122:-1 123:-0.0568963 124:-0.970135 125:-0.0134105 126:0.0747744 127:-1 128:-1 129:-1 130:-1 131:-1 132:-1 133:-1 134:-1 135:-1 136:-1 137:-1 138:-1 139:-1 140:-1 141:-1 142:-1 143:0.081632 144:0.059655 145:-1 146:-1 150:-1 
-0.03125 -0.03125 -0.03125 -0.03125 0.03125 1:1 2:-0.809356 3:-0.0209798 4:-0.303795 5:-0.81818 6:-1 7:-0.929869 8:-1 9:-1 10:-1 11:-1 12:-1 13:-1 14:-1 15:-1 16:-1 17:-0.018182 18:-0.0100675 19:-0.963636 20:-1 21:-1 22:-1 23:-1 24:-1 25:-1 26:-1 27:-1 28:-1 29:-1 30:-1 31:-0.911482 32:-0.899173 33:0.604349 34:-0.530435 35:-0.940082 36:-1 37:-1 38:-1 39:-1 40:-1 41:-1 42:-1 43:-1 44:-1 45:-1 46:-1 47:-1 48:-1 49:-1 50:-1 51:-1 52:0.182148 53:-0.525692 54:-0.355683 55:-0.862215 56:-0.87002 57:0.1749 58:-0.855334 59:-1 60:-1 61:-1 62:-1 63:-1 64:-1 65:-1 66:-0.865239 67:-0.292517 68:-0.862248 69:-0.794244 70:-0.386363 71:-0.713349 72:-0.218182 73:-0.643832 74:-0.73939 75:1 76:-1 77:-0.778179 78:-0.882444 79:0.159247 80:-0.2 81:-0.6397 82:-1 83:-1 84:-1 85:-1 86:-1 87:-1 88:-1 89:-1 90:-1 92:-1 93:-1 94:-1 95:-1 96:-1 97:-1 98:-0.837525 99:0.107228 100:-0.82042 101:-0.803443 102:-0.363636 103:-0.591543 104:-1 105:-1 107:-1 108:-1 109:-1 110:-1 111:-1 112:-0.92804 113:-0.926455 114:0.694118 115:-0.736364 116:-0.894627 117:-0.563636 118:-0.321429 119:-1 120:-1 121:-1 122:-1 123:-1 124:-0.920177 125:-0.345454 126:-0.119075 127:0.11039 128:-0.751869 129:-1 130:-1 131:-1 132:-1 133:-1 134:-1 135:-1 136:-1 137:-1 138:-1 139:-1 140:-1 141:-1 142:-0.872728 143:0.69091 144:-0.79021 145:-1 146:-1 150:-1 
-0.03125 -0.03125 -0.03125 -0.03125 0.03125 1:-1 2:-0.937024 3:-0.0722441 4:0.369719 5:-0.91892 6:-1 7:-1 8:-1 9:-1 10:-1 11:-1 12:-1 13:-1 14:-1 15:-1 16:-1 17:0.283784 18:-0.454993 19:-0.824324 20:-1 21:-1 22:-1 23:-1 24:-1 25:-1 26:-1 27:-1 28:-1 29:-1 30:-1 31:-1 32:-0.675266 33:0.0179201 34:-0.0164512 35:-0.933201 36:-1 37:-1 38:-1 39:-1 40:-1 41:-1 42:-1 43:-1 44:-1 45:-1 46:-1 47:-1 48:-1 49:-1 50:-1 51:-1 52:-1 53:-0.894243 54:-0.703547 55:-0.365078 56:-0.516963 57:0.512192 58:-1 59:-1 60:-1 61:-1 62:-1 63:-1 64:-1 65:-1 66:-1 67:-1 68:-1 69:-0.650451 70:-0.408785 71:-0.573899 72:-0.108108 73:-0.841172 74:-1 75:-1 76:-1 77:-1 78:-1 79:-0.619293 80:0.094594 81:-0.285892 82:-1 83:-1 84:-1 85:-1 86:-1 87:-1 88:-1 89:-1 90:-1 92:-1 93:-1 94:-1 95:-1 96:-1 97:-0.850489 98:-0.378954 99:-0.956686 100:-0.925848 101:0.298578 102:-0.716216 103:-1 104:-1 105:-1 107:-1 108:-1 109:-1 110:-1 111:-1 112:-0.893034 113:-0.963558 114:0.058824 115:-0.804053 116:-0.091523 117:-0.5 118:-1 119:-1 120:-1 121:-1 122:-1 123:-1 124:-0.980223 125:0.40386 126:0.309483 127:-1 128:-1 129:-1 130:-1 131:-1 132:-1 133:-1 134:-1 135:-1 136:-1 137:-1 138:-1 139:-1 140:-1 141:-1 142:0.175676 143:-0.175676 144:-1 145:-1 146:-1 150:-1 
-0.03125 -0.03125 -0.03125 -0.03125 0.03125 1:-1 2:-0.742885 3:-0.0716167 4:-0.238835 5:-0.448276 6:-0.879804 7:-0.68079 8:-1 9:-1 10:-1 11:-1 12:-1 13:-1 14:-1 15:-1 16:-0.862068 17:0.489656 18:-0.624508 19:-1 20:-1 21:-1 22:-1 23:-1 24:-1 25:-1 26:-1 27:-1 28:-1 29:-1 30:-1 31:-1 32:-1 33:-0.421138 34:0.586806 35:-0.818183 36:-1 37:-1 38:-1 39:-1 40:-1 41:-1 42:-1 43:-1 44:-1 45:-1 46:-1 47:-1 48:-1 49:-1 50:-1 51:-1 52:-0.887898 53:-0.784109 54:-0.860346 55:-0.47737 56:-0.786354 57:1 58:-1 59:-1 60:-1 61:-1 62:-1 63:-1 64:-1 65:-1 66:-0.693308 67:-0.309938 68:-0.895498 69:-0.910805 70:-0.63793 71:0.102827 72:-0.572414 73:-1 74:-1 75:-1 76:-1 77:-0.747581 78:-0.851366 79:-0.815933 80:0.24138 81:-0.574819 82:-0.657001 83:-1 84:-1 85:-1 86:-1 87:-1 88:-1 89:-1 90:-1 92:-1 93:-1 94:-1 95:-0.673909 96:-0.867866 97:-0.847396 98:-0.982391 99:-0.955792 100:-0.712397 101:0.739646 102:-0.931034 103:-1 104:-1 105:-1 107:-1 108:-1 109:-1 110:-1 111:-1 112:-0.863525 113:-0.888416 114:-0.824748 115:1 116:-0.616301 117:-0.944828 118:-1 119:-1 120:-1 121:-1 122:-1 123:-1 124:-0.777965 125:0.830148 126:-0.854719 127:-1 128:-1 129:-1 130:-1 131:-1 132:-1 133:-1 134:-1 135:-1 136:-1 137:-1 138:-1 139:-1 140:-1 141:-1 142:-0.875862 143:0.875862 144:-1 145:-1 146:-1 150:-1 
-0.03125 -0.03125 -0.03125 -0.03125 0.03125 1:-0.719385 2:-0.937586 3:-0.278846 4:0.327324 5:-0.642856 6:-1 7:-1 8:-1 9:-1 10:-1 11:-1 12:-1 13:-1 14:-1 15:-1 16:0.142858 17:-0.303572 18:-0.837958 19:-1 20:-1 21:-1 22:-1 23:-1 24:-1 25:-1 26:-1 27:-1 28:-1 29:-1 30:-1 31:-1 32:-1 33:-0.385094 34:-0.0147514 35:-0.205562 36:-0.665181 37:-1 38:-1 39:-1 40:-1 41:-1 42:-1 43:-1 44:-1 45:-1 46:-1 47:-1 48:-1 49:-1 50:-1 51:-1 52:-1 53:-1 54:-1 55:-1 56:1 57:-0.493402 58:-1 59:-1 60:-1 61:-1 62:-1 63:-1 64:-1 65:-1 66:-1 67:-1 68:-1 69:-1 70:0.428572 71:-0.376608 72:-0.696428 73:-1 74:-1 75:-1 76:-1 77:-1 78:-0.769091 79:0.112068 80:0.142858 81:-1 82:-1 83:-1 84:-1 85:-1 86:-1 87:-1 88:-1 89:-1 90:-1 92:-1 93:-1 94:-1 95:-1 96:-0.714893 97:-0.753038 98:-0.954408 99:-0.885532 100:0.293407 101:-0.356509 102:-1 103:-1 104:-1 105:-1 107:-1 108:-1 109:-1 110:-1 111:-0.955357 112:-0.717302 113:-0.831461 114:0.436977 115:-0.508035 116:-0.213473 117:-1 118:-1 119:-1 120:-1 121:-1 122:-1 123:-1 124:0.881534 125:-0.265306 126:-1 127:-1 128:-1 129:-1 130:-1 131:-1 132:-1 133:-1 134:-1 135:-1 136:-1 137:-1 138:-1 139:-1 140:-1 141:-1 142:-0.142858 143:0.142858 144:-1 145:-1 146:-1 150:-1 
-0.03125 -0.03125 -0.03125 -0.03125 0.03125 1:-1 2:-0.614329 3:-0.183024 4:-0.145632 5:-0.393104 6:-1 7:-1 8:-1 9:-1 10:-1 11:-1 12:-1 13:-1 14:-1 15:-1 16:-0.144828 17:-0.131034 18:-0.721858 19:-1 20:-1 21:-1 22:-1 23:-1 24:-1 25:-1 26:-1 27:-1 28:-1 29:-1 30:-1 31:-1 32:-1 33:-1 34:-0.15802 35:1 36:-0.870688 37:-0.904215 38:-1 39:-1 40:-1 41:-1 42:-1 43:-1 44:-1 45:-1 46:-1 47:-1 48:-1 49:-1 50:-1 51:-1 52:-1 53:-1 54:-0.627586 55:-0.101077 56:-0.0139404 57:-0.434784 58:-1 59:-1 60:-1 61:-1 62:-1 63:-1 64:-1 65:-1 66:-1 67:-1 68:-0.965164 69:-0.843908 70:-0.86207 71:0.149426 72:-0.24138 73:-1 74:-1 75:-1 76:-1 77:-1 78:-1 79:0.390726 80:0.048276 81:-0.984814 82:-1 83:-1 84:-1 85:-1 86:-1 87:-1 88:-1 89:-1 90:-1 92:-1 93:-1 94:-1 95:-1 96:-0.955953 97:-0.923698 98:-0.982391 99:-0.734747 100:-0.561026 101:0.656805 102:-1 103:-1 104:-1 105:-1 107:-1 108:-1 109:-1 110:-1 111:-0.948275 112:-0.836232 113:-0.907012 114:-0.853954 115:0.760002 116:-0.392476 117:-1 118:-1 119:-1 120:-1 121:-1 122:-1 123:-1 124:-0.697225 125:0.844336 126:-1 127:-1 128:-1 129:-1 130:-1 131:-1 132:-1 133:-1 134:-1 135:-1 136:-1 137:-1 138:-1 139:-1 140:-1 141:-1 142:0.903448 143:-0.903448 144:-1 145:-1 146:-1 150:-1 
-0.03125 -0.03125 -0.03125 -0.03125 0.03125 1:-1 2:-0.911235 3:0.28205 4:-0.442256 5:-0.466668 6:-0.543537 7:-1 8:-1 9:-1 10:-1 11:-1 12:-1 13:-1 14:-1 15:-1 16:-0.866666 17:0.466666 18:-0.596694 19:-1 20:-1 21:-1 22:-1 23:-1 24:-1 25:-1 26:-1 27:-1 28:-1 29:-1 30:-1 31:-1 32:-1 33:0.291304 34:-0.0608697 35:-1 36:-1 37:-1 38:-1 39:-1 40:-1 41:-1 42:-1 43:-1 44:-1 45:-1 46:-1 47:-1 48:-1 49:-1 50:-1 51:-1 52:-0.845197 53:-0.552796 54:-0.678572 55:-0.307144 56:-0.795745 57:0.501033 58:-1 59:-1 60:-1 61:-1 62:-1 63:-1 64:-1 65:-1 66:-1 67:-0.364704 68:-0.711379 69:-0.784443 70:-0.119048 71:-0.37795 72:-0.619048 73:-1 74:-1 75:-1 76:-1 77:-1 78:-1 79:-0.689327 80:0.04762 81:-0.182174 82:-1 83:-1 84:-1 85:-1 86:-1 87:-1 88:-1 89:-1 90:-1 92:-1 93:-1 94:-1 95:-1 96:-1 97:-1 98:-0.829786 99:-0.633699 100:-0.122051 101:-0.473766 102:-0.75238 103:-0.71473 104:-1 105:-1 107:-1 108:-1 109:-1 110:-1 111:-1 112:-0.962306 113:-0.820224 114:-0.798319 115:-0.14381 116:-0.425974 117:-0.580952 118:-0.579931 119:-1 120:-1 121:-1 122:-1 123:-1 124:-1 125:-0.0987758 126:0.845745 127:-0.663944 128:-1 129:-1 130:-1 131:-1 132:-1 133:-1 134:-1 135:-1 136:-1 137:-1 138:-1 139:-1 140:-1 141:-1 142:-0.371428 143:0.371428 144:-1 145:-1 146:-1 150:-1 
-0.03125 -0.03125 -0.03125 -0.03125 0.03125 1:-0.82731 2:-0.807958 3:-0.39349 4:-0.678225 5:-0.252748 6:-0.808477 7:-0.364203 8:-0.978693 9:-0.163319 10:-0.856918 11:-0.900332 12:-1 13:-1 14:-1 15:-1 16:-0.824176 17:-0.428572 18:0.196623 19:-0.934066 20:-1 21:-1 22:-1 23:-1 24:-1 25:-1 26:-1 27:-1 28:-1 29:-1 30:-1 31:-1 32:-0.979685 33:-0.810798 34:-0.16149 35:-0.456794 36:0.923075 37:-0.503965 38:-0.960876 39:-1 40:-1 41:-1 42:-1 43:-1 44:-1 45:-1 46:-1 47:-1 48:-1 49:-1 50:-1 51:-0.97337 52:-0.464137 53:0.0606809 54:-0.647664 55:-0.400413 56:-0.266777 57:-0.792165 58:-0.912563 59:-1 60:-1 61:-1 62:-1 63:-1 64:-1 65:-1 66:0.0588235 67:0.221719 68:-0.0564357 69:-0.307142 70:-0.8489 71:-0.8515 72:-0.791208 73:-0.354205 74:-0.05494 75:-1 76:-1 77:-1 78:-0.905267 79:-0.804472 80:-0.395604 81:-0.576569 82:-0.207525 83:-0.652013 84:-0.22659 85:-0.678043 86:-1 87:-1 88:-1 89:-1 90:-1 92:-1 93:-1 94:-1 95:-1 96:-1 97:-1 98:-0.831658 99:-0.841503 100:-0.734686 101:0.451981 102:-0.681318 103:-1 104:-1 105:-1 107:-1 108:-1 109:-1 110:-1 111:-1 112:-1 113:-0.9111 114:-0.650935 115:-0.21923 116:0.184566 117:-0.791208 118:-1 119:-1 120:-1 121:-1 122:-1 123:-0.959374 124:-0.662288 125:-0.457457 126:0.435236 127:-0.686812 128:-0.250161 129:-0.79352 130:-0.961785 131:-1 132:-1 133:-1 134:-1 135:-1 136:-1 137:-1 138:-1 139:-1 140:-1 141:-0.954364 142:-0.241758 143:-0.428572 144:-0.264583 145:-1 146:-1 150:-1 
-0.03125 -0.03125 -0.03125 -0.03125 0.03125 1:-1 2:-1 3:0.545584 4:-0.0406327 5:-1 6:-1 7:-1 8:-1 9:-1 10:-1 11:-1 12:-1 13:-1 14:-1 15:-1 16:-0.981482 17:-0.166666 18:-0.682584 19:-0.166666 20:-1 21:-1 22:-1 23:-1 24:-1 25:-1 26:-1 27:-1 28:-1 29:-1 30:-1 31:-1 32:-1 33:-0.820653 34:1 35:-0.786405 36:-1 37:-1 38:-1 39:-1 40:-1 41:-1 42:-1 43:-1 44:-1 45:-1 46:-1 47:-1 48:-1 49:-1 50:-1 51:-1 52:-0.74916 53:-0.758455 54:0.1875 55:-0.887732 56:-0.514578 57:-0.00764875 58:-1 59:-1 60:-1 61:-1 62:-1 63:-1 64:-1 65:-1 66:-1 67:-0.794112 68:-0.719395 69:-0.221604 70:-0.606483 71:-0.958291 73:-0.92745 74:-1 75:-1 76:-1 77:-1 78:-1 79:-0.917624 80:0.703704 81:-0.734965 82:-1 83:-1 84:-1 85:-1 86:-1 87:-1 88:-1 89:-1 90:-1 92:-1 93:-1 94:-1 95:-1 96:-1 97:-1 98:-0.97636 99:0.276115 100:-0.634187 101:-0.288188 102:-0.74074 103:-1 104:-1 105:-1 107:-1 108:-1 109:-1 110:-1 111:-1 112:-1 113:-0.850186 114:0.882352 115:-0.462963 116:-0.484849 117:-0.814814 118:-1 119:-1 120:-1 121:-1 122:-1 123:-1 124:-1 125:1 126:-0.882968 127:-1 128:-1 129:-1 130:-1 131:-1 132:-1 133:-1 134:-1 135:-1 136:-1 137:-1 138:-1 139:-1 140:-1 141:-1 142:0.12963 143:-0.12963 144:-1 145:-1 146:-1 150:-1 
-0.03125 -0.03125 -0.03125 -0.03125 0.03125 1:-1 2:-0.645825 3:-0.224615 4:0.0991845 5:-0.712 6:-1 7:-1 8:-1 9:-1 10:-1 11:-1 12:-1 13:-1 14:-1 15:-1 16:-1 17:-0.168 18:0.129257 19:-0.952 20:-1 21:-1 22:-1 23:-1 24:-1 25:-1 26:-1 27:-1 28:-1 29:-1 30:-1 31:0.557898 32:-0.615515 33:-0.27687 34:-0.267478 35:-0.71 36:-1 37:-1 38:-1 39:-1 40:-1 41:-1 42:-1 43:-1 44:-1 45:-1 46:-1 47:-1 48:-1 49:-1 50:-1 51:-1 52:-1 53:-0.582608 54:-0.406 55:-0.4665 56:-0.447149 57:0.05913 58:-1 59:-1 60:-1 61:-1 62:-1 63:-1 64:-1 65:-1 66:-1 67:-1 68:-0.919186 69:-0.3792 70:-0.74 71:-0.297297 72:-0.248 73:-1 74:-1 75:-1 76:-1 77:-1 78:-0.931034 79:-0.952552 80:0.376 81:-0.383486 82:-1 83:-1 84:-1 85:-1 86:-1 87:-1 88:-1 89:-1 90:-1 92:-1 93:-1 94:-1 95:-1 96:-1 97:-1 98:-0.836596 99:-0.871795 100:-0.104492 101:-0.46187 102:-0.552 103:-0.850232 104:-1 105:-1 107:-1 108:-1 109:-1 110:-1 111:-1 112:-0.936676 113:-0.978427 114:-0.728941 115:-0.2112 116:-0.146909 117:-0.504 118:-0.918571 119:-1 120:-1 121:-1 122:-1 123:-1 124:0.217562 125:-0.0948569 126:-0.393311 127:-1 128:-1 129:-1 130:-1 131:-1 132:-1 133:-1 134:-1 135:-1 136:-1 137:-1 138:-1 139:-1 140:-1 141:-1 142:-0.072 143:0.072 144:-1 145:-1 146:-1 150:-1 
-0.03125 -0.03125 -0.03125 -0.03125 0.03125 1:-0.807772 2:-0.722099 3:-0.678899 4:0.405184 5:-0.596332 6:-0.920051 7:-1 8:-1 9:-1 10:-1 11:-1 12:-1 13:-1 14:-1 15:-1 16:-0.706422 17:-0.357798 18:-0.35249 19:-0.614678 20:-0.809035 21:-1 22:-1 23:-1 24:-1 25:-1 26:-1 27:-1 28:-1 29:-1 30:-1 31:-1 32:-0.592994 33:-0.644594 34:0.357001 35:-0.848831 36:-0.369269 37:-1 38:-1 39:-1 40:-1 41:-1 42:-1 43:-1 44:-1 45:-1 46:-1 47:-1 48:-1 49:-1 50:-1 51:-0.955541 52:-0.403502 53:0.771045 54:-0.90711 55:-0.916571 56:-0.278549 57:-0.42162 58:-1 59:-1 60:-1 61:-1 62:-1 63:-1 64:-1 65:-1 66:-1 67:-0.898007 68:0.946198 69:-0.851681 70:-0.655963 71:-0.648732 72:-0.46789 73:-1 74:-1 75:-1 76:-1 77:-1 78:-0.841823 79:-0.319835 80:-0.284404 81:-0.757596 82:0.323212 83:-1 84:-1 85:-1 86:-1 87:-1 88:-1 89:-1 90:-1 92:-1 93:-1 94:-1 95:-1 96:-0.882817 97:-0.796995 98:-0.109896 99:-0.794167 100:-0.818772 101:-0.801639 102:-0.3211 103:-0.896949 104:-1 105:-1 107:-1 108:-1 109:-1 110:-1 111:-0.931192 112:-0.527975 113:-0.18359 114:-0.961145 115:-0.787157 116:-0.659716 117:-0.357798 118:-1 119:-1 120:-1 121:-1 122:-1 123:-1 124:-0.597224 125:0.0191355 126:-0.0336881 127:-0.626474 128:-1 129:-1 130:-1 131:-1 132:-1 133:-1 134:-1 135:-1 136:-1 137:-1 138:-1 139:-1 140:-1 141:-1 142:-0.72477 143:0.72477 144:-1 145:-1 146:-1 150:-1 
-0.03125 -0.03125 -0.03125 -0.03125 0.03125 1:-1 2:-0.315636 3:0.167293 4:-0.401453 5:-0.972028 6:-1 7:-1 8:-1 9:-1 10:-1 11:-1 12:-1 13:-1 14:-1 15:-1 16:-1 17:0.818182 18:-0.816679 19:-1 20:-1 21:-1 22:-1 23:-1 24:-1 25:-1 26:-1 27:-1 28:-1 29:-1 30:-1 31:-1 32:-0.689765 33:-0.277593 34:0.0179374 35:-0.746504 36:-0.912587 37:-0.6115 38:-1 39:-1 40:-1 41:-1 42:-1 43:-1 44:-1 45:-1 46:-1 47:-1 48:-1 49:-1 50:-1 51:-1 52:-1 53:-0.379751 54:0.0856625 55:-0.491259 56:-0.333433 57:-0.735482 58:-0.851627 59:-1 60:-1 61:-1 62:-1 63:-1 64:-1 65:-1 66:-1 67:-0.922254 68:-0.364229 69:-0.366901 70:-0.475525 71:-0.559 72:-0.468532 73:-1 74:-1 75:-1 76:-1 77:-1 78:-1 79:-0.440078 80:-0.468532 81:-0.645859 82:-0.895662 83:0.535353 84:-1 85:-1 86:-1 87:-1 88:-1 89:-1 90:-1 92:-1 93:-1 94:-1 95:-1 96:-0.687381 97:-0.574468 98:-0.678619 99:0.120673 100:-0.739071 101:-0.899201 102:-0.552448 103:-0.947634 104:-1 105:-1 107:-1 108:-1 109:-1 110:-1 111:-0.982518 112:-0.861617 113:-0.867997 114:-0.318799 115:0.338461 116:-0.886523 117:-0.524476 118:-1 119:-1 120:-1 121:-1 122:-1 123:-0.948294 124:-0.283644 125:-0.0505502 126:-0.0572057 127:-0.867133 128:-0.952283 129:-1 130:-1 131:-1 132:-1 133:-1 134:-1 135:-1 136:-1 137:-1 138:-1 139:-1 140:-1 141:-1 142:0.118882 143:-0.118882 144:-1 145:-1 146:-1 150:-1 
-0.03125 -0.03125 -0.03125 -0.03125 -0.03125 1:-1 2:-1 3:-0.67209 4:-0.26363 5:0.46154 6:-0.469321 7:-0.703293 8:-0.900576 9:-1 10:-1 11:-1 12:-1 13:-1 14:-1 15:-1 16:-0.974358 17:0.538462 18:-0.560499 19:-1 20:-1 21:-1 22:-1 23:-1 24:-1 25:-1 26:-1 27:-1 28:-1 29:-1 30:-1 31:-1 32:-1 33:-0.186037 34:-0.894648 35:-0.746504 36:-0.118587 37:0.558049 38:-0.0415416 39:-1 40:-1 41:-1 42:-1 43:-1 44:-1 45:-1 46:-1 47:-1 48:-1 49:-1 50:-1 51:-0.937867 52:-0.131705 53:0.672243 54:-0.588942 55:-0.844551 56:-0.893071 57:-0.090718 58:-1 59:-1 60:-1 61:-1 62:-1 63:-1 64:-1 65:-1 66:-1 67:-0.429864 68:-0.773358 69:-0.813463 70:-0.663463 71:-0.0904369 72:-0.397436 73:-0.949774 74:-1 75:-1 76:-1 77:-1 78:-1 79:-0.961979 80:-0.179488 81:-0.0825677 82:-0.776831 83:-0.837605 84:-0.725383 85:-0.791328 86:-1 87:-1 88:-1 89:-1 90:-1 92:-1 93:-1 94:-1 95:-1 96:-1 97:-1 98:-1 99:-0.979455 100:-0.226167 101:-0.445608 102:-0.666666 103:-0.0879529 104:-1 105:-1 107:-1 108:-1 109:-1 110:-1 111:-1 112:-1 113:-1 114:-1 115:-0.349359 116:-0.450176 118:-0.869504 119:-1 120:-1 121:-1 122:-1 123:-1 124:-1 125:-0.301098 126:0.296342 127:-0.547618 128:-0.562591 129:-0.89676 130:-0.420457 131:-0.885179 132:-1 133:-1 134:-1 135:-1 136:-1 137:-1 138:-1 139:-1 140:-1 141:-1 142:-1 143:-0.282052 144:0.449703 145:-0.932334 146:-1 150:-1 
-0.03125 -0.03125 -0.03125 -0.03125 -0.03125 1:-1 2:-1 3:0.0606052 4:0.251349 5:-0.959596 6:-0.955988 7:-0.766234 8:-1 9:-1 10:-1 11:-1 12:-1 13:-1 14:-1 15:-1 16:-1 17:0.818182 18:-0.816679 19:-1 20:-1 21:-1 22:-1 23:-1 24:-1 25:-1 26:-1 27:-1 28:-1 29:-1 30:-1 31:-1 32:-1 33:1 34:-0.833992 35:-1 36:-1 37:-1 38:-1 39:-1 40:-1 41:-1 42:-1 43:-1 44:-1 45:-1 46:-1 47:-1 48:-1 49:-1 50:-1 51:-1 52:-1 53:-0.578393 54:-0.693182 55:0.255365 56:-0.638943 57:-0.172157 58:-1 59:-1 60:-1 61:-1 62:-1 63:-1 64:-1 65:-1 66:-0.850267 67:-0.775401 68:-0.897963 69:0.0124564 70:-0.469697 71:-0.70425 72:-0.434344 73:-1 74:-1 75:-1 76:-1 77:-1 78:-0.912922 79:-0.760363 80:0.09091 81:-0.466222 82:-0.447395 83:-1 84:-1 85:-1 86:-1 87:-1 88:-1 89:-1 90:-1 92:-1 93:-1 94:-1 95:-1 96:-1 97:-1 98:-1 99:-0.741 100:-0.490081 101:-0.53894 102:-0.636364 103:0.172422 104:-1 105:-1 107:-1 108:-1 109:-1 110:-1 111:-1 112:-1 113:-1 114:-0.529412 115:-0.619192 116:-0.0165298 117:-0.878788 118:-0.0746767 119:-1 120:-1 121:-1 122:-1 123:-1 124:-1 125:0.309092 126:0.532041 127:-1 128:-1 129:-1 130:-1 131:-1 132:-1 133:-1 134:-1 135:-1 136:-1 137:-1 138:-1 139:-1 140:-1 141:-1 142:-1 143:0.171718 144:-0.0442904 145:-1 146:-1 150:-1 
-0.03125 -0.03125 -0.03125 -0.03125 -0.03125 1:-1 2:-0.956849 3:-0.551281 4:0.647608 5:-0.666668 6:-1 7:-1 8:-1 9:-1 10:-1 11:-1 12:-1 13:-1 14:-1 15:-1 16:-1 17:0.592592 18:-0.589225 19:-1 20:-1 21:-1 22:-1 23:-1 24:-1 25:-1 26:-1 27:-1 28:-1 29:-1 30:-1 31:-1 32:-1 33:-0.68116 34:0.913044 35:-0.877946 36:-1 37:-1 38:-1 39:-1 40:-1 41:-1 42:-1 43:-1 44:-1 45:-1 46:-1 47:-1 48:-1 49:-1 50:-1 51:-1 52:-1 53:-1 54:1 55:-0.859665 56:-0.602836 57:-0.387079 58:-1 59:-1 60:-1 61:-1 62:-1 63:-1 64:-1 65:-1 66:-1 67:-1 68:-0.532327 69:0.706481 70:-0.953703 71:-0.374374 72:-0.833334 73:-1 74:-1 75:-1 76:-1 77:-1 78:-1 79:-0.890166 80:0.185186 81:-0.184506 82:-1 83:-1 84:-1 85:-1 86:-1 87:-1 88:-1 89:-1 90:-1 92:-1 93:-1 94:-1 95:-1 96:-1 97:-0.846334 98:-0.952717 99:0.63224 100:-0.918709 101:-0.265942 102:-0.796296 103:-1 104:-1 105:-1 107:-1 108:-1 109:-1 110:-1 111:-1 112:-0.926706 113:-0.825218 114:1 115:-0.946295 116:-0.0555564 117:-0.962962 118:-1 119:-1 120:-1 121:-1 122:-1 123:-1 124:-0.891599 125:0.00952457 126:0.989526 127:-1 128:-1 129:-1 130:-1 131:-1 132:-1 133:-1 134:-1 135:-1 136:-1 137:-1 138:-1 139:-1 140:-1 141:-1 142:-0.888888 143:0.185186 144:-0.188034 145:-1 146:-1 150:-1 
-0.03125 -0.03125 -0.03125 -0.03125 -0.03125 1:-1 2:-1 3:-0.417129 4:0.695125 5:-0.876288 6:-1 7:-1 8:-1 9:-1 10:-1 11:-1 12:-1 13:-1 14:-1 15:-1 16:-0.814432 17:0.814432 18:-1 19:-1 20:-1 21:-1 22:-1 23:-1 24:-1 25:-1 26:-1 27:-1 28:-1 29:-1 30:-1 31:-1 32:-0.961888 33:0.198117 34:0.016585 35:-1 36:-1 37:-1 38:-1 39:-1 40:-1 41:-1 42:-1 43:-1 44:-1 45:-1 46:-1 47:-1 48:-1 49:-1 50:-1 51:-1 52:-1 53:-1 54:-0.756443 55:1 56:-0.778898 57:-0.447557 58:-1 59:-1 60:-1 61:-1 62:-1 63:-1 64:-1 65:-1 66:-1 67:-1 68:-1 69:1 70:-0.871135 71:-0.860685 72:-0.463918 73:-1 74:-1 75:-1 76:-1 77:-1 78:-1 79:-0.785994 80:0.752578 81:-0.886504 82:-1 83:-1 84:-1 85:-1 86:-1 87:-1 88:-1 89:-1 90:-1 92:-1 93:-1 94:-1 95:-1 96:-1 97:-0.828909 98:-0.894714 99:-0.933913 100:0.154004 101:-0.306533 102:-0.814432 103:-1 104:-1 105:-1 107:-1 108:-1 109:-1 110:-1 111:-1 112:-0.9592 113:-0.833197 114:-0.825349 115:0.435051 116:-0.0918452 117:-1 118:-1 119:-1 120:-1 121:-1 122:-1 123:-1 124:0.0560737 125:0.293667 126:-0.956567 127:-1 128:-1 129:-1 130:-1 131:-1 132:-1 133:-1 134:-1 135:-1 136:-1 137:-1 138:-1 139:-1 140:-1 141:-1 142:-0.505154 143:-0.072164 144:-0.333862 145:-1 146:-1 150:-1 
-0.03125 -0.03125 -0.03125 -0.03125 -0.03125 1:-1 2:-0.919651 3:-0.721486 4:0.126214 5:0.275864 6:-0.812194 7:-1 8:-1 9:-1 10:-1 11:-1 12:-1 13:-1 14:-1 15:-1 16:0.568966 17:-0.568966 18:-1 19:-1 20:-1 21:-1 22:-1 23:-1 24:-1 25:-1 26:-1 27:-1 28:-1 29:-1 30:-1 31:-0.160614 32:-0.458202 33:-0.554722 34:-0.109446 35:-0.403411 36:-1 37:-1 38:-1 39:-1 40:-1 41:-1 42:-1 43:-1 44:-1 45:-1 46:-1 47:-1 48:-1 49:-1 50:-1 51:-1 52:-1 53:-1 54:-1 55:-1 56:0.746149 57:-0.15761 58:-1 59:-1 60:-1 61:-1 62:-1 63:-1 64:-1 65:-1 66:-1 67:-1 68:-1 69:-1 70:-1 71:0.378534 72:-0.224138 73:-1 74:-1 75:-1 76:-1 77:-1 78:-1 79:0.661712 80:-0.12069 81:-1 82:-1 83:-1 84:-1 85:-1 86:-1 87:-1 88:-1 89:-1 90:-1 92:-1 93:-1 94:-1 95:-1 96:-1 97:-1 98:-0.95598 99:-0.530282 100:-0.129619 101:0.056213 102:-1 103:-1 104:-1 105:-1 107:-1 108:-1 109:-1 110:-1 111:-1 112:-1 113:-1 114:-0.233267 115:-0.0500004 116:0.139106 117:-1 118:-1 119:-1 120:-1 121:-1 122:-1 123:-0.808778 124:0.438183 125:-0.0600974 126:-1 127:-1 128:-1 129:-1 130:-1 131:-1 132:-1 133:-1 134:-1 135:-1 136:-1 137:-1 138:-1 139:-1 140:-1 141:-1 142:0.137932 143:-0.137932 144:-1 145:-1 146:-1 150:-1 
-0.03125 -0.03125 -0.03125 -0.03125 -0.03125 1:-1 2:-0.883495 3:-0.805556 4:-0.249192 5:1 6:-0.806351 7:-1 8:-1 9:-1 10:-1 11:-1 12:-1 13:-1 14:-1 15:-1 16:0.133334 17:-0.133334 18:-1 19:-1 20:-1 21:-1 22:-1 23:-1 24:-1 25:-1 26:-1 27:-1 28:-1 29:-1 30:-1 31:-0.783627 32:-0.650844 33:-0.856521 34:-0.36087 35:0.537879 36:-1 37:-0.961417 38:-0.881331 39:-0.807097 40:-0.862318 41:-1 42:-1 43:-1 44:-1 45:-1 46:-1 47:-1 48:-1 49:-1 50:-1 51:-1 52:-1 53:-0.768118 54:-0.906249 55:-0.915798 56:0.416547 57:-0.211957 58:-0.705312 59:-1 60:-1 61:-1 62:-1 63:-1 64:-1 65:-1 66:-1 67:-1 68:-1 69:-0.94611 70:-0.791667 71:0.426426 72:-0.466666 73:-1 74:-1 75:-1 76:-1 77:-1 78:-1 79:0.878159 80:-0.3 81:-0.963302 82:-1 83:-1 84:-1 85:-1 86:-1 87:-1 88:-1 89:-1 90:-1 92:-1 93:-1 94:-1 95:-1 96:-1 97:-1 98:-1 99:-0.804131 100:-0.402508 101:0.601579 102:-1 103:-1 104:-1 105:-1 107:-1 108:-1 109:-1 110:-1 111:-1 112:-1 113:-1 114:-0.717646 115:-0.0494436 116:0.403789 117:-1 118:-1 119:-1 120:-1 121:-1 122:-1 123:-0.958923 124:1 125:-0.554285 126:-0.882968 127:-0.834127 128:-1 129:-1 130:-1 131:-1 132:-1 133:-1 134:-1 135:-1 136:-1 137:-1 138:-1 139:-1 140:-1 141:-1 142:-0.2 143:-0.477778 144:-0.217949 145:-1 146:-1 150:-1 
-0.03125 -0.03125 -0.03125 -0.03125 -0.03125 1:0.157253 2:-0.552947 3:-0.514757 4:-0.908331 5:-0.302324 6:-0.493355 7:-0.641193 8:-0.526578 9:-0.889333 10:-1 11:-1 12:-1 13:-1 14:-1 15:-1 16:-0.465116 17:0.11628 18:-0.660003 19:-0.988372 20:-1 21:-1 22:-1 23:-1 24:-1 25:-1 26:-1 27:-1 28:-1 29:-1 30:-1 31:-0.94339 32:0.246651 33:-0.724722 34:-0.631445 35:-0.50185 36:-0.454944 37:-0.878875 38:-0.172094 39:-1 40:-1 41:-1 42:-1 43:-1 44:-1 45:-1 46:-1 47:-1 48:-1 49:-1 50:-1 51:-1 52:-0.873995 53:-0.271991 54:-0.391714 55:-0.242188 56:-0.251857 57:-0.743429 58:-0.938321 59:-1 60:-1 61:-1 62:-1 63:-1 64:-1 65:-1 66:-1 67:-0.547534 68:0.0571529 69:-0.567636 70:-0.43314 71:-0.685732 72:-0.72093 73:-0.179996 74:-0.833331 75:-1 76:-1 77:-1 78:-0.147957 79:1 80:-0.860466 81:-0.923191 82:-0.884337 83:-1 84:-1 85:-1 86:-1 87:-1 88:-1 89:-1 90:-1 92:-1 93:-1 94:-1 95:-1 96:-1 97:-1 98:-0.970311 99:-0.832288 100:-0.157782 101:0.187217 102:-0.88372 103:-1 104:-1 105:-1 107:-1 108:-1 109:-1 110:-1 111:-1 112:-1 113:-1 114:-0.655268 115:-0.156976 116:0.199525 117:-0.802326 118:-0.960548 119:-1 120:-1 121:-1 122:1 123:-0.333685 124:-0.404425 125:-0.593356 126:-0.534598 127:-0.889534 128:0.229827 129:-1 130:-1 131:-1 132:-1 133:-1 134:-1 135:-1 136:-1 137:-1 138:-1 139:-1 140:-0.88372 141:-0.645893 142:-0.244186 143:-0.767442 144:-0.194992 145:-0.969315 146:-1 150:-1 
-0.03125 -0.03125 -0.03125 -0.03125 -0.03125 1:-1 2:-1 3:-0.495192 4:-0.69285 5:-0.772728 6:-0.752436 7:-0.342534 8:-0.955935 9:-1 10:-0.986549 11:-0.0466458 12:0.0325085 13:-0.81835 14:-1 15:-1 16:-0.761364 17:0.602272 18:-0.839595 19:-1 20:-1 21:-1 22:-1 23:-1 24:-1 25:-1 26:-1 27:-1 28:-1 29:-1 30:-1 31:-1 32:-0.978994 33:-0.963316 34:-0.426384 35:-0.737863 36:-0.21875 37:-0.487056 38:-0.959544 39:-1 40:-1 41:-0.606737 42:-0.663194 43:-0.532902 44:1 45:1 46:1 47:-0.706088 48:-0.514204 49:-0.359017 50:-1 51:-0.972464 52:-0.815289 53:-0.881424 54:-0.654829 55:-0.293855 56:-0.675048 57:-0.946271 58:-1 59:-1 60:-1 61:-1 62:-1 63:-1 64:-0.146794 65:0.792208 66:-1 67:-1 68:-0.971301 69:-0.963256 70:-0.758522 71:-0.526516 72:-0.806818 73:-0.0650708 74:-1 75:-1 76:-1 77:-1 78:-0.877547 79:-0.342868 80:0.318182 81:-0.799833 82:-1 83:-1 84:-1 85:-1 86:-1 87:-1 88:-1 89:-1 90:-1 92:-1 93:-1 94:-1 95:-1 96:-1 97:-0.937135 98:-0.970986 99:-0.854311 100:-0.42634 101:0.378632 102:-0.806818 103:-1 104:-1 105:-1 107:-1 108:-1 109:-1 110:-1 111:-1 112:-0.977512 113:-0.984678 114:-0.903744 115:0.103978 116:-0.459968 117:-0.488636 118:-0.74939 119:-0.889279 120:-1 121:-1 122:-1 123:-0.978994 124:-0.550998 125:-0.357143 126:0.723548 127:-0.814935 128:-0.651071 129:-1 130:-1 131:-1 132:-1 133:-1 134:-1 135:-1 136:-1 137:-1 138:-1 139:-1 140:-1 141:-0.779782 142:-0.34091 143:-0.897728 144:-0.2264 145:0.0795441 146:-1 150:-1 
-0.03125 -0.03125 -0.03125 -0.03125 -0.03125 1:-0.687275 2:-0.826112 3:-0.698623 4:-0.00825852 5:-0.492536 6:-0.674839 7:-0.251598 8:-0.826379 9:-1 10:-1 11:-1 12:-1 13:-1 14:-1 15:-1 16:-1 17:0.089552 18:-0.0970767 19:-0.985074 20:-1 21:-1 22:-1 23:-1 24:-1 25:-1 26:-1 27:-1 28:-1 29:-1 30:-1 31:-1 32:-1 33:-0.823328 34:0.173913 35:-0.286805 36:-0.020525 37:-0.689056 38:-1 39:-1 40:-1 41:-1 42:-1 43:-1 44:-1 45:-1 46:-1 47:-1 48:-1 49:-1 50:-1 51:-1 52:-1 53:-0.610641 54:-0.672575 55:0.176307 56:-0.181962 57:-0.694192 58:-1 59:-1 60:-1 61:-1 62:-1 63:-1 64:-0.709465 65:-0.694858 66:-0.66813 67:-0.502196 68:-0.736149 69:-0.927612 70:-0.496267 71:-0.579804 72:-0.492538 73:-0.70763 74:0.497527 75:-1 76:-1 77:-0.453731 78:-0.646164 79:0.748326 80:-0.597014 81:-0.934273 82:-0.740192 83:-1 84:-1 85:-1 86:-1 87:-1 88:-1 89:-1 90:-1 92:-1 93:-1 94:-1 95:-1 96:-1 97:-1 98:-1 99:-0.904324 100:-0.230158 101:-0.300803 102:-0.343284 103:-1 104:-1 105:-1 107:-1 108:-1 109:-1 110:-1 111:-1 112:-1 113:-1 114:-1 115:-0.632089 116:-0.152306 117:0.014926 118:-1 119:-1 120:-1 121:-1 122:-1 123:0.462232 124:-0.279212 125:-0.938592 126:0.289087 127:-0.939233 128:-1 129:-1 130:-1 131:-1 132:-1 133:-1 134:-1 135:-1 136:-1 137:-1 138:-1 139:-1 140:-1 141:-1 142:-0.820896 143:0.358208 144:-0.466132 145:-1 146:-1 150:-1 
-0.03125 -0.03125 -0.03125 -0.03125 -0.03125 1:-0.925169 2:-0.733702 3:-0.288461 4:0.174481 5:-0.628572 6:-1 7:-1 8:-1 9:-1 10:-1 11:-1 12:-1 13:-1 14:-1 15:-1 16:-0.885714 17:0.6 18:-0.711925 19:-1 20:-1 21:-1 22:-1 23:-1 24:-1 25:-1 26:-1 27:-1 28:-1 29:-1 30:-1 31:-1 32:-1 33:-0.615684 34:0.408695 35:-0.270291 36:-1 37:-1 38:-1 39:-1 40:-1 41:-1 42:-1 43:-1 44:-1 45:-1 46:-1 47:-1 48:-1 49:-1 50:-1 51:-1 52:-1 53:-0.888196 54:-0.783035 55:-0.653571 56:0.821277 57:-0.887423 58:-1 59:-1 60:-1 61:-1 62:-1 63:-1 64:-1 65:-1 66:-1 67:-1 68:-0.927844 69:-0.838333 70:-0.803573 71:-0.308236 72:0.1 73:-1 74:-1 75:-1 76:-1 77:-1 78:-0.599754 79:0.334482 80:-0.114286 81:-0.968545 82:-1 83:-1 84:-1 85:-1 86:-1 87:-1 88:-1 89:-1 90:-1 92:-1 93:-1 94:-1 95:-1 96:-1 97:-1 98:-1 99:-1 100:-0.874578 101:0.0295852 102:0.028572 103:-1 104:-1 105:-1 107:-1 108:-1 109:-1 110:-1 111:-1 112:-1 113:-1 114:-0.818488 115:0.118571 116:-0.68539 117:-0.142858 118:-0.975765 119:-1 120:-1 121:-1 122:-1 123:-0.735929 124:-0.121951 125:0.278369 126:-0.969906 127:-1 128:-1 129:-1 130:-1 131:-1 132:-1 133:-1 134:-1 135:-1 136:-1 137:-1 138:-1 139:-1 140:-1 141:-1 142:-0.342858 143:-0.371428 144:-0.175824 145:-1 146:-1 150:-1 
-0.03125 -0.03125 -0.03125 -0.03125 -0.03125 1:-1 2:-0.892457 3:0.428994 4:-0.0470498 5:-1 6:-1 7:-1 8:-1 9:-1 10:-1 11:-1 12:-1 13:-1 14:-1 15:-1 16:-0.723076 18:-0.317481 19:-0.953846 20:-1 21:-1 22:-1 23:-1 24:-1 25:-1 26:-1 27:-1 28:-1 29:-1 30:-1 31:-1 32:-0.914685 33:0.40719 34:-0.512375 35:-0.619754 36:-1 37:-1 38:-1 39:-1 40:-1 41:-1 42:-1 43:-1 44:-1 45:-1 46:-1 47:-1 48:-1 49:-1 50:-1 51:-1 52:-0.833288 53:-0.117055 54:-0.325 55:-0.930048 56:-0.41342 57:0.042641 58:-1 59:-1 60:-1 61:-1 62:-1 63:-1 64:-1 65:-1 66:-1 67:-0.144796 68:-0.417208 69:-0.278718 70:-0.942307 71:-0.428275 72:-0.384616 73:-1 74:-1 75:-1 76:-1 77:-1 78:-1 79:-0.247216 80:-0.015384 81:-0.441073 82:-1 83:-1 84:-1 85:-1 86:-1 87:-1 88:-1 89:-1 90:-1 92:-1 93:-1 94:-1 95:-1 96:-1 97:-0.787231 98:-0.351882 99:-0.679487 100:-0.949349 101:-0.112971 102:-0.56923 103:-1 104:-1 105:-1 107:-1 108:-1 109:-1 110:-1 111:-1 112:-0.969557 113:-0.273984 114:-0.478732 115:-0.955383 116:0.14126 117:-0.815384 118:-1 119:-1 120:-1 121:-1 122:-1 123:-1 124:-0.302062 125:0.265935 126:-0.578688 127:-0.874725 128:-1 129:-1 130:-1 131:-1 132:-1 133:-1 134:-1 135:-1 136:-1 137:-1 138:-1 139:-1 140:-1 141:-1 142:-0.96923 143:0.96923 144:-1 145:-1 146:-1 150:-1 
-0.03125 -0.03125 -0.03125 -0.03125 -0.03125 1:-1 2:-0.874895 3:-0.0242644 4:-0.0627492 5:-0.570468 6:-0.824546 7:-0.84468 8:-1 9:-1 10:-1 11:-1 12:-1 13:-1 14:-1 15:-1 16:-0.543624 17:-0.355704 18:-0.187974 19:-0.90604 20:-1 21:-1 22:-1 23:-1 24:-1 25:-1 26:-1 27:-1 28:-1 29:-1 30:-1 31:-0.803958 32:-0.801506 33:-0.176686 34:-0.0860807 35:-0.535539 36:-0.916106 37:-1 38:-1 39:-1 40:-1 41:-1 42:-1 43:-1 44:-1 45:-1 46:-1 47:-1 48:-1 49:-1 50:-1 51:-0.967477 52:1 53:-0.47476 54:-0.954697 55:-0.918623 56:-0.824074 57:0.163555 58:-0.822002 59:-0.947386 60:-1 61:-1 62:-1 63:-1 64:-1 65:-1 66:-1 67:-0.179228 68:1 69:-0.9349 70:-0.714765 71:-0.803495 72:-0.395974 73:-0.947415 74:-1 75:-1 76:-1 77:-1 78:-1 79:-0.323305 80:-0.597316 81:-0.497568 82:0.702324 83:-1 84:-1 85:-1 86:-1 87:-1 88:-1 89:-1 90:-1 92:-1 93:-1 94:-1 95:-1 96:-1 97:-0.85149 98:-0.263172 99:-0.634314 100:-0.705387 101:-0.113219 102:-0.865772 103:-1 104:-1 105:-1 107:-1 108:-1 109:-1 110:-1 111:-1 112:-0.707815 113:-0.276074 114:-0.715752 115:-0.766443 116:0.135754 117:-0.959732 118:-1 119:-1 120:-1 121:-1 122:-1 123:-0.875941 124:-0.528564 125:-0.337295 126:-0.85862 127:0.184086 128:-0.908408 129:-1 130:-1 131:-1 132:-1 133:-1 134:-1 135:-1 136:-1 137:-1 138:-1 139:-1 140:-1 141:-1 142:-0.838926 143:0.81208 144:-0.969024 145:-1 146:-1 150:-1 
