svm_type c_svc
kernel_type rbf
gamma 0.0066666666666666671
nr_class 6
total_sv 72
rho 0.12479156255722046 -0.03662484884262085 -0.019591033458709717 -0.030949503183364868 -0.013776421546936035 -0.17961451411247253 -0.15365347266197205 -0.16093522310256958 -0.126874178647995 0.022422105073928833 0.024445652961730957 0.058928489685058594 -0.0028751790523529053 0.00901031494140625 0.013778954744338989
label 0 1 2 3 4 5
nr_sv 12 12 12 12 12 12
SV
1 1 1 1 1 1:0 2:0 3:0.073394 4:0.201835 5:0.018349 6:0.009174 7:0.018349 8:0.027523 9:0.027523 10:0.174312 11:0.376147 12:0.073394 13:0 14:0 15:0 16:0 17:0.376147 18:0.623853 19:0 20:0 21:0 22:0 23:0 24:0 25:0 26:0 27:0 28:0 29:0 30:0 31:0 32:0.045872 33:0.027523 34:0.201835 35:0.018349 36:0.018349 37:0.009174 38:0.027523 39:0.055046 40:0.036697 41:0.449541 42:0.110092 43:0 44:0 45:0 46:0.027523 47:0.541284 48:0.06422 49:0.027523 50:0.027523 51:0.018349 52:0.018349 53:0.009174 54:0.247706 55:0.018349 56:0 57:0 58:0 59:0 60:0 61:0 62:0.412844 63:0.229358 64:0.027523 65:0.018349 66:0.018349 67:0.018349 68:0.009174 69:0.211009 70:0.055046 71:0 72:0 73:0 74:0 75:0 76:0 77:0 78:0 79:0 80:0.229358 81:0.06422 82:0.018349 83:0.018349 84:0.009174 85:0.165138 86:0.146789 87:0.165138 88:0.137615 89:0.045872 90:0 91:0 92:0 93:0 94:0 95:0 96:0 97:0 98:0 99:0.192661 100:0.018349 101:0.174312 102:0.59633 103:0.018349 104:0 105:0 106:0 107:0 108:0 109:0 110:0 111:0 112:0 113:0 114:0.183486 115:0.036697 116:0.110092 117:0.669725 118:0 119:0 120:0 121:0 122:0 123:0 124:0 125:0.211009 126:0.036697 127:0.045872 128:0.036697 129:0.027523 130:0.165138 131:0.146789 132:0.174312 133:0.146789 134:0.009174 135:0 136:0 137:0 138:0 139:0 140:0 141:0 142:0.036697 143:0.623853 144:0.330275 145:0.009174 146:0 147:0 148:0 149:0 150:0 
1 1 1 1 1 1:0 2:0 3:0.012422 4:0.124224 5:0.024845 6:0.018634 7:0.031056 8:0.031056 9:0.068323 10:0.086957 11:0.217391 12:0.21118 13:0.130435 14:0.043478 15:0 16:0 17:0.335404 18:0.664596 19:0 20:0 21:0 22:0 23:0 24:0 25:0 26:0 27:0 28:0 29:0 30:0 31:0 32:0 33:0.124224 34:0.043478 35:0.024845 36:0.031056 37:0.024845 38:0.018634 39:0.068323 40:0.180124 41:0.223602 42:0.180124 43:0.062112 44:0.018634 45:0 46:0.006211 47:0.142857 48:0.223602 49:0.124224 50:0.136646 51:0.086957 52:0.043478 53:0.018634 54:0.024845 55:0.024845 56:0.043478 57:0.124224 58:0 59:0 60:0 61:0.037267 62:0.180124 63:0.204969 64:0.192547 65:0.068323 66:0.055901 67:0.043478 68:0.031056 69:0.018634 70:0.018634 71:0.049689 72:0.099379 73:0 74:0 75:0 76:0 77:0 78:0 79:0.031056 80:0.186335 81:0.055901 82:0.124224 83:0.124224 84:0.161491 85:0.049689 86:0.080745 87:0.068323 88:0.068323 89:0.037267 90:0.012422 91:0 92:0 93:0 94:0 95:0 96:0 97:0 98:0 99:0 100:0 101:0.049689 102:0.173913 103:0.534161 104:0.236025 105:0.006211 106:0 107:0 108:0 109:0 110:0 111:0 112:0 113:0 114:0 115:0 116:0.018634 117:0.167702 118:0.484472 119:0.329193 120:0 121:0 122:0 123:0.006211 124:0.018634 125:0.229814 126:0.043478 127:0.055901 128:0.093168 129:0.111801 130:0.111801 131:0.161491 132:0.124224 133:0.037267 134:0.006211 135:0 136:0 137:0 138:0 139:0 140:0 141:0 142:0.15528 143:0.52795 144:0.298137 145:0.018634 146:0 147:0 148:0 149:0 150:0 
1 1 1 1 1 1:0 2:0.129032 3:0.010753 4:0 5:0.021505 6:0.010753 7:0.021505 8:0.021505 9:0.290323 10:0.301075 11:0.182796 12:0.010753 13:0 14:0 15:0 16:0.032258 17:0.903226 18:0.064516 19:0 20:0 21:0 22:0 23:0 24:0 25:0 26:0 27:0 28:0 29:0 30:0 31:0 32:0 33:0 34:0 35:0.107527 36:0.043011 37:0.021505 38:0.021505 39:0.11828 40:0.322581 41:0.290323 42:0.075269 43:0 44:0 45:0 46:0 47:0.204301 48:0.430108 49:0.172043 50:0.010753 51:0.010753 52:0.010753 53:0.010753 54:0.010753 55:0.021505 56:0.11828 57:0 58:0 59:0 60:0 61:0 62:0.215054 63:0.408602 64:0.182796 65:0.010753 66:0.021505 67:0.021505 68:0 69:0.010753 70:0.11828 71:0.010753 72:0 73:0 74:0 75:0 76:0 77:0 78:0 79:0.032258 80:0.107527 81:0.010753 82:0.064516 83:0.150538 84:0.16129 85:0.182796 86:0.193548 87:0.096774 88:0 89:0 90:0 91:0 92:0 93:0 94:0 95:0 96:0 97:0 98:0 99:0.010753 100:0.784946 101:0.204301 102:0 103:0 104:0 105:0 106:0 107:0 108:0 109:0 110:0 111:0 112:0 113:0 114:0 115:0.580645 116:0.419355 117:0 118:0 119:0 120:0 121:0 122:0 123:0 124:0 125:0.010753 126:0.139785 127:0.032258 128:0.11828 129:0.150538 130:0.150538 131:0.172043 132:0.204301 133:0.021505 134:0 135:0 136:0 137:0 138:0 139:0 140:0 141:0.075269 142:0.924731 143:0 144:0 145:0 146:0 147:0 148:0 149:0 150:0 
1 1 1 1 1 1:0 2:0 3:0 4:0.039216 5:0.058824 6:0.006536 7:0.006536 8:0.006536 9:0.013072 10:0.006536 11:0.098039 12:0.320261 13:0.437908 14:0.006536 15:0 16:0.071895 17:0.699346 18:0.228758 19:0 20:0 21:0 22:0 23:0 24:0 25:0 26:0 27:0 28:0 29:0 30:0 31:0 32:0 33:0.045752 34:0.052288 35:0 36:0.006536 37:0.006536 38:0.006536 39:0.013072 40:0.006536 41:0.098039 42:0.248366 43:0.437908 44:0.078431 45:0 46:0 47:0.385621 48:0.431373 49:0.039216 50:0.006536 51:0.013072 52:0.006536 53:0.006536 54:0.006536 55:0.006536 56:0.006536 57:0.091503 58:0 59:0 60:0 61:0.013072 62:0.418301 63:0.372549 64:0.052288 65:0.006536 66:0.013072 67:0.006536 68:0.006536 69:0.006536 70:0.013072 71:0.091503 72:0 73:0 74:0 75:0 76:0 77:0 78:0 79:0 80:0.104575 81:0.006536 82:0.006536 83:0.084967 84:0.326797 85:0.30719 86:0.163399 87:0 88:0 89:0 90:0 91:0 92:0 93:0 94:0 95:0 96:0 97:0 98:0 99:0 100:0.202614 101:0.45098 102:0.300654 103:0.039216 104:0.006536 105:0 106:0 107:0 108:0 109:0 110:0 111:0 112:0 113:0 114:0 115:0.254902 116:0.575163 117:0.104575 118:0.058824 119:0.006536 120:0 121:0 122:0 123:0 124:0 125:0.111111 126:0.006536 127:0.013072 128:0.104575 129:0.228758 130:0.287582 131:0.228758 132:0.019608 133:0 134:0 135:0 136:0 137:0 138:0 139:0 140:0 141:0.071895 142:0.254902 143:0.673203 144:0 145:0 146:0 147:0 148:0 149:0 150:0 
1 1 1 1 1 1:0 2:0 3:0 4:0.2 5:0.005128 6:0.005128 7:0.005128 8:0 9:0.005128 10:0.097436 11:0.441026 12:0.225641 13:0.015385 14:0 15:0 16:0.933333 17:0.066667 18:0 19:0 20:0 21:0 22:0 23:0 24:0 25:0 26:0 27:0 28:0 29:0 30:0 31:0 32:0 33:0.189744 34:0.005128 35:0.025641 36:0.010256 37:0.015385 38:0.010256 39:0.010256 40:0.179487 41:0.471795 42:0.082051 43:0 44:0 45:0 46:0 47:0 48:0.420513 49:0.179487 50:0.14359 51:0.005128 52:0.010256 53:0.015385 54:0.005128 55:0.010256 56:0.189744 57:0.020513 58:0 59:0 60:0 61:0 62:0.025641 63:0.507692 64:0.2 65:0.051282 66:0.005128 67:0 68:0.005128 69:0 70:0.010256 71:0.194872 72:0 73:0 74:0 75:0 76:0 77:0 78:0 79:0.184615 80:0.066667 81:0.241026 82:0.164103 83:0.066667 84:0.087179 85:0.102564 86:0.087179 87:0 88:0 89:0 90:0 91:0 92:0 93:0 94:0 95:0 96:0.005128 97:0.005128 98:0.046154 99:0.302564 100:0.54359 101:0.097436 102:0 103:0 104:0 105:0 106:0 107:0 108:0 109:0 110:0 111:0 112:0 113:0 114:0.420513 115:0.553846 116:0.025641 117:0 118:0 119:0 120:0 121:0.005128 122:0.015385 123:0.010256 124:0.246154 125:0.169231 126:0.169231 127:0.107692 128:0.102564 129:0.112821 130:0.041026 131:0.020513 132:0 133:0 134:0 135:0 136:0 137:0 138:0 139:0 140:0 141:0.692308 142:0.307692 143:0 144:0 145:0 146:0 147:0 148:0 149:0 150:0 
1 1 1 1 1 1:0 2:0 3:0 4:0.163551 5:0.168224 6:0.018692 7:0.014019 8:0.018692 9:0.023364 10:0.028037 11:0.093458 12:0.224299 13:0.247664 14:0 15:0 16:0.130841 17:0.799065 18:0.070093 19:0 20:0 21:0 22:0 23:0 24:0 25:0 26:0 27:0 28:0 29:0 30:0 31:0 32:0 33:0 34:0.214953 35:0.046729 36:0.051402 37:0.03271 38:0.03271 39:0.046729 40:0.037383 41:0.051402 42:0.336449 43:0.098131 44:0.051402 45:0 46:0 47:0.121495 48:0.327103 49:0.070093 50:0.046729 51:0.028037 52:0.046729 53:0.028037 54:0.03271 55:0.046729 56:0.252336 57:0 58:0 59:0 60:0 61:0 62:0.093458 63:0.336449 64:0.121495 65:0.03271 66:0.023364 67:0.014019 68:0.018692 69:0.014019 70:0.023364 71:0.32243 72:0 73:0 74:0 75:0 76:0 77:0 78:0 79:0.238318 80:0.168224 81:0.116822 82:0.196262 83:0.056075 84:0.065421 85:0.037383 86:0.079439 87:0.042056 88:0 89:0 90:0 91:0 92:0 93:0 94:0 95:0 96:0 97:0 98:0 99:0.004673 100:0.911215 101:0.084112 102:0 103:0 104:0 105:0 106:0 107:0 108:0 109:0 110:0 111:0 112:0 113:0 114:0.079439 115:0.46729 116:0.453271 117:0 118:0 119:0 120:0 121:0 122:0 123:0 124:0.275701 125:0.098131 126:0.196262 127:0.182243 128:0.079439 129:0.051402 130:0.046729 131:0.070093 132:0 133:0 134:0 135:0 136:0 137:0 138:0 139:0 140:0 141:0 142:0 143:0.537383 144:0.462617 145:0 146:0 147:0 148:0 149:0 150:0 
1 1 1 1 1 1:0 2:0.116402 3:0.005291 4:0.116402 5:0.116402 6:0.126984 7:0.259259 8:0.058201 9:0.063492 10:0.089947 11:0.037037 12:0.010582 13:0 14:0 15:0 16:0 17:0.100529 18:0.529101 19:0.359788 20:0.010582 21:0 22:0 23:0 24:0 25:0 26:0 27:0 28:0 29:0 30:0 31:0 32:0 33:0 34:0 35:0.010582 36:0.243386 37:0.169312 38:0.174603 39:0.132275 40:0.063492 41:0.190476 42:0.015873 43:0 44:0 45:0 46:0.005291 47:0.037037 48:0.10582 49:0.037037 50:0.280423 51:0.412698 52:0.026455 53:0.005291 54:0.026455 55:0.005291 56:0.026455 57:0.031746 58:0 59:0 60:0 61:0.005291 62:0.111111 63:0.047619 64:0.05291 65:0.126984 66:0.269841 67:0.121693 68:0.047619 69:0.095238 70:0.005291 71:0.116402 72:0 73:0 74:0 75:0 76:0 77:0 78:0.063492 79:0.238095 80:0.391534 81:0.074074 82:0.047619 83:0.084656 84:0.042328 85:0.031746 86:0.026455 87:0 88:0 89:0 90:0 91:0 92:0 93:0 94:0 95:0 96:0 97:0.253968 98:0.460317 99:0.116402 100:0.169312 101:0 102:0 103:0 104:0 105:0 106:0 107:0 108:0 109:0 110:0 111:0 112:0.047619 113:0.132275 114:0.269841 115:0.375661 116:0.153439 117:0.021164 118:0 119:0 120:0 121:0 122:0 123:0.037037 124:0.132275 125:0.10582 126:0.095238 127:0.206349 128:0.074074 129:0.079365 130:0.047619 131:0.169312 132:0.05291 133:0 134:0 135:0 136:0 137:0 138:0 139:0 140:0 141:0.126984 142:0.777778 143:0.095238 144:0 145:0 146:0 147:0 148:0 149:0 150:0 
1 1 1 1 1 1:0 2:0 3:0 4:0.010363 5:0.233161 6:0.062176 7:0.067358 8:0.093264 9:0.041451 10:0.031088 11:0.082902 12:0.290155 13:0.088083 14:0 15:0 16:0.015544 17:0.621762 18:0.34715 19:0.015544 20:0 21:0 22:0 23:0 24:0 25:0 26:0 27:0 28:0 29:0 30:0 31:0 32:0.025907 33:0.088083 34:0.150259 35:0.145078 36:0.062176 37:0.020725 38:0.036269 39:0.082902 40:0.072539 41:0.031088 42:0.145078 43:0.139896 44:0 45:0 46:0.046632 47:0.031088 48:0.181347 49:0.046632 50:0.082902 51:0.093264 52:0.036269 53:0.036269 54:0.015544 55:0.015544 56:0.165803 57:0.056995 58:0.098446 59:0.082902 60:0.010363 61:0 62:0.015544 63:0.222798 64:0.07772 65:0.098446 66:0.160622 67:0.067358 68:0.056995 69:0.025907 70:0.160622 71:0.093264 72:0.020725 73:0 74:0 75:0 76:0 77:0 78:0 79:0.202073 80:0.19171 81:0.139896 82:0.098446 83:0.088083 84:0.088083 85:0.088083 86:0.051813 87:0.005181 88:0.020725 89:0.010363 90:0.015544 91:0 92:0 93:0 94:0 95:0 96:0 97:0 98:0 99:0.15544 100:0.108808 101:0.067358 102:0.352332 103:0.259067 104:0.056995 105:0 106:0 107:0 108:0 109:0 110:0 111:0 112:0 113:0.005181 114:0.020725 115:0.082902 116:0.502591 117:0.264249 118:0.067358 119:0.056995 120:0 121:0 122:0 123:0.010363 124:0.145078 125:0.119171 126:0.212435 127:0.062176 128:0.129534 129:0.150259 130:0.088083 131:0.082902 132:0 133:0 134:0 135:0 136:0 137:0.098446 138:0.098446 139:0 140:0 141:0.233161 142:0.264249 143:0.305699 144:0 145:0 146:0 147:0 148:0 149:0 150:0 
1 1 1 1 1 1:0 2:0 3:0.172414 4:0.137931 5:0.008621 6:0.034483 7:0.043103 8:0.025862 9:0.043103 10:0.241379 11:0.293103 12:0 13:0 14:0 15:0 16:0 17:0 18:0.836207 19:0.163793 20:0 21:0 22:0 23:0 24:0 25:0 26:0 27:0 28:0 29:0 30:0 31:0 32:0.025862 33:0.068966 34:0.051724 35:0.181034 36:0.025862 37:0.034483 38:0.043103 39:0.051724 40:0.344828 41:0.172414 42:0 43:0 44:0 45:0 46:0 47:0.137931 48:0.405172 49:0.034483 50:0.060345 51:0.025862 52:0.189655 53:0.008621 54:0.112069 55:0.025862 56:0 57:0 58:0 59:0 60:0 61:0 62:0.034483 63:0.474138 64:0.060345 65:0.025862 66:0.025862 67:0.051724 68:0.017241 69:0.275862 70:0.034483 71:0 72:0 73:0 74:0 75:0 76:0 77:0 78:0 79:0 80:0.284483 81:0.146552 82:0.043103 83:0.137931 84:0.12069 85:0.112069 86:0.12931 87:0.025862 88:0 89:0 90:0 91:0 92:0 93:0 94:0 95:0 96:0 97:0.017241 98:0.112069 99:0.008621 100:0.301724 101:0.560345 102:0 103:0 104:0 105:0 106:0 107:0 108:0 109:0 110:0 111:0 112:0 113:0 114:0.215517 115:0.198276 116:0.474138 117:0.112069 118:0 119:0 120:0 121:0 122:0 123:0 124:0 125:0.232759 126:0.215517 127:0.017241 128:0.077586 129:0.12069 130:0.103448 131:0.12931 132:0.103448 133:0 134:0 135:0 136:0 137:0 138:0 139:0 140:0 141:0.034483 142:0.551724 143:0.413793 144:0 145:0 146:0 147:0 148:0 149:0 150:0 
1 1 1 1 1 1:0 2:0 3:0 4:0 5:0 6:0 7:0.018868 8:0.037736 9:0.006289 10:0.08805 11:0.106918 12:0.345912 13:0.36478 14:0.031447 15:0 16:0.081761 17:0.798742 18:0.119497 19:0 20:0 21:0 22:0 23:0 24:0 25:0 26:0 27:0 28:0 29:0 30:0 31:0 32:0 33:0 34:0 35:0 36:0 37:0 38:0.037736 39:0.050314 40:0.125786 41:0.232704 42:0.257862 43:0.295597 44:0 45:0 46:0.018868 47:0.226415 48:0.27044 49:0.251572 50:0.132075 51:0.025157 52:0.075472 53:0 54:0 55:0 56:0 57:0 58:0 59:0 60:0 61:0 62:0.113208 63:0.509434 64:0.176101 65:0.113208 66:0.031447 67:0.012579 68:0.037736 69:0.006289 70:0 71:0 72:0 73:0 74:0 75:0 76:0 77:0 78:0.062893 79:0.037736 80:0.037736 81:0.113208 82:0.100629 83:0.138365 84:0.09434 85:0.119497 86:0.169811 87:0.106918 88:0.018868 89:0 90:0 91:0 92:0 93:0 94:0 95:0 96:0 97:0 98:0 99:0.006289 100:0.163522 101:0.522013 102:0.188679 103:0.119497 104:0 105:0 106:0 107:0 108:0 109:0 110:0 111:0 112:0 113:0 114:0 115:0.050314 116:0.465409 117:0.264151 118:0.220126 119:0 120:0 121:0 122:0 123:0.031447 124:0.018868 125:0.08805 126:0.08805 127:0.08805 128:0.106918 129:0.081761 130:0.113208 131:0.100629 132:0.194969 133:0.08805 134:0 135:0 136:0 137:0 138:0 139:0 140:0 141:0 142:0.459119 143:0.477987 144:0.062893 145:0 146:0 147:0 148:0 149:0 150:0 
1 1 1 1 1 1:0 2:0 3:0.009852 4:0 5:0.093596 6:0.054187 7:0.034483 8:0.014778 9:0.08867 10:0.17734 11:0.403941 12:0.08867 13:0.034483 14:0 15:0 16:0 17:1 18:0 19:0 20:0 21:0 22:0 23:0 24:0 25:0 26:0 27:0 28:0 29:0 30:0 31:0 32:0 33:0 34:0 35:0 36:0 37:0.004926 38:0.098522 39:0.231527 40:0.300493 41:0.334975 42:0.029557 43:0 44:0 45:0 46:0 47:0.093596 48:0.44335 49:0.187192 50:0.26601 51:0 52:0.009852 53:0 54:0 55:0 56:0 57:0 58:0 59:0 60:0 61:0 62:0.054187 63:0.26601 64:0.359606 65:0.118227 66:0.009852 67:0.014778 68:0.019704 69:0 70:0.147783 71:0.009852 72:0 73:0 74:0 75:0 76:0 77:0.004926 78:0.009852 79:0.172414 80:0.024631 81:0.064039 82:0.054187 83:0.054187 84:0.098522 85:0.147783 86:0.349754 87:0.019704 88:0 89:0 90:0 91:0 92:0 93:0 94:0 95:0 96:0 97:0 98:0 99:0 100:0.009852 101:0.832512 102:0.157635 103:0 104:0 105:0 106:0 107:0 108:0 109:0 110:0 111:0 112:0 113:0 114:0 115:0 116:0.679803 117:0.320197 118:0 119:0 120:0 121:0 122:0 123:0 124:0 125:0.167488 126:0.024631 127:0.078818 128:0.108374 129:0.118227 130:0.118227 131:0.334975 132:0.049261 133:0 134:0 135:0 136:0 137:0 138:0 139:0 140:0 141:0.029557 142:0.950739 143:0.019704 144:0 145:0 146:0 147:0 148:0 149:0 150:0 
1 1 1 1 1 1:0 2:0 3:0.025773 4:0.061856 5:0.041237 6:0.051546 7:0 8:0 9:0.005155 10:0.005155 11:0.015464 12:0.407216 13:0.216495 14:0.154639 15:0.015464 16:0.015464 17:0.984536 18:0 19:0 20:0 21:0 22:0 23:0 24:0 25:0 26:0 27:0 28:0 29:0 30:0 31:0 32:0 33:0 34:0.123711 35:0.051546 36:0.005155 37:0 38:0.005155 39:0 40:0.005155 41:0.14433 42:0.371134 43:0.278351 44:0.015464 45:0 46:0 47:0.175258 48:0.304124 49:0.324742 50:0.005155 51:0.005155 52:0 53:0.005155 54:0 55:0.005155 56:0.175258 57:0 58:0 59:0 60:0 61:0.07732 62:0.195876 63:0.386598 64:0.14433 65:0.010309 66:0 67:0.005155 68:0 69:0.015464 70:0.051546 71:0.046392 72:0.051546 73:0.015464 74:0 75:0 76:0 77:0 78:0 79:0.082474 80:0.06701 81:0.041237 82:0.072165 83:0.020619 84:0.092784 85:0.113402 86:0.252577 87:0.242268 88:0.015464 89:0 90:0 91:0 92:0 93:0 94:0 95:0 96:0 97:0 98:0 99:0 100:0 101:0.149485 102:0.78866 103:0.061856 104:0 105:0 106:0 107:0 108:0 109:0 110:0 111:0 112:0 113:0 114:0 115:0 116:0.139175 117:0.747423 118:0.113402 119:0 120:0 121:0 122:0 123:0 124:0.097938 125:0.087629 126:0.005155 127:0.025773 128:0.07732 129:0.118557 130:0.128866 131:0.231959 132:0.221649 133:0.005155 134:0 135:0 136:0 137:0 138:0 139:0 140:0 141:0.015464 142:0.123711 143:0.860825 144:0 145:0 146:0 147:0 148:0 149:0 150:0 
-1 1 1 1 1 1:0 2:0.257143 3:0.742857 4:0 5:0 6:0 7:0 8:0 9:0 10:0 11:0 12:0 13:0 14:0 15:0 16:0 17:0 18:0.695238 19:0.304762 20:0 21:0 22:0 23:0 24:0 25:0 26:0 27:0 28:0 29:0 30:0 31:0 32:0 33:0.019048 34:0.07619 35:0.238095 36:0.304762 37:0.028571 38:0.019048 39:0.028571 40:0.028571 41:0.066667 42:0.180952 43:0.009524 44:0 45:0 46:0 47:0.066667 48:0.085714 49:0.114286 50:0.038095 51:0.028571 52:0.019048 53:0.314286 54:0.142857 55:0.161905 56:0.028571 57:0 58:0 59:0 60:0 61:0 62:0 63:0 64:0 65:0 66:0 67:0 68:0 69:0 70:0.8 71:0.2 72:0 73:0 74:0 75:0 76:0 77:0 78:0 79:0 80:0.47619 81:0.52381 82:0 83:0 84:0 85:0 86:0 87:0 88:0 89:0 90:0 91:0 92:0 93:0 94:0 95:0 96:0 97:0 98:0 99:0 100:0.885714 101:0.114286 102:0 103:0 104:0 105:0 106:0 107:0 108:0 109:0 110:0 111:0.8 112:0.2 113:0 114:0 115:0 116:0 117:0 118:0 119:0 120:0 121:0 122:0 123:0 124:0 125:0.514286 126:0.180952 127:0.038095 128:0.028571 129:0.161905 130:0.019048 131:0.019048 132:0.038095 133:0 134:0 135:0 136:0 137:0 138:0 139:0 140:0 141:0 142:0 143:0.133333 144:0.866667 145:0 146:0 147:0 148:0 149:0 150:0 
-1 1 1 1 1 1:0.031579 2:0.042105 3:0.147368 4:0.189474 5:0.010526 6:0.010526 7:0.010526 8:0.515789 9:0.042105 10:0 11:0 12:0 13:0 14:0 15:0 16:0 17:0.073684 18:0.926316 19:0 20:0 21:0 22:0 23:0 24:0 25:0 26:0 27:0 28:0 29:0 30:0 31:0 32:0 33:0 34:0.347368 35:0.147368 36:0.021053 37:0.021053 38:0.010526 39:0.010526 40:0.021053 41:0.094737 42:0.242105 43:0.084211 44:0 45:0 46:0 47:0 48:0.073684 49:0.336842 50:0.031579 51:0.010526 52:0.010526 53:0.010526 54:0.010526 55:0.031579 56:0.157895 57:0.326316 58:0 59:0 60:0 61:0 62:0 63:0 64:0 65:0 66:0 67:0.010526 68:0.336842 69:0.231579 70:0.021053 71:0.178947 72:0.157895 73:0.052632 74:0.010526 75:0 76:0 77:0.042105 78:0.094737 79:0.284211 80:0.021053 81:0.073684 82:0.010526 83:0.473684 84:0 85:0 86:0 87:0 88:0 89:0 90:0 91:0 92:0 93:0 94:0 95:0 96:0 97:0 98:0 99:0 100:0 101:0 102:0 103:0.031579 104:0.378947 105:0.589474 106:0 107:0 108:0 109:0 110:0 111:0 112:0 113:0 114:0 115:0 116:0 117:0 118:0.589474 119:0.410526 120:0 121:0 122:0 123:0 124:0 125:0.052632 126:0.368421 127:0.263158 128:0.094737 129:0.136842 130:0.052632 131:0.031579 132:0 133:0 134:0 135:0 136:0 137:0 138:0 139:0 140:0 141:0 142:0.010526 143:0 144:0.589474 145:0.378947 146:0.021053 147:0 148:0 149:0 150:0 
-1 1 1 1 1 1:0 2:0 3:0.684211 4:0.210526 5:0.052632 6:0 7:0 8:0 9:0.052632 10:0 11:0 12:0 13:0 14:0 15:0 16:0 17:0.350877 18:0.649123 19:0 20:0 21:0 22:0 23:0 24:0 25:0 26:0 27:0 28:0 29:0 30:0 31:0 32:0 33:0 34:0 35:0 36:0 37:0 38:0 39:0.105263 40:0.403509 41:0.491228 42:0 43:0 44:0 45:0 46:0 47:0.333333 48:0.561404 49:0.087719 50:0.017544 51:0 52:0 53:0 54:0 55:0 56:0 57:0 58:0 59:0 60:0 61:0 62:0 63:0 64:0.052632 65:0 66:0 67:0 68:0 69:0 70:0.649123 71:0.298246 72:0 73:0 74:0 75:0 76:0 77:0 78:0 79:0.070175 80:0.684211 81:0.192982 82:0.017544 83:0.035088 84:0 85:0 86:0 87:0 88:0 89:0 90:0 91:0 92:0 93:0 94:0 95:0 96:0 97:0 98:0 99:0 100:0.070175 101:0.491228 102:0.438596 103:0 104:0 105:0 106:0 107:0 108:0 109:0 110:0 111:0 112:0 113:0 114:0.280702 115:0.333333 116:0.210526 117:0.175439 118:0 119:0 120:0 121:0 122:0 123:0 124:0 125:0 126:0.105263 127:0.736842 128:0.052632 129:0.052632 130:0.052632 131:0 132:0 133:0 134:0 135:0 136:0 137:0 138:0 139:0 140:0 141:0 142:1 143:0 144:0 145:0 146:0 147:0 148:0 149:0 150:0 
-1 1 1 1 1 1:0 2:0 3:0 4:0.313725 5:0.117647 6:0.176471 7:0.098039 8:0.078431 9:0.039216 10:0.078431 11:0.078431 12:0.019608 13:0 14:0 15:0 16:0.647059 17:0.352941 18:0 19:0 20:0 21:0 22:0 23:0 24:0 25:0 26:0 27:0 28:0 29:0 30:0 31:0 32:0 33:0.039216 34:0.039216 35:0.196078 36:0.058824 37:0 38:0.019608 39:0.039216 40:0.058824 41:0.039216 42:0.196078 43:0.313725 44:0 45:0 46:0 47:0.078431 48:0.372549 49:0.039216 50:0.039216 51:0.039216 52:0.039216 53:0.039216 54:0.098039 55:0.117647 56:0.058824 57:0.078431 58:0 59:0 60:0 61:0 62:0 63:0 64:0.019608 65:0.019608 66:0.058824 67:0.078431 68:0.098039 69:0.039216 70:0.27451 71:0.411765 72:0 73:0 74:0 75:0 76:0 77:0.058824 78:0.137255 79:0 80:0.529412 81:0.137255 82:0 83:0 84:0.019608 85:0.039216 86:0.078431 87:0 88:0 89:0 90:0 91:0 92:0 93:0 94:0 95:0 96:0 97:0 98:0.019608 99:0.098039 100:0.607843 101:0.196078 102:0.078431 103:0 104:0 105:0 106:0 107:0 108:0 109:0 110:0 111:0 112:0 113:0 114:0 115:0.137255 116:0.862745 117:0 118:0 119:0 120:0 121:0 122:0 123:0 124:0 125:0.078431 126:0.137255 127:0.137255 128:0.019608 129:0.372549 130:0.235294 131:0.019608 132:0 133:0 134:0 135:0 136:0 137:0 138:0 139:0 140:0 141:0 142:0 143:0.019608 144:0.568627 145:0.333333 146:0.078431 147:0 148:0 149:0 150:0 
-1 1 1 1 1 1:0 2:0 3:0.568 4:0.424 5:0.008 6:0 7:0 8:0 9:0 10:0 11:0 12:0 13:0 14:0 15:0 16:1 17:0 18:0 19:0 20:0 21:0 22:0 23:0 24:0 25:0 26:0 27:0 28:0 29:0 30:0 31:0.032 32:0.272 33:0.008 34:0.024 35:0.016 36:0.024 37:0.112 38:0.096 39:0.288 40:0.128 41:0 42:0 43:0 44:0 45:0 46:0 47:0 48:0.072 49:0.272 50:0.224 51:0.048 52:0.024 53:0.032 54:0.016 55:0.024 56:0.264 57:0.024 58:0 59:0 60:0 61:0 62:0 63:0 64:0 65:0 66:0 67:0 68:0 69:0 70:0 71:0.888 72:0.112 73:0 74:0 75:0 76:0 77:0 78:0.464 79:0.536 80:0 81:0 82:0 83:0 84:0 85:0 86:0 87:0 88:0 89:0 90:0 91:0 92:0 93:0 94:0 95:0 96:0 97:0 98:0 99:0.624 100:0.376 101:0 102:0 103:0 104:0 105:0 106:0 107:0 108:0 109:0 110:0 111:0 112:0 113:0.024 114:0.16 115:0.36 116:0.456 117:0 118:0 119:0 120:0 121:0 122:0 123:0 124:0.36 125:0.456 126:0.128 127:0.04 128:0.016 129:0 130:0 131:0 132:0 133:0 134:0 135:0 136:0 137:0 138:0 139:0 140:0 141:0 142:1 143:0 144:0 145:0 146:0 147:0 148:0 149:0 150:0 
-1 1 1 1 1 1:0 2:0 3:0.112069 4:0.887931 5:0 6:0 7:0 8:0 9:0 10:0 11:0 12:0 13:0 14:0 15:0 16:0.344828 17:0.655172 18:0 19:0 20:0 21:0 22:0 23:0 24:0 25:0 26:0 27:0 28:0 29:0 30:0 31:0 32:0 33:0.146552 34:0.396552 35:0.017241 36:0.025862 37:0.017241 38:0.017241 39:0.094828 40:0.017241 41:0.034483 42:0.155172 43:0.077586 44:0 45:0 46:0 47:0 48:0.215517 49:0.034483 50:0.025862 51:0.094828 52:0.017241 53:0.017241 54:0.025862 55:0.017241 56:0.163793 57:0.387931 58:0 59:0 60:0 61:0 62:0 63:0 64:0 65:0 66:0 67:0 68:0 69:0 70:0 71:0 72:1 73:0 74:0 75:0 76:0 77:0 78:0 79:0.215517 80:0.784483 81:0 82:0 83:0 84:0 85:0 86:0 87:0 88:0 89:0 90:0 91:0 92:0 93:0 94:0 95:0 96:0 97:0 98:0 99:0 100:0.62069 101:0.37931 102:0 103:0 104:0 105:0 106:0 107:0 108:0 109:0 110:0 111:0 112:0 113:0 114:0 115:0.344828 116:0.655172 117:0 118:0 119:0 120:0 121:0 122:0 123:0 124:0.241379 125:0.362069 126:0.206897 127:0.094828 128:0.043103 129:0.034483 130:0.017241 131:0 132:0 133:0 134:0 135:0 136:0 137:0 138:0 139:0 140:0 141:0 142:0.163793 143:0.836207 144:0 145:0 146:0 147:0 148:0 149:0 150:0 
-1 1 1 1 1 1:0 2:0 3:0 4:0 5:0 6:0 7:0 8:0 9:0.112069 10:0.844828 11:0.043103 12:0 13:0 14:0 15:0 16:0 17:1 18:0 19:0 20:0 21:0 22:0 23:0 24:0 25:0 26:0 27:0 28:0 29:0 30:0 31:0.060345 32:0.232759 33:0.241379 34:0.077586 35:0.017241 36:0.051724 37:0.198276 38:0.043103 39:0.077586 40:0 41:0 42:0 43:0 44:0 45:0 46:0 47:0.025862 48:0.12931 49:0.189655 50:0.034483 51:0.034483 52:0.215517 53:0.206897 54:0.094828 55:0.068966 56:0 57:0 58:0 59:0 60:0 61:0 62:0 63:0 64:0 65:0 66:0 67:0 68:0.077586 69:0.431034 70:0.491379 71:0 72:0 73:0 74:0 75:0 76:0 77:0 78:0 79:0.353448 80:0.163793 81:0.422414 82:0.043103 83:0.017241 84:0 85:0 86:0 87:0 88:0 89:0 90:0 91:0 92:0 93:0 94:0 95:0 96:0 97:0 98:0 99:0 100:0.181034 101:0.810345 102:0.008621 103:0 104:0 105:0 106:0 107:0 108:0 109:0 110:0 111:0 112:0 113:0 114:0 115:0.224138 116:0.060345 117:0.655172 118:0.060345 119:0 120:0 121:0 122:0 123:0 124:0.068966 125:0.017241 126:0.060345 127:0.310345 128:0.293103 129:0.086207 130:0.025862 131:0.103448 132:0.034483 133:0 134:0 135:0 136:0 137:0 138:0 139:0 140:0 141:0 142:1 143:0 144:0 145:0 146:0 147:0 148:0 149:0 150:0 
-1 1 1 1 1 1:0 2:0 3:0.472 4:0.528 5:0 6:0 7:0 8:0 9:0 10:0 11:0 12:0 13:0 14:0 15:0 16:0 17:1 18:0 19:0 20:0 21:0 22:0 23:0 24:0 25:0 26:0 27:0 28:0 29:0 30:0 31:0 32:0 33:0.136 34:0.032 35:0.032 36:0.32 37:0.288 38:0.112 39:0.032 40:0.024 41:0.024 42:0 43:0 44:0 45:0 46:0 47:0 48:0 49:0 50:0.024 51:0.024 52:0.08 53:0.152 54:0.456 55:0.08 56:0.032 57:0.152 58:0 59:0 60:0 61:0 62:0 63:0 64:0 65:0 66:0 67:0 68:0 69:0 70:0 71:0.416 72:0.584 73:0 74:0 75:0 76:0 77:0 78:0 79:0 80:1 81:0 82:0 83:0 84:0 85:0 86:0 87:0 88:0 89:0 90:0 91:0 92:0 93:0 94:0 95:0 96:0 97:0 98:0 99:0 100:0 101:0 102:1 103:0 104:0 105:0 106:0 107:0 108:0 109:0 110:0 111:0 112:0 113:0 114:0 115:0 116:0 117:1 118:0 119:0 120:0 121:0 122:0 123:0 124:0.192 125:0.344 126:0.408 127:0.056 128:0 129:0 130:0 131:0 132:0 133:0 134:0 135:0 136:0 137:0 138:0 139:0 140:0 141:0 142:0 143:1 144:0 145:0 146:0 147:0 148:0 149:0 150:0 
-1 1 1 1 1 1:0 2:0 3:0 4:0.286885 5:0.02459 6:0.098361 7:0.163934 8:0.122951 9:0.065574 10:0.098361 11:0.139344 12:0 13:0 14:0 15:0 16:0 17:0 18:0.991803 19:0.008197 20:0 21:0 22:0 23:0 24:0 25:0 26:0 27:0 28:0 29:0 30:0 31:0 32:0.040984 33:0.114754 34:0.286885 35:0.07377 36:0.057377 37:0.032787 38:0.065574 39:0.114754 40:0.155738 41:0.057377 42:0 43:0 44:0 45:0 46:0 47:0.032787 48:0.122951 49:0.114754 50:0.139344 51:0.04918 52:0.04918 53:0.139344 54:0.098361 55:0.254098 56:0 57:0 58:0 59:0 60:0 61:0 62:0 63:0.196721 64:0.172131 65:0.106557 66:0.114754 67:0.090164 68:0.008197 69:0.098361 70:0.213115 71:0 72:0 73:0 74:0 75:0 76:0 77:0 78:0 79:0.008197 80:0.122951 81:0.54918 82:0.319672 83:0 84:0 85:0 86:0 87:0 88:0 89:0 90:0 91:0 92:0 93:0 94:0 95:0 96:0 97:0 98:0 99:0 100:0.688525 101:0.311475 102:0 103:0 104:0 105:0 106:0 107:0 108:0 109:0 110:0 111:0 112:0 113:0 114:0.090164 115:0.614754 116:0.295082 117:0 118:0 119:0 120:0 121:0 122:0 123:0 124:0 125:0.237705 126:0.286885 127:0.032787 128:0.106557 129:0.180328 130:0.090164 131:0.016393 132:0.02459 133:0.02459 134:0 135:0 136:0 137:0 138:0 139:0 140:0 141:0 142:0 143:0.909836 144:0.090164 145:0 146:0 147:0 148:0 149:0 150:0 
-1 1 1 1 1 1:0 2:0 3:0 4:0.019802 5:0.059406 6:0.019802 7:0.138614 8:0.029703 9:0.19802 10:0.217822 11:0.089109 12:0.227723 13:0 14:0 15:0 16:0 17:1 18:0 19:0 20:0 21:0 22:0 23:0 24:0 25:0 26:0 27:0 28:0 29:0 30:0 31:0 32:0 33:0.009901 34:0.445545 35:0.039604 36:0.049505 37:0.019802 38:0.029703 39:0.019802 40:0.019802 41:0.039604 42:0.049505 43:0.168317 44:0.108911 45:0 46:0 47:0 48:0.118812 49:0.148515 50:0.079208 51:0.029703 52:0.019802 53:0.029703 54:0.009901 55:0.029703 56:0.138614 57:0.376238 58:0.019802 59:0 60:0 61:0 62:0 63:0 64:0.217822 65:0.19802 66:0.247525 67:0.128713 68:0.069307 69:0.049505 70:0.039604 71:0.049505 72:0 73:0 74:0 75:0 76:0 77:0 78:0 79:0.435644 80:0.336634 81:0.227723 82:0 83:0 84:0 85:0 86:0 87:0 88:0 89:0 90:0 91:0 92:0 93:0 94:0 95:0 96:0 97:0 98:0 99:0 100:0 101:0.029703 102:0.970297 103:0 104:0 105:0 106:0 107:0 108:0 109:0 110:0 111:0 112:0 113:0 114:0 115:0 116:0.049505 117:0.950495 118:0 119:0 120:0 121:0 122:0 123:0 124:0.108911 125:0.366337 126:0.148515 127:0.039604 128:0.188119 129:0.089109 130:0.059406 131:0 132:0 133:0 134:0 135:0 136:0 137:0 138:0 139:0 140:0 141:0 142:0 143:0.108911 144:0.70297 145:0.188119 146:0 147:0 148:0 149:0 150:0 
-1 1 1 1 1 1:0 2:0.858333 3:0.141667 4:0 5:0 6:0 7:0 8:0 9:0 10:0 11:0 12:0 13:0 14:0 15:0 16:0 17:0 18:0 19:1 20:0 21:0 22:0 23:0 24:0 25:0 26:0 27:0 28:0 29:0 30:0 31:0.016667 32:0.241667 33:0.558333 34:0.05 35:0.05 36:0.083333 37:0 38:0 39:0 40:0 41:0 42:0 43:0 44:0 45:0 46:0 47:0 48:0 49:0 50:0 51:0.066667 52:0.066667 53:0.383333 54:0.441667 55:0.041667 56:0 57:0 58:0 59:0 60:0 61:0 62:0 63:0 64:0 65:0 66:0 67:0 68:0.05 69:0.258333 70:0.691667 71:0 72:0 73:0 74:0 75:0 76:0 77:0 78:0 79:0 80:0.091667 81:0.908333 82:0 83:0 84:0 85:0 86:0 87:0 88:0 89:0 90:0 91:0 92:0 93:0 94:0 95:0 96:0 97:0 98:0.783333 99:0.216667 100:0 101:0 102:0 103:0 104:0 105:0 106:0 107:0 108:0 109:0 110:0 111:0 112:0.091667 113:0.741667 114:0.166667 115:0 116:0 117:0 118:0 119:0 120:0 121:0 122:0 123:0 124:0.25 125:0.508333 126:0.133333 127:0.025 128:0.016667 129:0.025 130:0.041667 131:0 132:0 133:0 134:0 135:0 136:0 137:0 138:0 139:0 140:0 141:0 142:1 143:0 144:0 145:0 146:0 147:0 148:0 149:0 150:0 
-1 1 1 1 1 1:0 2:0 3:0.163522 4:0.616352 5:0.062893 6:0.006289 7:0.150943 8:0 9:0 10:0 11:0 12:0 13:0 14:0 15:0 16:0.044025 17:0.955975 18:0 19:0 20:0 21:0 22:0 23:0 24:0 25:0 26:0 27:0 28:0 29:0 30:0 31:0 32:0 33:0.056604 34:0.63522 35:0.08805 36:0.031447 37:0.037736 38:0.081761 39:0.050314 40:0.018868 41:0 42:0 43:0 44:0 45:0 46:0 47:0 48:0 49:0 50:0 51:0.037736 52:0.100629 53:0.031447 54:0.044025 55:0.037736 56:0.515723 57:0.232704 58:0 59:0 60:0 61:0 62:0 63:0 64:0 65:0 66:0 67:0 68:0 69:0.150943 70:0.006289 71:0.08805 72:0.72327 73:0.031447 74:0 75:0 76:0 77:0 78:0 79:0.295597 80:0.496855 81:0.207547 82:0 83:0 84:0 85:0 86:0 87:0 88:0 89:0 90:0 91:0 92:0 93:0 94:0 95:0 96:0 97:0 98:0 99:0 100:0 101:0.251572 102:0.748428 103:0 104:0 105:0 106:0 107:0 108:0 109:0 110:0 111:0 112:0 113:0 114:0 115:0 116:0.660377 117:0.339623 118:0 119:0 120:0 121:0 122:0 123:0.031447 124:0.63522 125:0.220126 126:0.037736 127:0.012579 128:0.006289 129:0.018868 130:0.018868 131:0.018868 132:0 133:0 134:0 135:0 136:0 137:0 138:0 139:0 140:0 141:0 142:0 143:0.955975 144:0.044025 145:0 146:0 147:0 148:0 149:0 150:0 
-1 -1 1 1 1 1:0.024876 2:0.00995 3:0.029851 4:0.313433 5:0.044776 6:0.029851 7:0.109453 8:0.313433 9:0.089552 10:0.029851 11:0.004975 12:0 13:0 14:0 15:0 16:0.228856 17:0.437811 18:0.333333 19:0 20:0 21:0 22:0 23:0 24:0 25:0 26:0 27:0 28:0 29:0 30:0 31:0 32:0.034826 33:0.119403 34:0.313433 35:0.124378 36:0.223881 37:0.139303 38:0.029851 39:0.014925 40:0 41:0 42:0 43:0 44:0 45:0 46:0 47:0 48:0 49:0 50:0 51:0 52:0.024876 53:0.074627 54:0.562189 55:0.248756 56:0.074627 57:0.014925 58:0 59:0 60:0 61:0 62:0 63:0 64:0 65:0 66:0.039801 67:0.124378 68:0.263682 69:0.308458 70:0.129353 71:0.029851 72:0.059701 73:0.044776 74:0 75:0 76:0.0199 77:0.054726 78:0.059701 79:0.089552 80:0.353234 81:0.303483 82:0.114428 83:0.004975 84:0 85:0 86:0 87:0 88:0 89:0 90:0 91:0 92:0 93:0 94:0 95:0 96:0 97:0 98:0 99:0.00995 100:0.467662 101:0.18408 102:0.293532 103:0.044776 104:0 105:0 106:0 107:0 108:0 109:0 110:0 111:0 112:0 113:0.044776 114:0.313433 115:0.432836 116:0.034826 117:0.059701 118:0.094527 119:0.0199 120:0 121:0 122:0 123:0.054726 124:0.313433 125:0.114428 126:0.328358 127:0.114428 128:0.039801 129:0.014925 130:0.0199 131:0 132:0 133:0 134:0 135:0 136:0 137:0 138:0 139:0 140:0.004975 141:0.039801 142:0.333333 143:0.59204 144:0.029851 145:0 146:0 147:0 148:0 149:0 150:0 
-1 -1 1 1 1 1:0 2:0.015789 3:0.231579 4:0.310526 5:0.115789 6:0.042105 7:0.005263 8:0.021053 9:0.015789 10:0.047368 11:0 12:0.168421 13:0.026316 14:0 15:0 16:0.152632 17:0.631579 18:0.147368 19:0.042105 20:0.015789 21:0.005263 22:0.005263 23:0 24:0 25:0 26:0 27:0 28:0 29:0 30:0 31:0 32:0.010526 33:0.431579 34:0.231579 35:0.236842 36:0.036842 37:0 38:0.005263 39:0.005263 40:0.015789 41:0.026316 42:0 43:0 44:0 45:0 46:0 47:0 48:0 49:0 50:0.010526 51:0.026316 52:0.015789 53:0.073684 54:0.105263 55:0.152632 56:0.236842 57:0.352632 58:0.005263 59:0.005263 60:0.015789 61:0 62:0 63:0.142105 64:0.057895 65:0 66:0.068421 67:0.068421 68:0.052632 69:0.115789 70:0.142105 71:0.063158 72:0.289474 73:0 74:0 75:0 76:0 77:0 78:0.005263 79:0.026316 80:0.547368 81:0.057895 82:0.089474 83:0.021053 84:0.026316 85:0.173684 86:0.052632 87:0 88:0 89:0 90:0 91:0 92:0 93:0 94:0 95:0 96:0.047368 97:0.052632 98:0.005263 99:0.042105 100:0.084211 101:0.094737 102:0.121053 103:0.405263 104:0.052632 105:0.094737 106:0 107:0 108:0 109:0 110:0 111:0 112:0.026316 113:0.042105 114:0.105263 115:0.205263 116:0.163158 117:0.084211 118:0.342105 119:0 120:0.031579 121:0 122:0 123:0 124:0.126316 125:0.431579 126:0.057895 127:0.021053 128:0.015789 129:0.015789 130:0.021053 131:0.073684 132:0.147368 133:0.084211 134:0 135:0.005263 136:0 137:0.005263 138:0.031579 139:0.052632 140:0.021053 141:0.110526 142:0.184211 143:0.215789 144:0.378947 145:0 146:0 147:0 148:0 149:0 150:0 
-1 -1 1 1 1 1:0 2:0.423077 3:0.292308 4:0.007692 5:0.053846 6:0.046154 7:0.038462 8:0.061538 9:0.046154 10:0.030769 11:0 12:0 13:0 14:0 15:0 16:0.030769 17:0.323077 18:0.215385 19:0.3 20:0.092308 21:0.038462 22:0 23:0 24:0 25:0 26:0 27:0 28:0 29:0 30:0 31:0.023077 32:0.4 33:0.215385 34:0.092308 35:0.038462 36:0.092308 37:0.076923 38:0.015385 39:0 40:0.007692 41:0.007692 42:0.023077 43:0.007692 44:0 45:0 46:0 47:0 48:0.023077 49:0.007692 50:0.007692 51:0.030769 52:0.030769 53:0.069231 54:0.176923 55:0.138462 56:0.338462 57:0.146154 58:0.023077 59:0.007692 60:0 61:0 62:0.038462 63:0.015385 64:0.053846 65:0.053846 66:0.023077 67:0.069231 68:0.030769 69:0.346154 70:0.223077 71:0.146154 72:0 73:0 74:0 75:0 76:0 77:0.007692 78:0.030769 79:0.153846 80:0.330769 81:0.223077 82:0.253846 83:0 84:0 85:0 86:0 87:0 88:0 89:0 90:0 91:0 92:0 93:0 94:0 95:0 96:0 97:0.361538 98:0.053846 99:0.1 100:0.192308 101:0.292308 102:0 103:0 104:0 105:0 106:0 107:0 108:0 109:0 110:0 111:0 112:0.015385 113:0.046154 114:0.038462 115:0.3 116:0.215385 117:0.330769 118:0.053846 119:0 120:0 121:0 122:0 123:0.053846 124:0.2 125:0.261538 126:0.015385 127:0.123077 128:0.215385 129:0.076923 130:0.053846 131:0 132:0 133:0 134:0 135:0 136:0 137:0 138:0 139:0.030769 140:0.4 141:0.207692 142:0.361538 143:0 144:0 145:0 146:0 147:0 148:0 149:0 150:0 
-1 -1 1 1 1 1:0.005814 2:0.069767 3:0.44186 4:0.197674 5:0.052326 6:0.098837 7:0.063953 8:0.040698 9:0.011628 10:0.017442 11:0 12:0 13:0 14:0 15:0 16:0.040698 17:0.238372 18:0.19186 19:0.05814 20:0.034884 21:0.017442 22:0.011628 23:0.017442 24:0 25:0.023256 26:0.005814 27:0.017442 28:0.151163 29:0.151163 30:0.040698 31:0.098837 32:0.139535 33:0.081395 34:0.127907 35:0.063953 36:0.145349 37:0.098837 38:0.063953 39:0.081395 40:0.040698 41:0.052326 42:0.005814 43:0 44:0 45:0 46:0 47:0.052326 48:0.284884 49:0.145349 50:0.040698 51:0.052326 52:0.104651 53:0.02907 54:0.023256 55:0.034884 56:0.226744 57:0.005814 58:0 59:0 60:0 61:0 62:0 63:0 64:0 65:0.005814 66:0.034884 67:0.023256 68:0.052326 69:0.215116 70:0.098837 71:0.133721 72:0.25 73:0.116279 74:0.069767 75:0 76:0 77:0.011628 78:0.104651 79:0.110465 80:0.25 81:0.151163 82:0.197674 83:0.122093 84:0.034884 85:0.005814 86:0.005814 87:0.005814 88:0 89:0 90:0 91:0 92:0 93:0 94:0 95:0 96:0 97:0.005814 98:0.034884 99:0.127907 100:0.139535 101:0.290698 102:0.104651 103:0.110465 104:0.151163 105:0.034884 106:0 107:0 108:0.139535 109:0.186047 110:0.116279 111:0.05814 112:0.040698 113:0.02907 114:0.02907 115:0.168605 116:0.209302 117:0.023256 118:0 119:0 120:0 121:0 122:0 123:0.017442 124:0.063953 125:0.151163 126:0.360465 127:0.174419 128:0.156977 129:0.069767 130:0 131:0.005814 132:0 133:0 134:0 135:0 136:0 137:0.011628 138:0.087209 139:0.034884 140:0.104651 141:0.186047 142:0.156977 143:0.401163 144:0.011628 145:0.005814 146:0 147:0 148:0 149:0 150:0 
-1 -1 1 1 1 1:0 2:0.048611 3:0.166667 4:0.173611 5:0.256944 6:0.173611 7:0.173611 8:0.006944 9:0 10:0 11:0 12:0 13:0 14:0 15:0 16:0.458333 17:0.375 18:0.166667 19:0 20:0 21:0 22:0 23:0 24:0 25:0 26:0 27:0 28:0 29:0 30:0 31:0 32:0 33:0 34:0.166667 35:0.034722 36:0.145833 37:0.069444 38:0.034722 39:0.006944 40:0.125 41:0.215278 42:0.159722 43:0.041667 44:0 45:0 46:0 47:0 48:0.090278 49:0.291667 50:0.111111 51:0.006944 52:0 53:0.159722 54:0.145833 55:0.034722 56:0.006944 57:0.152778 58:0 59:0 60:0 61:0 62:0 63:0 64:0 65:0 66:0 67:0.006944 68:0.194444 69:0.3125 70:0.208333 71:0.180556 72:0.097222 73:0 74:0 75:0 76:0 77:0.020833 78:0.041667 79:0.305556 80:0.4375 81:0.194444 82:0 83:0 84:0 85:0 86:0 87:0 88:0 89:0 90:0 91:0 92:0 93:0 94:0 95:0.013889 96:0.104167 97:0.034722 98:0.013889 99:0.076389 100:0.0625 101:0.354167 102:0.201389 103:0.034722 104:0.034722 105:0.069444 106:0 107:0 108:0 109:0 110:0 111:0 112:0.048611 113:0.180556 114:0.215278 115:0.256944 116:0.291667 117:0.006944 118:0 119:0 120:0 121:0 122:0 123:0 124:0.006944 125:0.458333 126:0.368056 127:0.111111 128:0.055556 129:0 130:0 131:0 132:0 133:0 134:0 135:0 136:0 137:0 138:0.006944 139:0.013889 140:0.305556 141:0.673611 142:0 143:0 144:0 145:0 146:0 147:0 148:0 149:0 150:0 
-1 -1 1 1 1 1:0 2:0 3:0.039326 4:0.337079 5:0.157303 6:0.101124 7:0.196629 8:0.078652 9:0.02809 10:0.02809 11:0.005618 12:0.02809 13:0 14:0 15:0 16:0.241573 17:0.297753 18:0.308989 19:0.101124 20:0.02809 21:0.016854 22:0.005618 23:0 24:0 25:0 26:0 27:0 28:0 29:0 30:0 31:0 32:0 33:0.011236 34:0.241573 35:0.140449 36:0.067416 37:0.089888 38:0.280899 39:0.095506 40:0.05618 41:0.016854 42:0 43:0 44:0 45:0 46:0 47:0 48:0.02809 49:0.241573 50:0.106742 51:0.022472 52:0.022472 53:0.157303 54:0.101124 55:0.095506 56:0.174157 57:0.050562 58:0 59:0 60:0 61:0 62:0 63:0 64:0.011236 65:0.039326 66:0.022472 67:0.044944 68:0.117978 69:0.308989 70:0.157303 71:0.162921 72:0.129213 73:0 74:0.005618 75:0 76:0 77:0 78:0.039326 79:0.353933 80:0.398876 81:0.123596 82:0.073034 83:0.011236 84:0 85:0 86:0 87:0 88:0 89:0 90:0 91:0 92:0 93:0 94:0 95:0.005618 96:0.016854 97:0.067416 98:0.05618 99:0.02809 100:0.213483 101:0.438202 102:0.146067 103:0.022472 104:0.005618 105:0 106:0 107:0 108:0 109:0 110:0 111:0 112:0.050562 113:0.039326 114:0.151685 115:0.280899 116:0.370787 117:0.089888 118:0.011236 119:0.005618 120:0 121:0 122:0 123:0 124:0.213483 125:0.162921 126:0.247191 127:0.11236 128:0.134831 129:0.089888 130:0.039326 131:0 132:0 133:0 134:0 135:0 136:0.005618 137:0.005618 138:0.05618 139:0.061798 140:0.039326 141:0.11236 142:0.292135 143:0.337079 144:0.089888 145:0 146:0 147:0 148:0 149:0 150:0 
-1 -1 1 1 1 1:0 2:0.128492 3:0.117318 4:0.072626 5:0.094972 6:0.027933 7:0.072626 8:0.117318 9:0.256983 10:0.100559 11:0.011173 12:0 13:0 14:0 15:0 16:0 17:0.050279 18:0.52514 19:0.078212 20:0.005587 21:0.044693 22:0.072626 23:0.061453 24:0.044693 25:0.027933 26:0.067039 27:0.022346 28:0 29:0 30:0 31:0.005587 32:0.055866 33:0.206704 34:0.03352 35:0.094972 36:0.195531 37:0.089385 38:0.162011 39:0.122905 40:0.03352 41:0 42:0 43:0 44:0 45:0 46:0 47:0 48:0 49:0 50:0.039106 51:0.139665 52:0.156425 53:0.150838 54:0.223464 55:0.189944 56:0.078212 57:0.011173 58:0.011173 59:0 60:0 61:0 62:0 63:0 64:0.089385 65:0.189944 66:0.156425 67:0.156425 68:0.061453 69:0.01676 70:0.094972 71:0.234637 72:0 73:0 74:0 75:0 76:0 77:0 78:0 79:0.083799 80:0.268156 81:0.234637 82:0.318436 83:0.089385 84:0.005587 85:0 86:0 87:0 88:0 89:0 90:0 91:0 92:0 93:0 94:0 95:0.050279 96:0.184358 97:0.195531 98:0.083799 99:0.240223 100:0.240223 101:0.005587 102:0 103:0 104:0 105:0 106:0 107:0 108:0.005587 109:0.011173 110:0.039106 111:0.106145 112:0.083799 113:0.212291 114:0.318436 115:0.083799 116:0.01676 117:0.067039 118:0.055866 119:0 120:0 121:0.005587 122:0.044693 123:0.01676 124:0.03352 125:0.139665 126:0.173184 127:0.24581 128:0.178771 129:0.139665 130:0.022346 131:0 132:0 133:0 134:0 135:0 136:0 137:0 138:0 139:0.122905 140:0.189944 141:0.301676 142:0.324022 143:0.061453 144:0 145:0 146:0 147:0 148:0 149:0 150:0 
-1 -1 1 1 1 1:0 2:0.004854 3:0.101942 4:0.218447 5:0.126214 6:0.179612 7:0.18932 8:0.126214 9:0.024272 10:0.024272 11:0 12:0.004854 13:0 14:0 15:0 16:0 17:0.407767 18:0.082524 19:0.009709 20:0.07767 21:0.029126 22:0.067961 23:0.097087 24:0.15534 25:0.072816 26:0 27:0 28:0 29:0 30:0 31:0 32:0 33:0.160194 34:0.228155 35:0.126214 36:0.150485 37:0.067961 38:0.043689 39:0.043689 40:0.121359 41:0.048544 42:0.009709 43:0 44:0 45:0 46:0 47:0 48:0.087379 49:0.033981 50:0.106796 51:0.101942 52:0.174757 53:0.087379 54:0.043689 55:0.082524 56:0.097087 57:0.179612 58:0.004854 59:0 60:0 61:0 62:0.024272 63:0.092233 64:0.063107 65:0.160194 66:0.116505 67:0.11165 68:0.048544 69:0.063107 70:0.038835 71:0.097087 72:0.15534 73:0.019417 74:0.009709 75:0 76:0 77:0.014563 78:0.101942 79:0.213592 80:0.160194 81:0.150485 82:0.11165 83:0.097087 84:0.092233 85:0.033981 86:0.024272 87:0 88:0 89:0 90:0 91:0 92:0 93:0 94:0 95:0 96:0 97:0.038835 98:0.106796 99:0.18932 100:0.271845 101:0.257282 102:0.116505 103:0.019417 104:0 105:0 106:0 107:0 108:0 109:0 110:0 111:0 112:0.024272 113:0.097087 114:0.15534 115:0.15534 116:0.407767 117:0.126214 118:0.033981 119:0 120:0 121:0 122:0 123:0.053398 124:0.067961 125:0.432039 126:0.271845 127:0.067961 128:0.053398 129:0.043689 130:0.004854 131:0.004854 132:0 133:0 134:0 135:0 136:0 137:0.038835 138:0.150485 139:0.11165 140:0.067961 141:0.024272 142:0.131068 143:0.31068 144:0.165049 145:0 146:0 147:0 148:0 149:0 150:0 
-1 -1 1 1 1 1:0.054054 2:0.205405 3:0.221622 4:0.091892 5:0.081081 6:0.064865 7:0.086486 8:0.027027 9:0.021622 10:0.12973 11:0 12:0.016216 13:0 14:0 15:0 16:0.345946 17:0.232432 18:0.394595 19:0.016216 20:0.010811 21:0 22:0 23:0 24:0 25:0 26:0 27:0 28:0 29:0 30:0 31:0.205405 32:0.421622 33:0.118919 34:0.091892 35:0.102703 36:0.016216 37:0.032432 38:0.010811 39:0 40:0 41:0 42:0 43:0 44:0 45:0 46:0 47:0 48:0 49:0 50:0 51:0 52:0 53:0.010811 54:0.12973 55:0.086486 56:0.335135 57:0.12973 58:0.183784 59:0.124324 60:0 61:0 62:0 63:0 64:0.032432 65:0.016216 66:0.032432 67:0.043243 68:0.097297 69:0.12973 70:0.113514 71:0.075676 72:0.281081 73:0.118919 74:0.059459 75:0 76:0 77:0.086486 78:0.097297 79:0.427027 80:0.135135 81:0.086486 82:0.027027 83:0.005405 84:0 85:0.005405 86:0.124324 87:0.005405 88:0 89:0 90:0 91:0 92:0 93:0 94:0 95:0 96:0 97:0 98:0.010811 99:0.183784 100:0.362162 101:0.183784 102:0.183784 103:0.048649 104:0.027027 105:0 106:0 107:0 108:0 109:0 110:0 111:0 112:0.005405 113:0.021622 114:0.075676 115:0.254054 116:0.264865 117:0.291892 118:0.075676 119:0.010811 120:0 121:0 122:0.021622 123:0.216216 124:0.237838 125:0.091892 126:0.259459 127:0.075676 128:0.07027 129:0.016216 130:0.010811 131:0 132:0 133:0 134:0 135:0 136:0 137:0 138:0.027027 139:0.059459 140:0.091892 141:0.12973 142:0.405405 143:0.27027 144:0.016216 145:0 146:0 147:0 148:0 149:0 150:0 
-1 -1 1 1 1 1:0.042328 2:0.116402 3:0.116402 4:0.439153 5:0.174603 6:0.095238 7:0.005291 8:0 9:0.005291 10:0.005291 11:0 12:0 13:0 14:0 15:0 16:0.21164 17:0.375661 18:0.164021 19:0.047619 20:0.026455 21:0.063492 22:0.047619 23:0.042328 24:0.015873 25:0.005291 26:0 27:0 28:0 29:0 30:0 31:0.015873 32:0.031746 33:0.074074 34:0.132275 35:0.227513 36:0.10582 37:0.058201 38:0.074074 39:0.047619 40:0.058201 41:0.089947 42:0.042328 43:0.042328 44:0 45:0 46:0.021164 47:0.037037 48:0.015873 49:0.037037 50:0.068783 51:0.100529 52:0.042328 53:0.079365 54:0.063492 55:0.111111 56:0.243386 57:0.116402 58:0.042328 59:0.021164 60:0 61:0 62:0 63:0 64:0.005291 65:0.010582 66:0.10582 67:0.179894 68:0.126984 69:0.153439 70:0.015873 71:0.190476 72:0.21164 73:0 74:0 75:0 76:0 77:0 78:0.026455 79:0.375661 80:0.412698 81:0.121693 82:0.063492 83:0 84:0 85:0 86:0 87:0 88:0 89:0 90:0 91:0 92:0.015873 93:0.079365 94:0.047619 95:0.042328 96:0.037037 97:0.047619 98:0.026455 99:0.015873 100:0.068783 101:0.206349 102:0.333333 103:0.021164 104:0.042328 105:0.015873 106:0 107:0 108:0 109:0 110:0 111:0 112:0 113:0 114:0.05291 115:0.201058 116:0.248677 117:0.492063 118:0.005291 119:0 120:0 121:0 122:0.005291 123:0.179894 124:0.338624 125:0.31746 126:0.037037 127:0.058201 128:0.042328 129:0.015873 130:0.005291 131:0 132:0 133:0 134:0 135:0 136:0 137:0 138:0 139:0.005291 140:0.047619 141:0.042328 142:0.227513 143:0.428571 144:0.121693 145:0.126984 146:0 147:0 148:0 149:0 150:0 
-1 -1 1 1 1 1:0 2:0.043478 3:0.146739 4:0.021739 5:0.021739 6:0.081522 7:0.076087 8:0.141304 9:0.315217 10:0.152174 11:0 12:0 13:0 14:0 15:0 16:0.081522 17:0.228261 18:0.288043 19:0.059783 20:0.163043 21:0.173913 22:0.005435 23:0 24:0 25:0 26:0 27:0 28:0 29:0 30:0 31:0.016304 32:0.108696 33:0.423913 34:0.125 35:0.054348 36:0.065217 37:0.097826 38:0.076087 39:0.032609 40:0 41:0 42:0 43:0 44:0 45:0 46:0 47:0 48:0 49:0 50:0 51:0 52:0 53:0 54:0.190217 55:0.211957 56:0.353261 57:0.163043 58:0.076087 59:0.005435 60:0 61:0 62:0 63:0 64:0.070652 65:0.342391 66:0.184783 67:0.032609 68:0.070652 69:0.086957 70:0.184783 71:0.016304 72:0.01087 73:0 74:0 75:0 76:0.005435 77:0.01087 78:0.038043 79:0.032609 80:0.326087 81:0.413043 82:0.119565 83:0.054348 84:0 85:0 86:0 87:0 88:0 89:0 90:0 91:0 92:0 93:0 94:0 95:0 96:0.01087 97:0.016304 98:0.043478 99:0.304348 100:0.434783 101:0.11413 102:0.038043 103:0.032609 104:0.005435 105:0 106:0 107:0 108:0 109:0.054348 110:0.266304 111:0.206522 112:0.016304 113:0.016304 114:0.288043 115:0.103261 116:0.032609 117:0.016304 118:0 119:0 120:0 121:0 122:0 123:0.021739 124:0.065217 125:0.277174 126:0.201087 127:0.146739 128:0.086957 129:0.157609 130:0.043478 131:0 132:0 133:0 134:0 135:0 136:0 137:0 138:0.005435 139:0.11413 140:0.380435 141:0.163043 142:0.315217 143:0.021739 144:0 145:0 146:0 147:0 148:0 149:0 150:0 
-1 -1 1 1 1 1:0 2:0 3:0.06044 4:0.368132 5:0.049451 6:0.082418 7:0.065934 8:0.115385 9:0.148352 10:0.06044 11:0.032967 12:0.005495 13:0.005495 14:0.005495 15:0 16:0.296703 17:0.324176 18:0.285714 19:0.049451 20:0.016484 21:0.016484 22:0.005495 23:0.005495 24:0 25:0 26:0 27:0 28:0 29:0 30:0 31:0.038462 32:0.17033 33:0.291209 34:0.291209 35:0.098901 36:0.06044 37:0.021978 38:0.016484 39:0 40:0 41:0.010989 42:0 43:0 44:0 45:0 46:0.005495 47:0.010989 48:0.032967 49:0.049451 50:0.043956 51:0.065934 52:0.137363 53:0.115385 54:0.076923 55:0.093407 56:0.131868 57:0.236264 58:0 59:0 60:0 61:0 62:0 63:0 64:0.010989 65:0.038462 66:0.065934 67:0.071429 68:0.115385 69:0.098901 70:0.153846 71:0.076923 72:0.324176 73:0.027473 74:0.010989 75:0.005495 76:0 77:0 78:0 79:0.164835 80:0.164835 81:0.197802 82:0.126374 83:0.131868 84:0.120879 85:0.071429 86:0.021978 87:0 88:0 89:0 90:0 91:0 92:0 93:0 94:0 95:0 96:0.065934 97:0.126374 98:0.131868 99:0.10989 100:0.10989 101:0.368132 102:0.038462 103:0.021978 104:0.021978 105:0.005495 106:0 107:0 108:0 109:0 110:0 111:0.021978 112:0.049451 113:0.153846 114:0.164835 115:0.21978 116:0.384615 117:0.005495 118:0 119:0 120:0 121:0 122:0.005495 123:0.049451 124:0.423077 125:0.324176 126:0.054945 127:0.093407 128:0.027473 129:0.016484 130:0.005495 131:0 132:0 133:0 134:0 135:0 136:0 137:0.027473 138:0.093407 139:0.098901 140:0.071429 141:0.10989 142:0.137363 143:0.384615 144:0.06044 145:0.016484 146:0 147:0 148:0 149:0 150:0 
-1 -1 -1 1 1 1:0 2:0.003891 3:0.062257 4:0.276265 5:0.178988 6:0.190661 7:0.128405 8:0.070039 9:0.007782 10:0 11:0 12:0.015564 13:0.023346 14:0.042802 15:0 16:0.101167 17:0.669261 18:0.217899 19:0.011673 20:0 21:0 22:0 23:0 24:0 25:0 26:0 27:0 28:0 29:0 30:0 31:0 32:0 33:0.128405 34:0.33463 35:0.18677 36:0.210117 37:0.077821 38:0.035019 39:0.027237 40:0 41:0 42:0 43:0 44:0 45:0 46:0 47:0 48:0 49:0 50:0 51:0.031128 52:0.023346 53:0.066148 54:0.136187 55:0.143969 56:0.307393 57:0.287938 58:0.003891 59:0 60:0 61:0.023346 62:0.031128 63:0.015564 64:0.003891 65:0.007782 66:0 67:0.07393 68:0.085603 69:0.124514 70:0.124514 71:0.140078 72:0.29572 73:0.070039 74:0.003891 75:0 76:0.003891 77:0.003891 78:0.019455 79:0.058366 80:0.373541 81:0.276265 82:0.206226 83:0.054475 84:0.003891 85:0 86:0 87:0 88:0 89:0 90:0 91:0 92:0 93:0 94:0 95:0 96:0 97:0.007782 98:0.027237 99:0 100:0.027237 101:0.023346 102:0.404669 103:0.451362 104:0.058366 105:0 106:0 107:0 108:0 109:0 110:0 111:0 112:0.003891 113:0.015564 114:0.007782 115:0.015564 116:0.128405 117:0.284047 118:0.498054 119:0.046693 120:0 121:0 122:0 123:0.027237 124:0.066148 125:0.214008 126:0.474708 127:0.202335 128:0.015564 129:0 130:0 131:0 132:0 133:0 134:0 135:0 136:0 137:0 138:0 139:0 140:0 141:0.003891 142:0.198444 143:0.167315 144:0.48249 145:0.14786 146:0 147:0 148:0 149:0 150:0 
-1 -1 -1 1 1 1:0.053381 2:0.117438 3:0.085409 4:0.185053 5:0.124555 6:0.145907 7:0.234875 8:0.035587 9:0.014235 10:0.003559 11:0 12:0 13:0 14:0 15:0 16:0.071174 17:0.24911 18:0.238434 19:0.135231 20:0.078292 21:0.088968 22:0.096085 23:0.02847 24:0.014235 25:0 26:0 27:0 28:0 29:0 30:0 31:0.074733 32:0.156584 33:0.234875 34:0.149466 35:0.092527 36:0.103203 37:0.074733 38:0.064057 39:0.046263 40:0.003559 41:0 42:0 43:0 44:0 45:0 46:0 47:0 48:0 49:0 50:0 51:0 52:0.039146 53:0.074733 54:0.135231 55:0.142349 56:0.181495 57:0.352313 58:0.074733 59:0 60:0 61:0 62:0 63:0 64:0 65:0 66:0 67:0.074733 68:0.106762 69:0.096085 70:0.227758 71:0.213523 72:0.245552 73:0.035587 74:0 75:0 76:0 77:0 78:0 79:0 80:0.117438 81:0.291815 82:0.402135 83:0.185053 84:0.003559 85:0 86:0 87:0 88:0 89:0 90:0 91:0 92:0 93:0 94:0.010676 95:0.227758 96:0.313167 97:0.163701 98:0.053381 99:0.117438 100:0.024911 101:0.074733 102:0.010676 103:0.003559 104:0 105:0 106:0 107:0 108:0.021352 109:0.05694 110:0.042705 111:0.192171 112:0.30605 113:0.174377 114:0.181495 115:0.014235 116:0.007117 117:0.003559 118:0 119:0 120:0 121:0 122:0 123:0 124:0 125:0.049822 126:0.41637 127:0.398577 128:0.103203 129:0.021352 130:0.010676 131:0 132:0 133:0 134:0 135:0 136:0 137:0 138:0 139:0 140:0 141:0 142:0 143:0.697509 144:0.302491 145:0 146:0 147:0 148:0 149:0 150:0 
-1 -1 -1 1 1 1:0 2:0.029167 3:0.245833 4:0.175 5:0.316667 6:0.1125 7:0.066667 8:0.008333 9:0.029167 10:0.016667 11:0 12:0 13:0 14:0 15:0 16:0.429167 17:0.35 18:0.220833 19:0 20:0 21:0 22:0 23:0 24:0 25:0 26:0 27:0 28:0 29:0 30:0 31:0 32:0.029167 33:0.133333 34:0.1625 35:0.154167 36:0.216667 37:0.070833 38:0.1 39:0.0625 40:0.004167 41:0.0125 42:0.008333 43:0.016667 44:0.029167 45:0 46:0.025 47:0.008333 48:0.029167 49:0.008333 50:0 51:0.008333 52:0.070833 53:0.091667 54:0.058333 55:0.204167 56:0.295833 57:0.1125 58:0.083333 59:0.004167 60:0 61:0 62:0 63:0 64:0 65:0 66:0 67:0 68:0.054167 69:0.116667 70:0.220833 71:0.191667 72:0.283333 73:0.104167 74:0.029167 75:0 76:0 77:0 78:0.104167 79:0.133333 80:0.2125 81:0.408333 82:0.141667 83:0 84:0 85:0 86:0 87:0 88:0 89:0 90:0 91:0 92:0 93:0 94:0 95:0 96:0.008333 97:0.004167 98:0.0375 99:0.15 100:0.270833 101:0.35 102:0.116667 103:0.058333 104:0.004167 105:0 106:0 107:0 108:0 109:0 110:0 111:0 112:0 113:0.033333 114:0.1875 115:0.233333 116:0.370833 117:0.166667 118:0.008333 119:0 120:0 121:0 122:0.029167 123:0.104167 124:0.091667 125:0.166667 126:0.233333 127:0.154167 128:0.216667 129:0.004167 130:0 131:0 132:0 133:0 134:0 135:0 136:0 137:0 138:0 139:0 140:0.0375 141:0.004167 142:0.725 143:0.233333 144:0 145:0 146:0 147:0 148:0 149:0 150:0 
-1 -1 -1 1 1 1:0.013928 2:0.047354 3:0.200557 4:0.286908 5:0.16156 6:0.094708 7:0.111421 8:0.072423 9:0.002786 10:0.008357 11:0 12:0 13:0 14:0 15:0 16:0.203343 17:0.05571 18:0.027855 19:0.008357 20:0.089136 21:0.058496 22:0.18663 23:0.245125 24:0.075209 25:0.019499 26:0.022284 27:0.005571 28:0.002786 29:0 30:0 31:0.044568 32:0.091922 33:0.181058 34:0.114206 35:0.164345 36:0.066852 37:0.091922 38:0.038997 39:0.066852 40:0.058496 41:0.013928 42:0.052925 43:0.013928 44:0 45:0 46:0 47:0 48:0 49:0 50:0.008357 51:0.089136 52:0.225627 53:0.150418 54:0.064067 55:0.075209 56:0.089136 57:0.103064 58:0.114206 59:0.069638 60:0.011142 61:0 62:0 63:0 64:0 65:0.002786 66:0.013928 67:0.052925 68:0.072423 69:0.183844 70:0.172702 71:0.155989 72:0.245125 73:0.091922 74:0.008357 75:0 76:0 77:0.019499 78:0.038997 79:0.086351 80:0.48468 81:0.259053 82:0.091922 83:0.011142 84:0.008357 85:0 86:0 87:0 88:0 89:0 90:0 91:0 92:0 93:0 94:0 95:0.002786 96:0.013928 97:0.008357 98:0.019499 99:0.022284 100:0.111421 101:0.314763 102:0.35376 103:0.10585 104:0.044568 105:0.002786 106:0 107:0 108:0.002786 109:0.008357 110:0.022284 111:0.064067 112:0.183844 113:0.300836 114:0.147632 115:0.091922 116:0.05571 117:0.075209 118:0.047354 119:0 120:0 121:0 122:0.019499 123:0.097493 124:0.119777 125:0.10585 126:0.295265 127:0.275766 128:0.086351 129:0 130:0 131:0 132:0 133:0 134:0 135:0 136:0 137:0 138:0 139:0 140:0 141:0.002786 142:0.376045 143:0.473538 144:0.147632 145:0 146:0 147:0 148:0 149:0 150:0 
-1 -1 -1 1 1 1:0 2:0 3:0.07326 4:0.417582 5:0.296703 6:0.142857 7:0.069597 8:0 9:0 10:0 11:0 12:0 13:0 14:0 15:0 16:0.443223 17:0.377289 18:0.164835 19:0.014652 20:0 21:0 22:0 23:0 24:0 25:0 26:0 27:0 28:0 29:0 30:0 31:0 32:0 33:0.014652 34:0.432234 35:0.205128 36:0.263736 37:0.084249 38:0 39:0 40:0 41:0 42:0 43:0 44:0 45:0 46:0 47:0 48:0 49:0 50:0 51:0 52:0 53:0 54:0.025641 55:0.322344 56:0.446886 57:0.205128 58:0 59:0 60:0 61:0 62:0 63:0 64:0 65:0 66:0 67:0 68:0 69:0.051282 70:0.084249 71:0.333333 72:0.52381 73:0.007326 74:0 75:0 76:0 77:0 78:0 79:0.604396 80:0.333333 81:0.062271 82:0 83:0 84:0 85:0 86:0 87:0 88:0 89:0 90:0 91:0 92:0 93:0 94:0 95:0 96:0 97:0 98:0.062271 99:0.186813 100:0.428571 101:0.263736 102:0.058608 103:0 104:0 105:0 106:0 107:0 108:0 109:0 110:0 111:0 112:0 113:0.054945 114:0.212454 115:0.326007 116:0.355311 117:0.051282 118:0 119:0 120:0 121:0 122:0 123:0 124:0.252747 125:0.710623 126:0.03663 127:0 128:0 129:0 130:0 131:0 132:0 133:0 134:0 135:0 136:0 137:0 138:0 139:0 140:0 141:0 142:0.043956 143:0.805861 144:0.150183 145:0 146:0 147:0 148:0 149:0 150:0 
-1 -1 -1 1 1 1:0.042705 2:0.30605 3:0.19573 4:0.081851 5:0.049822 6:0.053381 7:0.096085 8:0.053381 9:0.032028 10:0.088968 11:0 12:0 13:0 14:0 15:0 16:0.02847 17:0.163701 18:0.206406 19:0.359431 20:0.192171 21:0.017794 22:0.014235 23:0.017794 24:0 25:0 26:0 27:0 28:0 29:0 30:0 31:0.064057 32:0.320285 33:0.209964 34:0.16726 35:0.185053 36:0.039146 37:0.007117 38:0.007117 39:0 40:0 41:0 42:0 43:0 44:0 45:0 46:0 47:0 48:0 49:0 50:0 51:0 52:0 53:0 54:0.007117 55:0.060498 56:0.131673 57:0.501779 58:0.27758 59:0.021352 60:0 61:0 62:0 63:0 64:0 65:0 66:0 67:0 68:0.003559 69:0.213523 70:0.071174 71:0.213523 72:0.288256 73:0.174377 74:0.035587 75:0 76:0 77:0 78:0 79:0.256228 80:0.608541 81:0.113879 82:0.021352 83:0 84:0 85:0 86:0 87:0 88:0 89:0 90:0 91:0 92:0 93:0.035587 94:0.16726 95:0.220641 96:0.035587 97:0.177936 98:0.156584 99:0.042705 100:0.120996 101:0.02847 102:0.014235 103:0 104:0 105:0 106:0 107:0 108:0.046263 109:0 110:0 111:0.067616 112:0.505338 113:0.145907 114:0.078292 115:0.117438 116:0.039146 117:0 118:0 119:0 120:0 121:0 122:0 123:0.003559 124:0.241993 125:0.640569 126:0.106762 127:0.007117 128:0 129:0 130:0 131:0 132:0 133:0 134:0 135:0 136:0 137:0 138:0 139:0 140:0 141:0.72242 142:0.27758 143:0 144:0 145:0 146:0 147:0 148:0 149:0 150:0 
-1 -1 -1 1 1 1:0 2:0 3:0.025862 4:0.125 5:0.017241 6:0.00431 7:0.021552 8:0.047414 9:0.051724 10:0.038793 11:0.081897 12:0.327586 13:0.211207 14:0.047414 15:0 16:0.202586 17:0.711207 18:0.081897 19:0.00431 20:0 21:0 22:0 23:0 24:0 25:0 26:0 27:0 28:0 29:0 30:0 31:0 32:0 33:0.125 34:0.030172 35:0.025862 36:0.047414 37:0.086207 38:0.211207 39:0.077586 40:0.008621 41:0.112069 42:0.215517 43:0.043103 44:0.017241 45:0 46:0 47:0.021552 48:0.030172 49:0.318966 50:0.008621 51:0.030172 52:0.150862 53:0.168103 54:0.077586 55:0.038793 56:0.017241 57:0.137931 58:0 59:0 60:0 61:0.021552 62:0.038793 63:0.387931 64:0.12931 65:0.116379 66:0.025862 67:0.00431 68:0.068966 69:0.034483 70:0.00431 71:0.025862 72:0.142241 73:0 74:0 75:0 76:0 77:0 78:0.030172 79:0.168103 80:0.396552 81:0.228448 82:0.137931 83:0.038793 84:0 85:0 86:0 87:0 88:0 89:0 90:0 91:0 92:0 93:0 94:0 95:0 96:0 97:0 98:0 99:0.025862 100:0.431034 101:0.418103 102:0.125 103:0 104:0 105:0 106:0 107:0 108:0 109:0 110:0 111:0 112:0 113:0 114:0.056034 115:0.219828 116:0.599138 117:0.125 118:0 119:0 120:0 121:0 122:0.008621 123:0.094828 124:0.185345 125:0.211207 126:0.297414 127:0.142241 128:0.060345 129:0 130:0 131:0 132:0 133:0 134:0 135:0 136:0 137:0 138:0 139:0 140:0 141:0 142:0.030172 143:0.176724 144:0.681034 145:0.112069 146:0 147:0 148:0 149:0 150:0 
-1 -1 -1 1 1 1:0 2:0 3:0.018939 4:0.022727 5:0.030303 6:0.003788 7:0.034091 8:0.068182 9:0.189394 10:0.162879 11:0.200758 12:0.166667 13:0.083333 14:0.018939 15:0 16:0.083333 17:0.102273 18:0.102273 19:0.140152 20:0.147727 21:0.19697 22:0.181818 23:0.018939 24:0.026515 25:0 26:0 27:0 28:0 29:0 30:0 31:0 32:0.007576 33:0.030303 34:0.159091 35:0.121212 36:0.140152 37:0.159091 38:0.159091 39:0.064394 40:0.056818 41:0.041667 42:0.05303 43:0.007576 44:0 45:0 46:0 47:0.007576 48:0.068182 49:0.147727 50:0.181818 51:0.109848 52:0.30303 53:0.090909 54:0.064394 55:0.026515 56:0 57:0 58:0 59:0 60:0 61:0 62:0 63:0.045455 64:0.166667 65:0.234848 66:0.227273 67:0.174242 68:0.064394 69:0.015152 70:0.011364 71:0.041667 72:0.018939 73:0 74:0 75:0 76:0 77:0 78:0.109848 79:0.276515 80:0.405303 81:0.181818 82:0.015152 83:0.011364 84:0 85:0 86:0 87:0 88:0 89:0 90:0 91:0 92:0 93:0.102273 94:0.375 95:0.253788 96:0.045455 97:0.015152 98:0.159091 99:0.049242 100:0 101:0 102:0 103:0 104:0 105:0 106:0 107:0.075758 108:0.458333 109:0.30303 110:0.079545 111:0.05303 112:0.026515 113:0.003788 114:0 115:0 116:0 117:0 118:0 119:0 120:0 121:0 122:0 123:0.015152 124:0.193182 125:0.412879 126:0.287879 127:0.07197 128:0.018939 129:0 130:0 131:0 132:0 133:0 134:0 135:0 136:0 137:0 138:0 139:0 140:0 141:0.041667 142:0.439394 143:0.265152 144:0.253788 145:0 146:0 147:0 148:0 149:0 150:0 
-1 -1 -1 1 1 1:0 2:0 3:0.051282 4:0.227564 5:0.266026 6:0.237179 7:0.083333 8:0.025641 9:0.057692 10:0.009615 11:0 12:0.025641 13:0.009615 14:0.003205 15:0.003205 16:0.25 17:0.474359 18:0.246795 19:0.028846 20:0 21:0 22:0 23:0 24:0 25:0 26:0 27:0 28:0 29:0 30:0 31:0.00641 32:0.025641 33:0.125 34:0.25 35:0.150641 36:0.163462 37:0.102564 38:0.064103 39:0.067308 40:0.032051 41:0.012821 42:0 43:0 44:0 45:0 46:0 47:0 48:0 49:0.016026 50:0.060897 51:0.057692 52:0.086538 53:0.035256 54:0.160256 55:0.214744 56:0.208333 57:0.121795 58:0.038462 59:0 60:0 61:0.016026 62:0.003205 63:0.003205 64:0.009615 65:0.012821 66:0.064103 67:0.025641 68:0.035256 69:0.112179 70:0.304487 71:0.233974 72:0.173077 73:0.00641 74:0 75:0 76:0.003205 77:0.016026 78:0.214744 79:0.358974 80:0.339744 81:0.067308 82:0 83:0 84:0 85:0 86:0 87:0 88:0 89:0 90:0 91:0 92:0 93:0 94:0 95:0 96:0.00641 97:0.041667 98:0.016026 99:0.019231 100:0.11859 101:0.387821 102:0.326923 103:0.083333 104:0 105:0 106:0 107:0 108:0 109:0 110:0 111:0 112:0.016026 113:0.080128 114:0.073718 115:0.099359 116:0.407051 117:0.317308 118:0.00641 119:0 120:0 121:0.003205 122:0.083333 123:0.259615 124:0.240385 125:0.310897 126:0.073718 127:0.022436 128:0.00641 129:0 130:0 131:0 132:0 133:0 134:0 135:0 136:0 137:0 138:0 139:0.003205 140:0.016026 141:0.038462 142:0.233974 143:0.336538 144:0.144231 145:0.224359 146:0.003205 147:0 148:0 149:0 150:0 
-1 -1 -1 1 1 1:0.076923 2:0.122378 3:0.262238 4:0.223776 5:0.160839 6:0.118881 7:0.017483 8:0.017483 9:0 10:0 11:0 12:0 13:0 14:0 15:0 16:0.136364 17:0.202797 18:0.370629 19:0.188811 20:0.083916 21:0.017483 22:0 23:0 24:0 25:0 26:0 27:0 28:0 29:0 30:0 31:0.006993 32:0.066434 33:0.171329 34:0.223776 35:0.22028 36:0.094406 37:0.143357 38:0.052448 39:0.020979 40:0 41:0 42:0 43:0 44:0 45:0 46:0 47:0 48:0 49:0 50:0 51:0 52:0 53:0.003497 54:0.027972 55:0.097902 56:0.199301 57:0.335664 58:0.300699 59:0.034965 60:0 61:0 62:0 63:0 64:0 65:0 66:0 67:0 68:0.024476 69:0.031469 70:0.083916 71:0.286713 72:0.258741 73:0.255245 74:0.059441 75:0 76:0 77:0.006993 78:0.104895 79:0.437063 80:0.342657 81:0.076923 82:0.020979 83:0.006993 84:0.003497 85:0 86:0 87:0 88:0 89:0 90:0 91:0 92:0 93:0 94:0 95:0 96:0.020979 97:0.076923 98:0.031469 99:0 100:0.293706 101:0.437063 102:0.115385 103:0.024476 104:0 105:0 106:0 107:0 108:0 109:0.087413 110:0.188811 111:0.073427 112:0.094406 113:0.167832 114:0.181818 115:0.167832 116:0.013986 117:0.017483 118:0.006993 119:0 120:0 121:0 122:0 123:0 124:0.311189 125:0.34965 126:0.293706 127:0.045455 128:0 129:0 130:0 131:0 132:0 133:0 134:0 135:0 136:0 137:0 138:0 139:0 140:0 141:0 142:0.216783 143:0.555944 144:0.227273 145:0 146:0 147:0 148:0 149:0 150:0 
-1 -1 -1 1 1 1:0 2:0.008 3:0.112 4:0.44 5:0.2 6:0.12 7:0.032 8:0.04 9:0 10:0.032 11:0 12:0.016 13:0 14:0 15:0 16:0.272 17:0.432 18:0.248 19:0.048 20:0 21:0 22:0 23:0 24:0 25:0 26:0 27:0 28:0 29:0 30:0 31:0.04 32:0.04 33:0.072 34:0.248 35:0.224 36:0.248 37:0.104 38:0.016 39:0 40:0.008 41:0 42:0 43:0 44:0 45:0 46:0 47:0.024 48:0 49:0 50:0 51:0.008 52:0 53:0.024 54:0.136 55:0.2 56:0.232 57:0.28 58:0.032 59:0.064 60:0 61:0.024 62:0 63:0.008 64:0.008 65:0.008 66:0.024 67:0.008 68:0.04 69:0.032 70:0.08 71:0.36 72:0.336 73:0.056 74:0.016 75:0 76:0 77:0.072 78:0.192 79:0.504 80:0.16 81:0.048 82:0 83:0 84:0 85:0 86:0 87:0 88:0 89:0 90:0.024 91:0 92:0 93:0 94:0 95:0 96:0 97:0 98:0 99:0.032 100:0.376 101:0.528 102:0.064 103:0 104:0 105:0 106:0 107:0 108:0 109:0 110:0 111:0 112:0 113:0.024 114:0.08 115:0.288 116:0.4 117:0.208 118:0 119:0 120:0 121:0.032 122:0.016 123:0.016 124:0.208 125:0.424 126:0.176 127:0.088 128:0.008 129:0.008 130:0 131:0 132:0 133:0 134:0 135:0.024 136:0 137:0.008 138:0.008 139:0 140:0.024 141:0.016 142:0.032 143:0.168 144:0.504 145:0.216 146:0 147:0 148:0 149:0 150:0.024 
-1 -1 -1 1 1 1:0 2:0 3:0.032787 4:0.04918 5:0.098361 6:0.459016 7:0.245902 8:0.114754 9:0 10:0 11:0 12:0 13:0 14:0 15:0 16:0.622951 17:0.213115 18:0.131148 19:0.016393 20:0.016393 21:0 22:0 23:0 24:0 25:0 26:0 27:0 28:0 29:0 30:0 31:0 32:0.540984 33:0.163934 34:0.131148 35:0.114754 36:0.032787 37:0.016393 38:0 39:0 40:0 41:0 42:0 43:0 44:0 45:0 46:0 47:0 48:0 49:0 50:0 51:0 52:0 53:0 54:0 55:0 56:0.016393 57:0.491803 58:0.377049 59:0.114754 60:0 61:0 62:0 63:0 64:0 65:0 66:0 67:0 68:0 69:0.016393 70:0.360656 71:0.52459 72:0 73:0.098361 74:0 75:0 76:0 77:0.163934 78:0.229508 79:0.114754 80:0.42623 81:0.065574 82:0 83:0 84:0 85:0 86:0 87:0 88:0 89:0 90:0 91:0 92:0 93:0 94:0 95:0 96:0 97:0.032787 98:0.065574 99:0.016393 100:0.098361 101:0.754098 102:0.032787 103:0 104:0 105:0 106:0 107:0 108:0.016393 109:0.04918 110:0.081967 111:0.065574 112:0.098361 113:0.540984 114:0.131148 115:0.016393 116:0 117:0 118:0 119:0 120:0 121:0 122:0 123:0.540984 124:0.459016 125:0 126:0 127:0 128:0 129:0 130:0 131:0 132:0 133:0 134:0 135:0 136:0 137:0 138:0 139:0 140:0 141:0 142:0 143:0.704918 144:0.295082 145:0 146:0 147:0 148:0 149:0 150:0 
-1 -1 -1 -1 1 1:0 2:0.010204 3:0.673469 4:0.285714 5:0.030612 6:0 7:0 8:0 9:0 10:0 11:0 12:0 13:0 14:0 15:0 16:0 17:0.540816 18:0.459184 19:0 20:0 21:0 22:0 23:0 24:0 25:0 26:0 27:0 28:0 29:0 30:0 31:0 32:0.05102 33:0.826531 34:0.122449 35:0 36:0 37:0 38:0 39:0 40:0 41:0 42:0 43:0 44:0 45:0 46:0 47:0 48:0 49:0 50:0 51:0 52:0 53:0 54:0.030612 55:0.183673 56:0.22449 57:0.306122 58:0 59:0.255102 60:0 61:0 62:0 63:0 64:0 65:0 66:0 67:0 68:0 69:0.010204 70:0.387755 71:0.27551 72:0.326531 73:0 74:0 75:0 76:0 77:0 78:0 79:0.020408 80:0.561224 81:0.418367 82:0 83:0 84:0 85:0 86:0 87:0 88:0 89:0 90:0 91:0 92:0 93:0 94:0 95:0 96:0 97:0 98:0.061224 99:0.061224 100:0.377551 101:0.071429 102:0.408163 103:0.020408 104:0 105:0 106:0 107:0 108:0 109:0 110:0 111:0 112:0 113:0.040816 114:0.091837 115:0.336735 116:0.091837 117:0.357143 118:0.081633 119:0 120:0 121:0 122:0 123:0.255102 124:0.010204 125:0.479592 126:0.255102 127:0 128:0 129:0 130:0 131:0 132:0 133:0 134:0 135:0 136:0 137:0 138:0 139:0 140:0 141:0 142:0 143:0.540816 144:0.459184 145:0 146:0 147:0 148:0 149:0 150:0 
-1 -1 -1 -1 1 1:0.190909 2:0.081818 3:0.363636 4:0.309091 5:0.045455 6:0 7:0.009091 8:0 9:0 10:0 11:0 12:0 13:0 14:0 15:0 16:0 17:0.490909 18:0.490909 19:0.018182 20:0 21:0 22:0 23:0 24:0 25:0 26:0 27:0 28:0 29:0 30:0 31:0.009091 32:0.027273 33:0.745455 34:0.2 35:0.018182 36:0 37:0 38:0 39:0 40:0 41:0 42:0 43:0 44:0 45:0 46:0 47:0 48:0 49:0 50:0 51:0 52:0.218182 53:0.090909 54:0.190909 55:0.045455 56:0.054545 57:0.372727 58:0.027273 59:0 60:0 61:0 62:0 63:0 64:0 65:0 66:0.018182 67:0.063636 68:0.027273 69:0.063636 70:0.245455 71:0.127273 72:0.390909 73:0.045455 74:0.009091 75:0.009091 76:0 77:0.018182 78:0.027273 79:0.390909 80:0.4 81:0.163636 82:0 83:0 84:0 85:0 86:0 87:0 88:0 89:0 90:0 91:0 92:0 93:0 94:0 95:0 96:0 97:0 98:0.063636 99:0.345455 100:0.081818 101:0.081818 102:0.318182 103:0.109091 104:0 105:0 106:0 107:0 108:0 109:0 110:0 111:0 112:0.018182 113:0.027273 114:0.4 115:0.090909 116:0.045455 117:0.218182 118:0.2 119:0 120:0 121:0 122:0 123:0 124:0.027273 125:0.318182 126:0.209091 127:0.409091 128:0.036364 129:0 130:0 131:0 132:0 133:0 134:0 135:0 136:0 137:0 138:0 139:0 140:0 141:0 142:0.063636 143:0.845455 144:0.090909 145:0 146:0 147:0 148:0 149:0 150:0 
-1 -1 -1 -1 1 1:0 2:0.027027 3:0.344595 4:0.608108 5:0.02027 6:0 7:0 8:0 9:0 10:0 11:0 12:0 13:0 14:0 15:0 16:0 17:0.641892 18:0.27027 19:0.087838 20:0 21:0 22:0 23:0 24:0 25:0 26:0 27:0 28:0 29:0 30:0 31:0 32:0.087838 33:0.472973 34:0.418919 35:0.02027 36:0 37:0 38:0 39:0 40:0 41:0 42:0 43:0 44:0 45:0 46:0 47:0 48:0 49:0 50:0 51:0 52:0 53:0.02027 54:0.087838 55:0.209459 56:0.202703 57:0.47973 58:0 59:0 60:0 61:0 62:0 63:0 64:0 65:0 66:0 67:0 68:0 69:0.108108 70:0.236486 71:0.189189 72:0.445946 73:0.02027 74:0 75:0 76:0 77:0 78:0 79:0.128378 80:0.547297 81:0.324324 82:0 83:0 84:0 85:0 86:0 87:0 88:0 89:0 90:0 91:0 92:0 93:0 94:0 95:0 96:0 97:0.027027 98:0.243243 99:0.013514 100:0.033784 101:0.540541 102:0.141892 103:0 104:0 105:0 106:0 107:0 108:0 109:0 110:0 111:0 112:0.027027 113:0.013514 114:0.25 115:0.067568 116:0.391892 117:0.25 118:0 119:0 120:0 121:0 122:0 123:0 124:0.006757 125:0.682432 126:0.310811 127:0 128:0 129:0 130:0 131:0 132:0 133:0 134:0 135:0 136:0 137:0 138:0 139:0 140:0 141:0 142:0.587838 143:0.412162 144:0 145:0 146:0 147:0 148:0 149:0 150:0 
-1 -1 -1 -1 1 1:0 2:0.110345 3:0.344828 4:0.337931 5:0.137931 6:0.027586 7:0.041379 8:0 9:0 10:0 11:0 12:0 13:0 14:0 15:0 16:0.068966 17:0.744828 18:0.186207 19:0 20:0 21:0 22:0 23:0 24:0 25:0 26:0 27:0 28:0 29:0 30:0 31:0 32:0 33:0.268966 34:0.675862 35:0.055172 36:0 37:0 38:0 39:0 40:0 41:0 42:0 43:0 44:0 45:0 46:0 47:0 48:0 49:0 50:0 51:0 52:0.02069 53:0.041379 54:0.041379 55:0.172414 56:0.089655 57:0.634483 58:0 59:0 60:0 61:0 62:0 63:0 64:0 65:0 66:0.041379 67:0.062069 68:0.02069 69:0.027586 70:0.144828 71:0.489655 72:0.213793 73:0 74:0 75:0 76:0 77:0.02069 78:0.034483 79:0.062069 80:0.62069 81:0.193103 82:0.068966 83:0 84:0 85:0 86:0 87:0 88:0 89:0 90:0 91:0 92:0 93:0 94:0 95:0.041379 96:0.02069 97:0.027586 98:0.006897 99:0.013793 100:0.131034 101:0.724138 102:0.034483 103:0 104:0 105:0 106:0 107:0 108:0 109:0 110:0 111:0 112:0.034483 113:0.041379 114:0.041379 115:0.689655 116:0.165517 117:0.027586 118:0 119:0 120:0 121:0 122:0 123:0 124:0.075862 125:0.889655 126:0.034483 127:0 128:0 129:0 130:0 131:0 132:0 133:0 134:0 135:0 136:0 137:0 138:0 139:0 140:0 141:0 142:0.062069 143:0.937931 144:0 145:0 146:0 147:0 148:0 149:0 150:0 
-1 -1 -1 -1 1 1:0.026786 2:0.026786 3:0.267857 4:0.589286 5:0.089286 6:0 7:0 8:0 9:0 10:0 11:0 12:0 13:0 14:0 15:0 16:0.571429 17:0.348214 18:0.080357 19:0 20:0 21:0 22:0 23:0 24:0 25:0 26:0 27:0 28:0 29:0 30:0 31:0 32:0 33:0.285714 34:0.419643 35:0.241071 36:0.053571 37:0 38:0 39:0 40:0 41:0 42:0 43:0 44:0 45:0 46:0 47:0 48:0 49:0 50:0 51:0 52:0 53:0 54:0 55:0 56:0.839286 57:0.160714 58:0 59:0 60:0 61:0 62:0 63:0 64:0 65:0 66:0 67:0 68:0 69:0 70:0.571429 71:0.276786 72:0.151786 73:0 74:0 75:0 76:0 77:0 78:0.053571 79:0.375 80:0.571429 81:0 82:0 83:0 84:0 85:0 86:0 87:0 88:0 89:0 90:0 91:0 92:0 93:0 94:0 95:0 96:0.044643 97:0.044643 98:0.017857 99:0.035714 100:0.589286 101:0.267857 102:0 103:0 104:0 105:0 106:0 107:0 108:0 109:0 110:0 111:0.017857 112:0.071429 113:0.0625 114:0.339286 115:0.169643 116:0.339286 117:0 118:0 119:0 120:0 121:0 122:0 123:0 124:0.642857 125:0.357143 126:0 127:0 128:0 129:0 130:0 131:0 132:0 133:0 134:0 135:0 136:0 137:0 138:0 139:0 140:0 141:0 142:0.428571 143:0.571429 144:0 145:0 146:0 147:0 148:0 149:0 150:0 
-1 -1 -1 -1 1 1:0 2:0.165517 3:0.303448 4:0.37931 5:0.151724 6:0 7:0 8:0 9:0 10:0 11:0 12:0 13:0 14:0 15:0 16:0.427586 17:0.434483 18:0.137931 19:0 20:0 21:0 22:0 23:0 24:0 25:0 26:0 27:0 28:0 29:0 30:0 31:0 32:0 33:0 34:0.358621 35:0.606897 36:0.02069 37:0.013793 38:0 39:0 40:0 41:0 42:0 43:0 44:0 45:0 46:0 47:0 48:0 49:0 50:0 51:0 52:0 53:0 54:0.110345 55:0.296552 56:0.413793 57:0.17931 58:0 59:0 60:0 61:0 62:0 63:0 64:0 65:0 66:0 67:0 68:0.006897 69:0.048276 70:0.055172 71:0.510345 72:0.37931 73:0 74:0 75:0 76:0 77:0 78:0 79:0.468966 80:0.524138 81:0.006897 82:0 83:0 84:0 85:0 86:0 87:0 88:0 89:0 90:0 91:0 92:0 93:0 94:0 95:0 96:0.006897 97:0.013793 98:0.006897 99:0.082759 100:0.2 101:0.689655 102:0 103:0 104:0 105:0 106:0 107:0 108:0 109:0 110:0 111:0.02069 112:0.041379 113:0.034483 114:0.034483 115:0.606897 116:0.262069 117:0 118:0 119:0 120:0 121:0 122:0 123:0 124:0.103448 125:0.896552 126:0 127:0 128:0 129:0 130:0 131:0 132:0 133:0 134:0 135:0 136:0 137:0 138:0 139:0 140:0 141:0 142:0.951724 143:0.048276 144:0 145:0 146:0 147:0 148:0 149:0 150:0 
-1 -1 -1 -1 1 1:0 2:0.038095 3:0.47619 4:0.247619 5:0.133333 6:0.104762 7:0 8:0 9:0 10:0 11:0 12:0 13:0 14:0 15:0 16:0.066667 17:0.733333 18:0.2 19:0 20:0 21:0 22:0 23:0 24:0 25:0 26:0 27:0 28:0 29:0 30:0 31:0 32:0 33:0.6 34:0.4 35:0 36:0 37:0 38:0 39:0 40:0 41:0 42:0 43:0 44:0 45:0 46:0 47:0 48:0 49:0 50:0 51:0 52:0.028571 53:0.085714 54:0.095238 55:0.228571 56:0.085714 57:0.47619 58:0 59:0 60:0 61:0 62:0 63:0 64:0 65:0 66:0 67:0.057143 68:0.057143 69:0.066667 70:0.352381 71:0.27619 72:0.190476 73:0 74:0 75:0 76:0 77:0 78:0 79:0.104762 80:0.52381 81:0.371429 82:0 83:0 84:0 85:0 86:0 87:0 88:0 89:0 90:0 91:0 92:0 93:0 94:0 95:0 96:0 97:0 98:0.066667 99:0.114286 100:0.4 101:0.219048 102:0.12381 103:0.07619 104:0 105:0 106:0 107:0 108:0 109:0 110:0 111:0 112:0.009524 113:0.066667 114:0.047619 115:0.295238 116:0.247619 117:0.209524 118:0.12381 119:0 120:0 121:0 122:0 123:0 124:0 125:0.438095 126:0.438095 127:0.12381 128:0 129:0 130:0 131:0 132:0 133:0 134:0 135:0 136:0 137:0 138:0 139:0 140:0 141:0 142:0.314286 143:0.685714 144:0 145:0 146:0 147:0 148:0 149:0 150:0 
-1 -1 -1 -1 1 1:0.016484 2:0.082418 3:0.225275 4:0.142857 5:0.186813 6:0.043956 7:0.082418 8:0.005495 9:0.131868 10:0.06044 11:0.021978 12:0 13:0 14:0 15:0 16:0.087912 17:0.285714 18:0.593407 19:0.032967 20:0 21:0 22:0 23:0 24:0 25:0 26:0 27:0 28:0 29:0 30:0 31:0 32:0.005495 33:0.087912 34:0.357143 35:0.164835 36:0.307692 37:0.071429 38:0.005495 39:0 40:0 41:0 42:0 43:0 44:0 45:0 46:0 47:0 48:0 49:0 50:0 51:0.005495 52:0.098901 53:0.203297 54:0.104396 55:0.197802 56:0.307692 57:0.065934 58:0.016484 59:0 60:0 61:0 62:0 63:0 64:0 65:0 66:0.142857 67:0.10989 68:0.186813 69:0.214286 70:0.06044 71:0.065934 72:0.104396 73:0.082418 74:0.032967 75:0 76:0 77:0 78:0.021978 79:0.065934 80:0.302198 81:0.192308 82:0.159341 83:0.082418 84:0.126374 85:0.049451 86:0 87:0 88:0 89:0 90:0 91:0 92:0 93:0 94:0 95:0 96:0 97:0 98:0.065934 99:0.049451 100:0.120879 101:0.604396 102:0.159341 103:0 104:0 105:0 106:0 107:0 108:0 109:0 110:0 111:0 112:0 113:0.032967 114:0.082418 115:0.269231 116:0.510989 117:0.104396 118:0 119:0 120:0 121:0 122:0 123:0.010989 124:0.115385 125:0.263736 126:0.340659 127:0.115385 128:0.10989 129:0.038462 130:0.005495 131:0 132:0 133:0 134:0 135:0 136:0 137:0 138:0 139:0 140:0 141:0.016484 142:0.379121 143:0.285714 144:0.318681 145:0 146:0 147:0 148:0 149:0 150:0 
-1 -1 -1 -1 1 1:0 2:0 3:0.574074 4:0.425926 5:0 6:0 7:0 8:0 9:0 10:0 11:0 12:0 13:0 14:0 15:0 16:0.009259 17:0.416667 18:0.157407 19:0.416667 20:0 21:0 22:0 23:0 24:0 25:0 26:0 27:0 28:0 29:0 30:0 31:0 32:0 33:0.083333 34:0.851852 35:0.064815 36:0 37:0 38:0 39:0 40:0 41:0 42:0 43:0 44:0 45:0 46:0 47:0 48:0 49:0 50:0 51:0 52:0.046296 53:0.046296 54:0.351852 55:0.037037 56:0.203704 57:0.314815 58:0 59:0 60:0 61:0 62:0 63:0 64:0 65:0 66:0 67:0.018519 68:0.055556 69:0.240741 70:0.157407 71:0.018519 72:0.5 73:0.009259 74:0 75:0 76:0 77:0 78:0 79:0.027778 80:0.851852 81:0.12037 82:0 83:0 84:0 85:0 86:0 87:0 88:0 89:0 90:0 91:0 92:0 93:0 94:0 95:0 96:0 97:0 98:0.009259 99:0.398148 100:0.166667 101:0.296296 102:0.12963 103:0 104:0 105:0 106:0 107:0 108:0 109:0 110:0 111:0 112:0 113:0.055556 114:0.444444 115:0.185185 116:0.222222 117:0.092593 118:0 119:0 120:0 121:0 122:0 123:0 124:0 125:0.972222 126:0.027778 127:0 128:0 129:0 130:0 131:0 132:0 133:0 134:0 135:0 136:0 137:0 138:0 139:0 140:0 141:0 142:0.564815 143:0.435185 144:0 145:0 146:0 147:0 148:0 149:0 150:0 
-1 -1 -1 -1 1 1:0 2:0.152 3:0.288 4:0.488 5:0.072 6:0 7:0 8:0 9:0 10:0 11:0 12:0 13:0 14:0 15:0 16:0 17:0.416 18:0.56 19:0.024 20:0 21:0 22:0 23:0 24:0 25:0 26:0 27:0 28:0 29:0 30:0 31:0.16 32:0.104 33:0.336 34:0.312 35:0.088 36:0 37:0 38:0 39:0 40:0 41:0 42:0 43:0 44:0 45:0 46:0 47:0 48:0 49:0 50:0 51:0 52:0 53:0.08 54:0.176 55:0.176 56:0.232 57:0.336 58:0 59:0 60:0 61:0 62:0 63:0 64:0 65:0 66:0 67:0 68:0.016 69:0.192 70:0.104 71:0.312 72:0.376 73:0 74:0 75:0 76:0 77:0 78:0.016 79:0.016 80:0.688 81:0.28 82:0 83:0 84:0 85:0 86:0 87:0 88:0 89:0 90:0 91:0 92:0 93:0 94:0 95:0 96:0 97:0 98:0.064 99:0.04 100:0.408 101:0.224 102:0.224 103:0.04 104:0 105:0 106:0 107:0 108:0 109:0 110:0 111:0 112:0.016 113:0.008 114:0.064 115:0.272 116:0.368 117:0.248 118:0.024 119:0 120:0 121:0 122:0 123:0 124:0.416 125:0.44 126:0.144 127:0 128:0 129:0 130:0 131:0 132:0 133:0 134:0 135:0 136:0 137:0 138:0 139:0 140:0 141:0 142:0.464 143:0.536 144:0 145:0 146:0 147:0 148:0 149:0 150:0 
-1 -1 -1 -1 1 1:0.018349 2:0.119266 3:0.119266 4:0.623853 5:0.100917 6:0.018349 7:0 8:0 9:0 10:0 11:0 12:0 13:0 14:0 15:0 16:0.146789 17:0.321101 18:0.321101 19:0.192661 20:0.018349 21:0 22:0 23:0 24:0 25:0 26:0 27:0 28:0 29:0 30:0 31:0 32:0.110092 33:0.165138 34:0.577982 35:0.045872 36:0.100917 37:0 38:0 39:0 40:0 41:0 42:0 43:0 44:0 45:0 46:0 47:0 48:0 49:0 50:0 51:0.009174 52:0.110092 53:0.33945 54:0.027523 55:0.027523 56:0.302752 57:0.183486 58:0 59:0 60:0 61:0 62:0 63:0 64:0 65:0 66:0 67:0.009174 68:0.385321 69:0.045872 70:0.137615 71:0.155963 72:0.266055 73:0 74:0 75:0 76:0 77:0 78:0.036697 79:0.229358 80:0.357798 81:0.110092 82:0.266055 83:0 84:0 85:0 86:0 87:0 88:0 89:0 90:0 91:0 92:0 93:0 94:0 95:0 96:0.018349 97:0.036697 98:0.348624 99:0.06422 100:0.082569 101:0.082569 102:0.33945 103:0.027523 104:0 105:0 106:0 107:0 108:0 109:0 110:0 111:0.027523 112:0.119266 113:0.302752 114:0.009174 115:0.073394 116:0.146789 117:0.321101 118:0 119:0 120:0 121:0 122:0 123:0 124:0.137615 125:0.495413 126:0.229358 127:0.137615 128:0 129:0 130:0 131:0 132:0 133:0 134:0 135:0 136:0 137:0 138:0 139:0 140:0 141:0 142:0.137615 143:0.862385 144:0 145:0 146:0 147:0 148:0 149:0 150:0 
-1 -1 -1 -1 1 1:0 2:0.293706 3:0.433566 4:0.265734 5:0.006993 6:0 7:0 8:0 9:0 10:0 11:0 12:0 13:0 14:0 15:0 16:0 17:0.909091 18:0.090909 19:0 20:0 21:0 22:0 23:0 24:0 25:0 26:0 27:0 28:0 29:0 30:0 31:0 32:0.083916 33:0.335664 34:0.433566 35:0.076923 36:0.013986 37:0.055944 38:0 39:0 40:0 41:0 42:0 43:0 44:0 45:0 46:0 47:0 48:0 49:0 50:0 51:0 52:0 53:0.118881 54:0.321678 55:0.167832 56:0.27972 57:0.083916 58:0.027972 59:0 60:0 61:0 62:0 63:0 64:0 65:0 66:0 67:0.006993 68:0.125874 69:0.195804 70:0.20979 71:0.195804 72:0.265734 73:0 74:0 75:0 76:0 77:0 78:0 79:0.188811 80:0.265734 81:0.160839 82:0.020979 83:0.363636 84:0 85:0 86:0 87:0 88:0 89:0 90:0 91:0 92:0 93:0 94:0 95:0 96:0.048951 97:0.076923 98:0.125874 99:0.34965 100:0.118881 101:0.041958 102:0.223776 103:0.013986 104:0 105:0 106:0 107:0 108:0 109:0 110:0 111:0.006993 112:0.034965 113:0.048951 114:0.160839 115:0.461538 116:0.048951 117:0.237762 118:0 119:0 120:0 121:0 122:0 123:0.013986 124:0.244755 125:0.461538 126:0.223776 127:0.048951 128:0.006993 129:0 130:0 131:0 132:0 133:0 134:0 135:0 136:0 137:0 138:0 139:0 140:0 141:0 142:0.559441 143:0.440559 144:0 145:0 146:0 147:0 148:0 149:0 150:0 
-1 -1 -1 -1 -1 1:0 2:0 3:0.121795 4:0.326923 5:0.365385 6:0.121795 7:0.038462 8:0.025641 9:0 10:0 11:0 12:0 13:0 14:0 15:0 16:0.012821 17:0.769231 18:0.217949 19:0 20:0 21:0 22:0 23:0 24:0 25:0 26:0 27:0 28:0 29:0 30:0 31:0 32:0 33:0.378205 34:0.044872 35:0.076923 36:0.141026 37:0.224359 38:0.134615 39:0 40:0 41:0 42:0 43:0 44:0 45:0 46:0 47:0 48:0 49:0 50:0 51:0.012821 52:0.160256 53:0.320513 54:0.121795 55:0.051282 56:0.044872 57:0.288462 58:0 59:0 60:0 61:0 62:0 63:0 64:0 65:0 66:0 67:0.051282 68:0.044872 69:0.057692 70:0.134615 71:0.403846 72:0.301282 73:0.00641 74:0 75:0 76:0 77:0 78:0 79:0.012821 80:0.410256 81:0.416667 82:0.044872 83:0.038462 84:0.044872 85:0.032051 86:0 87:0 88:0 89:0 90:0 91:0 92:0 93:0 94:0 95:0 96:0 97:0 98:0 99:0.00641 100:0.352564 101:0.230769 102:0.166667 103:0.24359 104:0 105:0 106:0 107:0 108:0 109:0 110:0 111:0 112:0 113:0 114:0 115:0.224359 116:0.237179 117:0.5 118:0.038462 119:0 120:0 121:0 122:0 123:0 124:0 125:0.339744 126:0.307692 127:0.166667 128:0.064103 129:0.019231 130:0.083333 131:0.019231 132:0 133:0 134:0 135:0 136:0 137:0 138:0 139:0 140:0 141:0 142:0 143:0.358974 144:0.628205 145:0.012821 146:0 147:0 148:0 149:0 150:0 
-1 -1 -1 -1 -1 1:0 2:0 3:0.393939 4:0.555556 5:0.010101 6:0.010101 7:0.030303 8:0 9:0 10:0 11:0 12:0 13:0 14:0 15:0 16:0 17:0.909091 18:0.090909 19:0 20:0 21:0 22:0 23:0 24:0 25:0 26:0 27:0 28:0 29:0 30:0 31:0 32:0 33:0.929293 34:0.070707 35:0 36:0 37:0 38:0 39:0 40:0 41:0 42:0 43:0 44:0 45:0 46:0 47:0 48:0 49:0 50:0 51:0 52:0 53:0.080808 54:0.090909 55:0.414141 56:0.151515 57:0.262626 58:0 59:0 60:0 61:0 62:0 63:0 64:0 65:0 66:0.020202 67:0.020202 68:0.020202 69:0.313131 70:0.212121 71:0.131313 72:0.282828 73:0 74:0 75:0 76:0 77:0 78:0.020202 79:0.080808 80:0.545455 81:0.242424 82:0.111111 83:0 84:0 85:0 86:0 87:0 88:0 89:0 90:0 91:0 92:0 93:0 94:0 95:0 96:0 97:0 98:0 99:0.080808 100:0.232323 101:0.191919 102:0.181818 103:0.313131 104:0 105:0 106:0 107:0 108:0 109:0 110:0 111:0 112:0 113:0 114:0.111111 115:0.131313 116:0.424242 117:0.060606 118:0.272727 119:0 120:0 121:0 122:0 123:0 124:0 125:0.636364 126:0.363636 127:0 128:0 129:0 130:0 131:0 132:0 133:0 134:0 135:0 136:0 137:0 138:0 139:0 140:0 141:0 142:0 143:0.585859 144:0.414141 145:0 146:0 147:0 148:0 149:0 150:0 
-1 -1 -1 -1 -1 1:0 2:0.018519 3:0.166667 4:0.731481 5:0.083333 6:0 7:0 8:0 9:0 10:0 11:0 12:0 13:0 14:0 15:0 16:0 17:0.796296 18:0.203704 19:0 20:0 21:0 22:0 23:0 24:0 25:0 26:0 27:0 28:0 29:0 30:0 31:0 32:0 33:0.148148 34:0.814815 35:0.037037 36:0 37:0 38:0 39:0 40:0 41:0 42:0 43:0 44:0 45:0 46:0 47:0 48:0 49:0 50:0 51:0 52:0 53:0 54:0.592593 55:0.046296 56:0.166667 57:0.194444 58:0 59:0 60:0 61:0 62:0 63:0 64:0 65:0 66:0 67:0 68:0.092593 69:0.527778 70:0.018519 71:0.277778 72:0.083333 73:0 74:0 75:0 76:0 77:0 78:0 79:0.037037 80:0.592593 81:0.37037 82:0 83:0 84:0 85:0 86:0 87:0 88:0 89:0 90:0 91:0 92:0 93:0 94:0 95:0 96:0 97:0.027778 98:0.018519 99:0.509259 100:0.037037 101:0.305556 102:0.101852 103:0 104:0 105:0 106:0 107:0 108:0 109:0 110:0 111:0 112:0.018519 113:0.064815 114:0.472222 115:0.018519 116:0.407407 117:0.018519 118:0 119:0 120:0 121:0 122:0 123:0 124:0.037037 125:0.490741 126:0.472222 127:0 128:0 129:0 130:0 131:0 132:0 133:0 134:0 135:0 136:0 137:0 138:0 139:0 140:0 141:0 142:0.055556 143:0.592593 144:0.351852 145:0 146:0 147:0 148:0 149:0 150:0 
-1 -1 -1 -1 -1 1:0 2:0 3:0.216495 4:0.752577 5:0.030928 6:0 7:0 8:0 9:0 10:0 11:0 12:0 13:0 14:0 15:0 16:0.092784 17:0.907216 18:0 19:0 20:0 21:0 22:0 23:0 24:0 25:0 26:0 27:0 28:0 29:0 30:0 31:0 32:0.010309 33:0.556701 34:0.43299 35:0 36:0 37:0 38:0 39:0 40:0 41:0 42:0 43:0 44:0 45:0 46:0 47:0 48:0 49:0 50:0 51:0 52:0 53:0 54:0.072165 55:0.659794 56:0.092784 57:0.175258 58:0 59:0 60:0 61:0 62:0 63:0 64:0 65:0 66:0 67:0 68:0 69:0.618557 70:0.051546 71:0.061856 72:0.268041 73:0 74:0 75:0 76:0 77:0 78:0 79:0.072165 80:0.876289 81:0.051546 82:0 83:0 84:0 85:0 86:0 87:0 88:0 89:0 90:0 91:0 92:0 93:0 94:0 95:0 96:0 97:0.030928 98:0.041237 99:0.020619 100:0.525773 101:0.28866 102:0.092784 103:0 104:0 105:0 106:0 107:0 108:0 109:0 110:0 111:0 112:0.010309 113:0.061856 114:0.041237 115:0.494845 116:0.391753 117:0 118:0 119:0 120:0 121:0 122:0 123:0 124:0.360825 125:0.628866 126:0.010309 127:0 128:0 129:0 130:0 131:0 132:0 133:0 134:0 135:0 136:0 137:0 138:0 139:0 140:0 141:0 142:0.247423 143:0.463918 144:0.28866 145:0 146:0 147:0 148:0 149:0 150:0 
-1 -1 -1 -1 -1 1:0 2:0.034483 3:0.103448 4:0.5 5:0.318966 6:0.043103 7:0 8:0 9:0 10:0 11:0 12:0 13:0 14:0 15:0 16:0.784483 17:0.215517 18:0 19:0 20:0 21:0 22:0 23:0 24:0 25:0 26:0 27:0 28:0 29:0 30:0 31:0.086207 32:0.146552 33:0.206897 34:0.37931 35:0.181034 36:0 37:0 38:0 39:0 40:0 41:0 42:0 43:0 44:0 45:0 46:0 47:0 48:0 49:0 50:0 51:0 52:0 53:0 54:0 55:0 56:0.732759 57:0.267241 58:0 59:0 60:0 61:0 62:0 63:0 64:0 65:0 66:0 67:0 68:0 69:0 70:0 71:0.612069 72:0.387931 73:0 74:0 75:0 76:0 77:0 78:0 79:0.560345 80:0.439655 81:0 82:0 83:0 84:0 85:0 86:0 87:0 88:0 89:0 90:0 91:0 92:0 93:0 94:0 95:0 96:0 97:0 98:0.017241 99:0.146552 100:0.396552 101:0.439655 102:0 103:0 104:0 105:0 106:0 107:0 108:0 109:0 110:0 111:0 112:0 113:0 114:0.181034 115:0.327586 116:0.491379 117:0 118:0 119:0 120:0 121:0 122:0 123:0.051724 124:0.491379 125:0.456897 126:0 127:0 128:0 129:0 130:0 131:0 132:0 133:0 134:0 135:0 136:0 137:0 138:0 139:0 140:0 141:0 142:0.568966 143:0.431034 144:0 145:0 146:0 147:0 148:0 149:0 150:0 
-1 -1 -1 -1 -1 1:0 2:0.05 3:0.072222 4:0.333333 5:0.5 6:0.044444 7:0 8:0 9:0 10:0 11:0 12:0 13:0 14:0 15:0 16:0.566667 17:0.433333 18:0 19:0 20:0 21:0 22:0 23:0 24:0 25:0 26:0 27:0 28:0 29:0 30:0 31:0.022222 32:0.094444 33:0.066667 34:0.272222 35:0.466667 36:0 37:0.005556 38:0.016667 39:0.027778 40:0.027778 41:0 42:0 43:0 44:0 45:0 46:0 47:0 48:0 49:0 50:0 51:0 52:0 53:0.044444 54:0.027778 55:0.027778 56:0.594444 57:0.25 58:0.055556 59:0 60:0 61:0 62:0 63:0 64:0 65:0 66:0 67:0 68:0 69:0.016667 70:0.083333 71:0.633333 72:0.266667 73:0 74:0 75:0 76:0 77:0 78:0 79:0.633333 80:0.35 81:0.016667 82:0 83:0 84:0 85:0 86:0 87:0 88:0 89:0 90:0 91:0 92:0 93:0 94:0 95:0 96:0 97:0 98:0 99:0.061111 100:0.272222 101:0.666667 102:0 103:0 104:0 105:0 106:0 107:0 108:0 109:0 110:0 111:0 112:0 113:0 114:0.066667 115:0.327778 116:0.605556 117:0 118:0 119:0 120:0 121:0 122:0 123:0.011111 124:0.683333 125:0.216667 126:0.027778 127:0.061111 128:0 129:0 130:0 131:0 132:0 133:0 134:0 135:0 136:0 137:0 138:0 139:0 140:0 141:0 142:0.4 143:0.261111 144:0.338889 145:0 146:0 147:0 148:0 149:0 150:0 
-1 -1 -1 -1 -1 1:0.110465 2:0.19186 3:0.180233 4:0.040698 5:0.174419 6:0.116279 7:0.046512 8:0.122093 9:0.017442 10:0 11:0 12:0 13:0 14:0 15:0 16:0.267442 17:0.55814 18:0.168605 19:0.005814 20:0 21:0 22:0 23:0 24:0 25:0 26:0 27:0 28:0 29:0 30:0 31:0.005814 32:0.337209 33:0.127907 34:0.156977 35:0.151163 36:0.087209 37:0.017442 38:0.116279 39:0 40:0 41:0 42:0 43:0 44:0 45:0 46:0 47:0 48:0 49:0 50:0 51:0 52:0.023256 53:0.139535 54:0.180233 55:0.25 56:0.313953 57:0.081395 58:0.011628 59:0 60:0 61:0 62:0 63:0 64:0 65:0 66:0 67:0.040698 68:0.209302 69:0.133721 70:0.226744 71:0.139535 72:0.139535 73:0.104651 74:0.005814 75:0 76:0 77:0 78:0.197674 79:0.674419 80:0.069767 81:0.034884 82:0.023256 83:0 84:0 85:0 86:0 87:0 88:0 89:0 90:0 91:0 92:0 93:0 94:0 95:0 96:0 97:0 98:0.011628 99:0.052326 100:0.383721 101:0.494186 102:0.05814 103:0 104:0 105:0 106:0 107:0 108:0 109:0 110:0 111:0 112:0 113:0 114:0.081395 115:0.290698 116:0.517442 117:0.098837 118:0.011628 119:0 120:0 121:0 122:0.087209 123:0.180233 124:0.203488 125:0.197674 126:0.110465 127:0.040698 128:0.180233 129:0 130:0 131:0 132:0 133:0 134:0 135:0 136:0 137:0 138:0 139:0 140:0.023256 141:0.127907 142:0.377907 143:0.116279 144:0.348837 145:0.005814 146:0 147:0 148:0 149:0 150:0 
-1 -1 -1 -1 -1 1:0 2:0 3:0.1875 4:0.136364 5:0.056818 6:0.056818 7:0.085227 8:0.011364 9:0 10:0.005682 11:0.210227 12:0.210227 13:0.039773 14:0 15:0 16:0.119318 17:0.801136 18:0.079545 19:0 20:0 21:0 22:0 23:0 24:0 25:0 26:0 27:0 28:0 29:0 30:0 31:0 32:0.005682 33:0.017045 34:0.244318 35:0.079545 36:0.125 37:0.073864 38:0.005682 39:0 40:0 41:0.096591 42:0.0625 43:0.102273 44:0.176136 45:0.011364 46:0.125 47:0.079545 48:0.136364 49:0.107955 50:0 51:0.005682 52:0.034091 53:0.022727 54:0.102273 55:0.232955 56:0.136364 57:0.017045 58:0 59:0 60:0 61:0 62:0 63:0 64:0.153409 65:0.306818 66:0 67:0 68:0.005682 69:0.011364 70:0.096591 71:0.210227 72:0.096591 73:0.119318 74:0 75:0 76:0 77:0 78:0.028409 79:0.221591 80:0.659091 81:0.090909 82:0 83:0 84:0 85:0 86:0 87:0 88:0 89:0 90:0 91:0 92:0 93:0 94:0 95:0 96:0 97:0.011364 98:0.011364 99:0.045455 100:0.261364 101:0.573864 102:0.096591 103:0 104:0 105:0 106:0 107:0 108:0 109:0 110:0 111:0 112:0.005682 113:0.005682 114:0.022727 115:0.380682 116:0.232955 117:0.255682 118:0.073864 119:0.022727 120:0 121:0 122:0 123:0.005682 124:0.153409 125:0.3125 126:0.409091 127:0.068182 128:0.051136 129:0 130:0 131:0 132:0 133:0 134:0 135:0 136:0 137:0 138:0 139:0 140:0 141:0.079545 142:0.329545 143:0.051136 144:0.335227 145:0.204545 146:0 147:0 148:0 149:0 150:0 
-1 -1 -1 -1 -1 1:0.029851 2:0.074627 3:0.11194 4:0.440299 5:0.126866 6:0.074627 7:0.097015 8:0.044776 9:0 10:0 11:0 12:0 13:0 14:0 15:0 16:0 17:0.544776 18:0.447761 19:0.007463 20:0 21:0 22:0 23:0 24:0 25:0 26:0 27:0 28:0 29:0 30:0 31:0 32:0 33:0.08209 34:0.5 35:0.216418 36:0.156716 37:0.044776 38:0 39:0 40:0 41:0 42:0 43:0 44:0 45:0 46:0 47:0 48:0 49:0 50:0 51:0 52:0 53:0.074627 54:0.097015 55:0.38806 56:0.343284 57:0.097015 58:0 59:0 60:0 61:0 62:0 63:0 64:0.052239 65:0.052239 66:0.044776 67:0.044776 68:0.052239 69:0.022388 70:0.201493 71:0.186567 72:0.253731 73:0.037313 74:0.052239 75:0 76:0 77:0.044776 78:0.08209 79:0.589552 80:0.201493 81:0.029851 82:0.052239 83:0 84:0 85:0 86:0 87:0 88:0 89:0 90:0 91:0 92:0 93:0 94:0 95:0 96:0 97:0 98:0 99:0.029851 100:0.350746 101:0.291045 102:0.328358 103:0 104:0 105:0 106:0 107:0 108:0 109:0 110:0 111:0 112:0 113:0 114:0 115:0.126866 116:0.365672 117:0.507463 118:0 119:0 120:0 121:0 122:0 123:0.395522 124:0.246269 125:0.029851 126:0.30597 127:0.022388 128:0 129:0 130:0 131:0 132:0 133:0 134:0 135:0 136:0 137:0 138:0 139:0 140:0 141:0 142:0.089552 143:0.679104 144:0.231343 145:0 146:0 147:0 148:0 149:0 150:0 
-1 -1 -1 -1 -1 1:0.007143 2:0.114286 3:0.264286 4:0.521429 5:0.092857 6:0 7:0 8:0 9:0 10:0 11:0 12:0 13:0 14:0 15:0 16:0.057143 17:0.8 18:0.142857 19:0 20:0 21:0 22:0 23:0 24:0 25:0 26:0 27:0 28:0 29:0 30:0 31:0 32:0 33:0.178571 34:0.6 35:0.221429 36:0 37:0 38:0 39:0 40:0 41:0 42:0 43:0 44:0 45:0 46:0 47:0 48:0 49:0 50:0 51:0 52:0 53:0.021429 54:0.064286 55:0.114286 56:0.764286 57:0.035714 58:0 59:0 60:0 61:0 62:0 63:0 64:0 65:0 66:0 67:0 68:0.014286 69:0.05 70:0.078571 71:0.307143 72:0.55 73:0 74:0 75:0 76:0 77:0 78:0.092857 79:0.45 80:0.442857 81:0.014286 82:0 83:0 84:0 85:0 86:0 87:0 88:0 89:0 90:0 91:0 92:0 93:0 94:0 95:0 96:0 97:0 98:0 99:0 100:0.057143 101:0.428571 102:0.514286 103:0 104:0 105:0 106:0 107:0 108:0 109:0 110:0 111:0 112:0 113:0 114:0.042857 115:0.385714 116:0.135714 117:0.428571 118:0.007143 119:0 120:0 121:0 122:0 123:0.071429 124:0.3 125:0.621429 126:0.007143 127:0 128:0 129:0 130:0 131:0 132:0 133:0 134:0 135:0 136:0 137:0 138:0 139:0 140:0 141:0 142:0.328571 143:0.314286 144:0.357143 145:0 146:0 147:0 148:0 149:0 150:0 
-1 -1 -1 -1 -1 1:0 2:0.046154 3:0.530769 4:0.423077 5:0 6:0 7:0 8:0 9:0 10:0 11:0 12:0 13:0 14:0 15:0 16:0.138462 17:0.5 18:0.338462 19:0.023077 20:0 21:0 22:0 23:0 24:0 25:0 26:0 27:0 28:0 29:0 30:0 31:0 32:0.023077 33:0.653846 34:0.207692 35:0.115385 36:0 37:0 38:0 39:0 40:0 41:0 42:0 43:0 44:0 45:0 46:0 47:0 48:0 49:0 50:0 51:0 52:0.030769 53:0.169231 54:0.2 55:0.023077 56:0.246154 57:0.330769 58:0 59:0 60:0 61:0 62:0 63:0 64:0 65:0 66:0 67:0.076923 68:0.115385 69:0.223077 70:0.023077 71:0.253846 72:0.307692 73:0 74:0 75:0 76:0 77:0 78:0 79:0.253846 80:0.492308 81:0.253846 82:0 83:0 84:0 85:0 86:0 87:0 88:0 89:0 90:0 91:0 92:0 93:0 94:0 95:0 96:0 97:0.038462 98:0.253846 99:0.1 100:0.023077 101:0.369231 102:0.215385 103:0 104:0 105:0 106:0 107:0 108:0 109:0 110:0 111:0 112:0.007692 113:0.269231 114:0.123077 115:0.015385 116:0.492308 117:0.092308 118:0 119:0 120:0 121:0 122:0 123:0 124:0.238462 125:0.615385 126:0.1 127:0.046154 128:0 129:0 130:0 131:0 132:0 133:0 134:0 135:0 136:0 137:0 138:0 139:0 140:0 141:0 142:0.015385 143:0.984615 144:0 145:0 146:0 147:0 148:0 149:0 150:0 
-1 -1 -1 -1 -1 1:0 2:0.053691 3:0.362416 4:0.416107 5:0.107383 6:0.040268 7:0.020134 8:0 9:0 10:0 11:0 12:0 13:0 14:0 15:0 16:0.228188 17:0.322148 18:0.402685 19:0.04698 20:0 21:0 22:0 23:0 24:0 25:0 26:0 27:0 28:0 29:0 30:0 31:0.020134 32:0.053691 33:0.38255 34:0.389262 35:0.14094 36:0.013423 37:0 38:0 39:0 40:0 41:0 42:0 43:0 44:0 45:0 46:0 47:0 48:0 49:0 50:0 51:0.006711 52:0.369128 53:0.100671 54:0.013423 55:0.026846 56:0.073826 57:0.369128 58:0.033557 59:0.006711 60:0 61:0 62:0 63:0 64:0 65:0 66:0 67:0.073826 68:0.395973 69:0.020134 70:0.114094 71:0.087248 72:0.302013 73:0.006711 74:0 75:0 76:0 77:0 78:0 79:0.228188 80:0.201342 81:0.228188 82:0.342282 83:0 84:0 85:0 86:0 87:0 88:0 89:0 90:0 91:0 92:0 93:0 94:0 95:0 96:0 97:0.026846 98:0.288591 99:0.114094 100:0.134228 101:0.369128 102:0.067114 103:0 104:0 105:0 106:0 107:0 108:0 109:0 110:0 111:0 112:0.073826 113:0.268456 114:0.067114 115:0.080537 116:0.489933 117:0.020134 118:0 119:0 120:0 121:0 122:0 123:0.033557 124:0.161074 125:0.322148 126:0.033557 127:0.436242 128:0.013423 129:0 130:0 131:0 132:0 133:0 134:0 135:0 136:0 137:0 138:0 139:0 140:0 141:0 142:0.080537 143:0.90604 144:0.013423 145:0 146:0 147:0 148:0 149:0 150:0 
